const float CONV1_CONV_WEIGHT[] = 
{
//    16, 3, 3, 3
 +0.602729f, +0.577472f, +0.504942f, +0.566820f, +0.550859f, +0.515732f, +0.433007f, +0.514487f, +0.599034f,
 +0.867717f, +0.900461f, +0.893103f, +0.836118f, +0.897980f, +0.879612f, +0.649470f, +0.795293f, +0.913745f,
 +0.509806f, +0.605891f, +0.624539f, +0.385956f, +0.499860f, +0.498782f, +0.150585f, +0.379121f, +0.517483f,

 -0.130306f, -0.105732f, -0.153492f, -0.131682f, -0.119949f, -0.112556f, -0.114324f, -0.162673f, -0.189389f,
 -0.078423f, -0.040699f, -0.066244f, -0.048345f, -0.049698f, -0.009530f, -0.020008f, -0.077077f, -0.089625f,
 -0.058898f, -0.010997f, -0.037240f, +0.035492f, +0.047869f, +0.085060f, +0.083131f, +0.020005f, -0.003829f,

 +0.132204f, +0.131902f, -0.073799f, -0.074394f, -0.129555f, -0.297514f, -0.184439f, -0.019730f, -0.381467f,
 +0.066262f, -0.011873f, -0.276019f, -0.021471f, -0.211329f, -0.401127f, -0.133200f, -0.030336f, -0.517052f,
 -0.142644f, -0.106839f, -0.337231f, -0.180845f, -0.252228f, -0.434303f, -0.132026f, +0.016455f, -0.387136f,

 +0.027751f, -0.024581f, +0.137326f, +0.157492f, +0.119829f, +0.230893f, +0.213271f, +0.069657f, -0.091240f,
 -0.006349f, -0.078975f, +0.026425f, +0.110771f, +0.006038f, +0.031493f, +0.171913f, -0.031766f, -0.268229f,
 -0.319740f, -0.522486f, -0.595884f, -0.400994f, -0.619606f, -0.718398f, -0.412261f, -0.715086f, -1.053613f,

 -0.112963f, -0.309634f, -0.358974f, +0.018349f, -0.283221f, -0.148516f, -0.120065f, -0.231882f, -0.336766f,
 -0.014642f, -0.148836f, -0.195284f, +0.069665f, -0.129354f, -0.005194f, -0.038192f, -0.092757f, -0.223254f,
 -0.158183f, -0.231296f, -0.309028f, -0.115914f, -0.262083f, -0.141438f, -0.274080f, -0.254455f, -0.366725f,

 -0.620707f, -1.577593f, -0.222773f, +0.999386f, -0.597539f, -1.110757f, +1.473238f, +1.633899f, -0.190668f,
 -0.442625f, -1.776863f, -1.156744f, +1.507049f, -0.318458f, -1.490276f, +2.343004f, +2.369543f, +0.012355f,
 -0.330729f, -0.790949f, -0.413676f, +0.474584f, -0.193267f, -0.955618f, +0.231252f, +1.310015f, -0.287615f,

 -0.259909f, -0.374764f, -0.324316f, -0.140496f, -0.296083f, -0.257224f, +0.009423f, -0.066027f, -0.127819f,
 -0.317984f, -0.452197f, -0.388964f, -0.232374f, -0.351393f, -0.328621f, -0.072158f, -0.149249f, -0.207442f,
 -0.323953f, -0.428553f, -0.372003f, -0.264582f, -0.364240f, -0.293609f, -0.098355f, -0.157440f, -0.162282f,

 +0.032010f, -0.032702f, +0.059902f, +0.118162f, +0.077045f, +0.016819f, -0.018900f, -0.031861f, -0.057118f,
 -0.199300f, -0.283104f, -0.209681f, +0.028433f, -0.045684f, -0.090595f, -0.068058f, -0.151316f, -0.208398f,
 -0.555315f, -0.637495f, -0.552055f, -0.092392f, -0.194090f, -0.239463f, -0.185494f, -0.265343f, -0.268852f,

 +0.797712f, +0.722838f, +0.596517f, +0.887155f, +0.844912f, +0.704988f, +0.852182f, +0.843981f, +0.790140f,
 +0.289136f, +0.187382f, +0.116150f, +0.309389f, +0.312537f, +0.202036f, +0.232042f, +0.263788f, +0.294243f,
 -0.023246f, -0.139105f, -0.254209f, +0.089321f, +0.032096f, -0.115732f, -0.013301f, -0.001107f, -0.024830f,

 +1.122733f, +0.948099f, +0.830881f, +0.876375f, +0.895148f, +0.749822f, +0.922863f, +0.846489f, +0.672299f,
 +1.514668f, +1.375552f, +1.207291f, +1.313762f, +1.300172f, +1.108349f, +1.366173f, +1.248607f, +1.043040f,
 +1.683079f, +1.544349f, +1.423797f, +1.402122f, +1.391169f, +1.274384f, +1.469423f, +1.349469f, +1.174297f,

 +0.071165f, -0.011310f, +0.030245f, -0.158798f, -0.280256f, -0.113977f, -0.140874f, -0.267414f, -0.157569f,
 -0.199028f, -0.312040f, -0.232907f, -0.504045f, -0.654640f, -0.435058f, -0.461445f, -0.643686f, -0.480692f,
 +0.155376f, -0.037101f, +0.009658f, -0.090703f, -0.339100f, -0.128917f, -0.034916f, -0.282582f, -0.166827f,

 -0.884960f, -0.963107f, -1.249135f, -0.636217f, -0.976146f, -1.600030f, -0.778142f, -0.993989f, -1.071960f,
 +0.795027f, +0.340139f, -0.361327f, +1.490503f, +0.762262f, -0.436682f, +1.140146f, +0.489421f, -0.218758f,
 +1.161244f, +1.097898f, +0.482503f, +1.657257f, +1.167398f, +0.240534f, +0.928445f, +0.450290f, -0.116405f,

 +0.073419f, +0.040941f, +0.048627f, +0.104117f, +0.002223f, +0.020958f, -0.014141f, -0.088152f, -0.096996f,
 +0.176096f, +0.160766f, +0.143890f, +0.175231f, +0.148842f, +0.121356f, +0.092365f, +0.030855f, +0.023148f,
 +0.169368f, +0.219629f, +0.199103f, +0.250832f, +0.183124f, +0.183296f, +0.164354f, +0.089059f, +0.087786f,

 -0.913696f, -0.489972f, -0.085479f, -0.439154f, -0.325068f, +0.408168f, +1.014508f, +0.631485f, +0.901027f,
 -0.759448f, -0.406893f, +0.084199f, -0.227500f, -0.170530f, +0.654896f, +1.341822f, +0.841688f, +1.107732f,
 -1.180870f, -0.964836f, -0.480922f, -0.583114f, -0.535761f, +0.191216f, +1.219270f, +0.738431f, +0.841123f,

 +0.495569f, +0.603696f, +0.640315f, +0.444286f, +0.628717f, +0.799652f, +0.441847f, +0.620272f, +0.807461f,
 +0.405991f, +0.521849f, +0.526151f, +0.418330f, +0.621287f, +0.817601f, +0.490072f, +0.698005f, +0.850412f,
 +0.657138f, +0.768626f, +0.689675f, +0.708554f, +0.909174f, +0.982534f, +0.614805f, +0.842535f, +1.013324f,

 +0.094695f, -0.386523f, -0.112253f, -0.200038f, -0.616219f, +0.002631f, -0.164486f, -0.483817f, +0.084313f,
 -0.794982f, -1.322558f, -1.037437f, -1.128456f, -1.606069f, -0.992736f, -1.014772f, -1.422423f, -0.852360f,
 +0.533290f, -0.037071f, +0.335017f, +0.260862f, -0.325491f, +0.308741f, +0.349471f, -0.106772f, +0.448902f,

};

const float CONV1_BN_WEIGHT[] = 
{
//    (16,),
 +0.070318f, +0.063600f, +0.014293f, +0.014615f, +0.034067f, +0.781676f, +0.063298f, +0.035717f, +0.260466f, +0.001814f, +0.129884f, +0.254371f, +0.010689f, -0.525648f, +0.038732f, +0.261562f,
};

const float CONV1_BN_BIAS[] = 
{
//    16,
 -0.023689f, +0.171751f, +0.023041f, +0.207581f, +0.139082f, +4.273857f, -0.928659f, +0.335685f, +0.631122f, -0.037414f, -0.480260f, +1.475762f, +0.657894f, -0.525091f, -0.220065f, -0.551219f,
};

const float CONV2_CONV1_WEIGHT[] = 
{
//    16, 1, 3, 3
 -0.449045f, -0.073123f, +0.947469f, -1.065148f, -0.615211f, +0.139025f, -1.494374f, -0.926387f, -0.018981f,

 -0.380807f, -0.260252f, -0.297992f, -0.141804f, -0.078737f, -0.107156f, +0.015919f, -0.029332f, -0.088113f,

 +0.585062f, +0.524199f, +0.116154f, +0.390697f, +0.470612f, +0.111702f, +0.297389f, +0.399021f, +0.268067f,

 +0.610566f, +0.136876f, -0.109322f, +0.701814f, +0.162572f, +0.028953f, +0.460861f, +0.277305f, +0.137604f,

 -0.515002f, -0.386667f, -0.296653f, +0.007250f, -0.021449f, -0.028862f, -0.547757f, -0.297534f, -0.143519f,

 +1.582068f, +2.973145f, -4.218912f, -0.836049f, +2.331983f, +2.555062f, -2.687841f, -3.577710f, +1.685164f,

 -1.057131f, -0.955321f, -0.911287f, -1.020490f, -0.622378f, -0.456943f, -0.678124f, -0.412634f, -0.216194f,

 -0.236308f, -0.190629f, -0.167473f, -0.089553f, -0.266633f, -0.363772f, -0.369096f, -0.341341f, -0.301227f,

 -0.580506f, -0.693111f, -0.375565f, -1.055580f, -1.163713f, -0.856348f, -1.058006f, -1.160460f, -0.789976f,

 -0.174585f, -0.065409f, -0.079997f, -0.084539f, -0.067313f, -0.099591f, +0.252418f, -0.126894f, -0.060135f,

 +0.405884f, +0.705273f, +0.571795f, +0.133995f, +0.312002f, +0.353928f, -0.152991f, +0.014824f, +0.220372f,

 +1.280968f, -1.140471f, +0.742913f, -2.746005f, -3.654466f, +0.179077f, +0.431142f, +0.558004f, +1.789015f,

 -0.562675f, -0.491172f, -0.730326f, -0.655729f, -0.606337f, -0.754780f, -0.615780f, -0.700063f, -0.787472f,

 -0.162212f, -0.205486f, -0.728724f, +0.219727f, -0.127967f, -0.168608f, -0.028578f, +0.396461f, +0.864937f,

 -0.848747f, -0.863330f, -0.601092f, -0.491733f, -0.275881f, -0.283590f, -0.394514f, -0.042733f, -0.004447f,

 +0.780813f, +0.989313f, -0.446801f, +1.244975f, +1.765213f, +0.398335f, +1.106423f, +1.573561f, +0.564225f,

};

const float CONV2_BN1_WEIGHT[] = 
{
//    (16,),
 +0.407997f, +0.000463f, +0.066285f, -0.455162f, +0.101502f, -0.300842f, +5.948373f, -0.228041f, +0.150525f, -0.743262f, -0.736155f, +0.672483f, +0.070064f, -0.005072f, +0.211462f, +0.241934f,
};

const float CONV2_BN1_BIAS[] = 
{
//    16,
 +4.718020f, -0.127634f, -0.227901f, -0.098053f, -0.028818f, -0.144048f, +0.102935f, -0.896720f, +2.497835f, -0.414169f, +1.670690f, +8.322148f, +0.268188f, -0.503088f, +1.935552f, +0.315246f,
};

const float CONV2_CONV2_WEIGHT[] = 
{
//    16, 16, 1, 1
 +0.753403f,
 -0.321870f,
 +0.960072f,
 +0.714359f,
 +0.358232f,
 +2.822791f,
 -0.249969f,
 +0.306274f,
 -0.142362f,
 +0.217920f,
 -0.286948f,
 -0.510838f,
 +0.328941f,
 +0.161260f,
 -0.744400f,
 -0.141078f,

 +0.258606f,
 -0.074504f,
 +0.026341f,
 +0.280897f,
 +0.121718f,
 -0.015721f,
 +0.244265f,
 -0.027331f,
 +0.379409f,
 +0.061692f,
 -0.079354f,
 -0.227365f,
 +0.239601f,
 +0.011104f,
 +0.123356f,
 +0.243701f,

 +0.831277f,
 +0.133075f,
 -0.266562f,
 -0.304438f,
 +0.123415f,
 -0.092834f,
 +0.857399f,
 +0.178751f,
 +0.243588f,
 +0.037942f,
 +0.747679f,
 -1.814070f,
 -0.025906f,
 -0.431772f,
 +0.345372f,
 +0.626280f,

 +0.623112f,
 -0.019044f,
 +0.153649f,
 +0.532861f,
 +0.316684f,
 +0.132157f,
 -0.563974f,
 +0.293059f,
 -0.040539f,
 -0.126415f,
 -0.336605f,
 +3.971934f,
 +0.470400f,
 +0.595490f,
 -0.435477f,
 +0.338828f,

 -0.297602f,
 +0.084679f,
 +0.154838f,
 +0.181918f,
 -0.111666f,
 +0.643909f,
 +0.060368f,
 -0.188898f,
 +1.656127f,
 +0.263574f,
 -0.853544f,
 -1.501561f,
 +0.071245f,
 +0.229158f,
 +0.024964f,
 +1.239640f,

 -0.516067f,
 +0.012536f,
 +0.109429f,
 -0.154980f,
 +0.077361f,
 +3.402184f,
 +0.259534f,
 -0.019558f,
 -0.061671f,
 -0.039345f,
 +0.178271f,
 +0.417181f,
 -0.059584f,
 +0.079918f,
 -0.150445f,
 +0.268623f,

 -0.205444f,
 -0.244454f,
 -0.114265f,
 +0.048791f,
 -0.005230f,
 -0.177246f,
 +0.201688f,
 -0.368713f,
 -0.040795f,
 -0.050345f,
 +0.064220f,
 +0.105308f,
 -0.109203f,
 +0.298000f,
 +0.165008f,
 -0.022752f,

 +0.197112f,
 +0.157605f,
 -0.147482f,
 +0.074376f,
 +0.255277f,
 -3.400386f,
 -0.303429f,
 -0.120838f,
 +0.406277f,
 +0.376948f,
 -0.643912f,
 -1.593881f,
 +0.162811f,
 +0.685326f,
 +0.525925f,
 +0.615508f,

 -0.192435f,
 -0.237649f,
 -0.037938f,
 -0.112086f,
 +0.347785f,
 +0.937568f,
 -0.804201f,
 -0.161910f,
 +0.941541f,
 +0.191531f,
 -1.293718f,
 -1.466494f,
 +0.302239f,
 -0.157848f,
 -0.630350f,
 +1.121356f,

 +0.198011f,
 -0.030149f,
 -0.256371f,
 -0.066025f,
 -0.311085f,
 -0.194164f,
 -0.171744f,
 +0.238788f,
 +0.519297f,
 +0.116466f,
 -0.219928f,
 +0.009744f,
 -0.152413f,
 -0.077037f,
 -0.256138f,
 -0.303127f,

 +0.413981f,
 -0.559696f,
 -0.195875f,
 +0.330171f,
 -0.406482f,
 -0.411224f,
 -0.505227f,
 -0.020453f,
 -0.137487f,
 +0.018558f,
 +0.010259f,
 -0.091595f,
 -0.094584f,
 -0.526928f,
 +0.959425f,
 -0.396041f,

 -0.020210f,
 +0.090075f,
 +0.157094f,
 -0.324736f,
 -0.326692f,
 +0.019519f,
 +0.041670f,
 +0.184302f,
 -0.223253f,
 +0.205367f,
 +0.194277f,
 -0.162353f,
 +0.013539f,
 +0.798737f,
 +0.420792f,
 +0.183330f,

 -0.215152f,
 -0.027804f,
 -0.020158f,
 +0.351934f,
 -0.081399f,
 +2.691831f,
 -0.130349f,
 -0.124862f,
 -0.056370f,
 -0.119282f,
 -0.193682f,
 -0.011718f,
 -0.069954f,
 -0.075565f,
 +0.190610f,
 -0.209102f,

 +3.621746f,
 +0.135769f,
 +0.002208f,
 -0.014104f,
 -0.179035f,
 -0.411912f,
 +0.052700f,
 -0.063938f,
 +1.143922f,
 +0.004135f,
 -0.216596f,
 +0.869858f,
 +0.152399f,
 -0.141105f,
 +1.200603f,
 +2.592165f,

 +0.149308f,
 +0.152798f,
 +0.009116f,
 -0.500359f,
 -0.492061f,
 -0.032454f,
 -0.075023f,
 +0.412829f,
 -0.140570f,
 -0.111735f,
 +0.152625f,
 +0.399179f,
 -0.080611f,
 +0.260060f,
 +0.828309f,
 +0.001741f,

 +0.941229f,
 -0.048731f,
 +0.127108f,
 -0.092672f,
 -0.261551f,
 +0.148184f,
 -0.074249f,
 +0.154993f,
 +0.195867f,
 +0.149009f,
 -0.250601f,
 +0.347790f,
 +0.072986f,
 -0.176274f,
 -0.187442f,
 +0.138595f,

};

const float CONV2_BN2_WEIGHT[] = 
{
//    (16,),
 -0.184173f, +0.035807f, +0.377294f, +0.288115f, +0.320740f, +0.247265f, +0.079865f, -0.206535f, -0.207343f, +0.066809f, +0.144193f, +0.127080f, +0.325323f, +0.204635f, +0.038518f, +0.059929f,
};

const float CONV2_BN2_BIAS[] = 
{
//    16,
 +1.597272f, -0.332163f, +2.516210f, -6.091233f, +3.037651f, -0.796403f, +0.060363f, -0.711721f, +0.506250f, +0.092045f, +0.400692f, -0.120910f, -0.036128f, -0.215642f, -0.255335f, -0.675124f,
};

const float CONV3_CONV1_WEIGHT[] = 
{
//    16, 1, 3, 3
 +0.900165f, +0.550132f, +0.048562f, +0.984522f, +0.940024f, +0.344569f, +1.094049f, +0.830697f, +0.442987f,

 -0.120067f, -0.154002f, -0.225507f, -0.142089f, -0.352380f, -0.378827f, -0.169533f, -0.201228f, -0.137303f,

 +1.907575f, +1.513255f, +0.262488f, +0.553116f, -0.994883f, -0.555925f, -1.510799f, -1.777242f, +0.210321f,

 -0.166621f, +0.816140f, +1.292889f, +0.572488f, +1.722922f, +1.706134f, +0.665249f, +1.787535f, +1.021891f,

 +1.071026f, +0.255875f, -0.871023f, +1.023598f, +0.771131f, +0.039758f, +1.106837f, +0.863276f, +0.084386f,

 +1.444728f, +1.203196f, -0.873559f, +0.852668f, +1.630139f, +1.163359f, -0.884783f, +1.200472f, +0.872944f,

 -0.149932f, -0.153161f, -0.053201f, -0.104096f, +0.078420f, +0.238197f, +0.196279f, +0.238459f, +0.192011f,

 +0.622142f, +1.030463f, +1.830891f, +1.445384f, +1.264055f, +1.060761f, +1.557754f, +0.957602f, +0.383956f,

 -0.556041f, -0.747516f, -0.340760f, -0.795500f, -1.401688f, -1.033297f, +0.058568f, -0.727963f, -0.543498f,

 +0.050688f, +0.088812f, +0.095571f, -0.066862f, +0.129974f, +0.143232f, -0.014854f, +0.087556f, +0.078843f,

 +0.201237f, -0.092644f, -0.111110f, -0.306513f, +0.076499f, -0.094931f, +0.094695f, +0.555929f, +0.652777f,

 +0.176826f, +0.338388f, +0.044439f, +0.312357f, +0.049207f, +0.026257f, +0.150543f, +0.092481f, +0.068107f,

 -0.399820f, -0.595694f, -0.629965f, -0.817500f, -1.039361f, -1.206738f, -0.478488f, -0.858265f, -0.840811f,

 -0.172164f, +0.988590f, +0.423842f, +1.213947f, +2.388077f, +1.571925f, +1.338300f, +1.958495f, +1.237967f,

 +0.133872f, +0.087153f, +0.164620f, -0.012298f, -0.014071f, +0.043846f, -0.127571f, +0.217730f, +0.051131f,

 -1.072355f, -1.110026f, -0.681358f, -0.482046f, -0.708103f, -0.908846f, +0.220711f, -0.041859f, -0.332097f,

};

const float CONV3_BN1_WEIGHT[] = 
{
//    (16,),
 +0.519024f, -15.779585f, +0.465822f, +0.135053f, +0.285971f, +0.219742f, -0.260584f, +0.103240f, +0.394841f, -0.377757f, -2.218940f, -1.447541f, +0.495245f, +0.107798f, +0.050978f, +0.121052f,
};

const float CONV3_BN1_BIAS[] = 
{
//    16,
 -4.833507f, +0.424316f, +0.446941f, +0.040646f, -2.011834f, +0.009681f, -0.131450f, +0.320339f, +6.012189f, -0.063583f, +4.836675f, -0.241824f, +2.013456f, -0.860243f, -0.132857f, -0.129427f,
};

const float CONV3_CONV2_WEIGHT[] = 
{
//    32, 16, 1, 1
 -0.200118f,
 -0.069224f,
 -0.193655f,
 +0.570794f,
 -0.132027f,
 +0.094826f,
 -0.197834f,
 -0.302624f,
 -0.019365f,
 -0.260930f,
 +0.107816f,
 +0.082119f,
 -0.442907f,
 -0.454310f,
 +0.081402f,
 -0.061306f,

 -0.307256f,
 -0.087996f,
 -0.274557f,
 +0.148875f,
 -0.541026f,
 -0.060951f,
 -0.278150f,
 -0.283219f,
 -0.321475f,
 +0.610419f,
 +0.906733f,
 -0.277185f,
 +0.034336f,
 -0.178985f,
 -0.138975f,
 -0.213033f,

 +0.115310f,
 +0.023169f,
 +0.068900f,
 -0.070800f,
 -0.308583f,
 +0.111706f,
 -0.288907f,
 +0.236845f,
 +0.112404f,
 +0.071585f,
 +0.380285f,
 -0.137961f,
 -0.026535f,
 +0.276273f,
 +0.170545f,
 -0.107022f,

 -0.006850f,
 -0.002365f,
 -0.119755f,
 -0.152642f,
 +0.144400f,
 +0.037149f,
 +0.018862f,
 +0.216562f,
 +0.095093f,
 +0.024046f,
 -0.050823f,
 +0.127807f,
 +0.253456f,
 +0.326203f,
 -0.007461f,
 +0.151455f,

 -0.002647f,
 -0.111586f,
 +0.129703f,
 +0.175029f,
 +0.042360f,
 -0.126993f,
 -0.493399f,
 +0.177269f,
 -0.377936f,
 -0.068453f,
 +0.044938f,
 -0.305367f,
 -0.044240f,
 +0.136576f,
 -0.027145f,
 -0.019049f,

 -0.763901f,
 -0.043445f,
 +0.990807f,
 +1.559346f,
 -0.631333f,
 +0.684762f,
 -0.121926f,
 +1.289716f,
 -0.967060f,
 +0.102605f,
 +0.494744f,
 -0.154923f,
 -0.934828f,
 +1.102285f,
 -0.037418f,
 -0.130277f,

 +0.115407f,
 +0.005115f,
 +0.035001f,
 +0.472011f,
 -0.216188f,
 -0.013885f,
 -0.068472f,
 -0.112520f,
 -0.079585f,
 +0.020870f,
 +0.036086f,
 +0.077741f,
 +0.064452f,
 -0.128941f,
 -0.143727f,
 -0.039494f,

 +0.264847f,
 -0.033403f,
 +0.652000f,
 -0.863283f,
 +0.307314f,
 +0.285196f,
 +0.004571f,
 +0.297226f,
 +0.719328f,
 +0.315997f,
 +0.464610f,
 +0.097125f,
 +0.054529f,
 -1.391401f,
 -0.143388f,
 +0.388487f,

 -0.110480f,
 -0.044729f,
 -0.448559f,
 +1.832828f,
 +0.034455f,
 -0.045425f,
 -0.014370f,
 +0.451552f,
 -1.156585f,
 +0.091491f,
 -0.060520f,
 -0.073158f,
 +0.420057f,
 +0.219930f,
 +0.002438f,
 -0.013104f,

 -0.027559f,
 +0.111814f,
 -0.136928f,
 -0.219136f,
 -0.011845f,
 +0.006701f,
 +0.210888f,
 +0.406764f,
 -0.007665f,
 -0.378037f,
 -0.423041f,
 -0.069134f,
 +0.070367f,
 +0.182739f,
 +0.101226f,
 -0.472197f,

 +0.134014f,
 -0.297623f,
 +0.051458f,
 +0.330019f,
 +0.180375f,
 -0.051501f,
 -0.060228f,
 -0.070435f,
 -0.100446f,
 +0.164466f,
 -0.004855f,
 -0.286958f,
 +0.102554f,
 -0.051212f,
 -0.120850f,
 +0.179165f,

 +0.074496f,
 -0.002427f,
 +0.203903f,
 -0.297961f,
 -0.139748f,
 +0.047533f,
 -0.011155f,
 +0.085992f,
 +0.014693f,
 -0.316245f,
 -0.387428f,
 +0.106878f,
 +0.062635f,
 +0.037181f,
 -0.046279f,
 +0.457822f,

 -0.166272f,
 +0.148310f,
 -0.113476f,
 -0.272985f,
 -0.026062f,
 +0.128599f,
 -0.014298f,
 -0.572631f,
 +0.141619f,
 -0.210649f,
 -0.037281f,
 -0.595504f,
 +0.218761f,
 -0.357586f,
 -0.006707f,
 -0.558496f,

 +0.172755f,
 -0.105758f,
 -0.076697f,
 +0.282494f,
 -0.091594f,
 -0.050027f,
 -0.380951f,
 +0.039951f,
 +0.111352f,
 +0.462877f,
 +0.828048f,
 -0.389627f,
 -0.106764f,
 -0.059220f,
 -0.110728f,
 -0.314601f,

 -0.111366f,
 -0.058804f,
 -0.068330f,
 -0.185677f,
 +0.087800f,
 -0.206879f,
 -0.301382f,
 +0.055684f,
 +0.209018f,
 +0.013922f,
 +0.077576f,
 -0.071679f,
 +0.224578f,
 -0.153105f,
 -0.223046f,
 -0.462310f,

 -0.055369f,
 +0.088183f,
 -0.035517f,
 -0.078645f,
 -0.070760f,
 +0.073244f,
 -0.025143f,
 -0.057979f,
 -0.064334f,
 +0.119111f,
 -0.101228f,
 -0.001972f,
 -0.142974f,
 +0.093864f,
 +0.201678f,
 -0.035552f,

 -0.048958f,
 -0.076546f,
 +0.213543f,
 -0.986079f,
 -0.637337f,
 -1.277671f,
 -0.020627f,
 -1.220798f,
 -0.557294f,
 +0.208428f,
 -0.511656f,
 +0.159632f,
 +0.262160f,
 -0.785159f,
 -0.384250f,
 +0.271240f,

 -0.053483f,
 +0.238906f,
 -0.160043f,
 -0.034602f,
 -0.006171f,
 +0.090060f,
 +0.053043f,
 -0.315784f,
 +0.043620f,
 -0.217370f,
 -0.105536f,
 -0.024900f,
 +0.032875f,
 +0.215976f,
 -0.281586f,
 +0.189763f,

 -0.711487f,
 +0.062624f,
 +1.919844f,
 +0.843711f,
 -0.658999f,
 +0.679475f,
 +0.091259f,
 +1.505409f,
 -0.685199f,
 +0.149599f,
 +0.611354f,
 +0.039562f,
 -1.285408f,
 -0.110207f,
 -0.144726f,
 +0.176236f,

 -0.097617f,
 +0.132441f,
 -0.080885f,
 +1.546801f,
 +0.789574f,
 -0.117037f,
 -0.179629f,
 -0.511162f,
 +0.783134f,
 -0.127668f,
 +0.358186f,
 -0.065603f,
 +0.145272f,
 +3.867962f,
 -0.078890f,
 +0.022263f,

 +0.055242f,
 -0.095207f,
 -0.436883f,
 +1.448470f,
 +1.323938f,
 +0.384088f,
 +0.266713f,
 +0.854104f,
 +1.669867f,
 +0.002329f,
 +0.569598f,
 +0.094213f,
 -0.281590f,
 +0.680585f,
 -0.191599f,
 +0.122918f,

 +0.161284f,
 -0.020159f,
 +1.056075f,
 -0.125294f,
 +0.334860f,
 +0.993882f,
 -0.514861f,
 +1.406391f,
 +0.545040f,
 +0.218373f,
 +0.176833f,
 -0.183858f,
 -0.076647f,
 +0.173335f,
 -0.210996f,
 +0.281440f,

 -0.388289f,
 +0.124581f,
 +0.148359f,
 -0.463790f,
 -0.003111f,
 +0.421015f,
 +0.022042f,
 +0.006289f,
 +0.313826f,
 -0.190001f,
 -0.044042f,
 -0.070409f,
 -0.262492f,
 +0.151678f,
 +0.350344f,
 +0.305170f,

 -0.018608f,
 -0.022121f,
 +0.193989f,
 -0.285844f,
 +0.312493f,
 -0.137565f,
 +0.095592f,
 +0.065559f,
 -0.406473f,
 +0.139820f,
 -0.243509f,
 -0.034683f,
 +0.117098f,
 +0.091107f,
 +0.128294f,
 -0.062874f,

 +0.053825f,
 +0.003342f,
 -0.016515f,
 +0.082178f,
 +0.047091f,
 -0.077896f,
 +0.032720f,
 +0.148595f,
 -0.152776f,
 -0.077617f,
 +0.044344f,
 +0.037200f,
 -0.129514f,
 +0.178954f,
 +0.045235f,
 -0.091583f,

 -0.063140f,
 +0.193893f,
 +0.075877f,
 -0.127364f,
 -0.057316f,
 +0.050101f,
 -0.056273f,
 -0.201582f,
 +0.079963f,
 -0.111994f,
 +0.061254f,
 -0.042786f,
 +0.067262f,
 -0.087574f,
 -0.095966f,
 +0.095553f,

 -1.150996f,
 +0.133187f,
 +0.805055f,
 +0.443208f,
 -0.092250f,
 +1.549685f,
 +0.172928f,
 +2.206695f,
 +0.108186f,
 -0.209906f,
 +0.451800f,
 -0.045149f,
 -0.960008f,
 +0.771420f,
 +0.171976f,
 +0.438261f,

 +0.731756f,
 -0.130651f,
 +0.151266f,
 +0.257728f,
 -0.687558f,
 -1.732045f,
 +0.176394f,
 -0.861570f,
 -0.019260f,
 +0.296509f,
 -0.700189f,
 +0.073149f,
 +1.345029f,
 -0.265392f,
 -0.174235f,
 -0.128580f,

 -0.002729f,
 -0.064345f,
 -0.088440f,
 -0.229840f,
 +0.360434f,
 +0.040221f,
 -0.087048f,
 -0.215944f,
 +0.468819f,
 -0.046783f,
 +0.014650f,
 -0.157974f,
 +0.153250f,
 -0.107765f,
 +0.007195f,
 +0.093672f,

 -0.474042f,
 +0.026367f,
 -0.115395f,
 -0.608885f,
 -1.191878f,
 +0.209932f,
 +0.074420f,
 +0.331906f,
 -1.150537f,
 -0.155914f,
 -0.226137f,
 -0.044132f,
 -0.424080f,
 -0.500159f,
 +0.240090f,
 +0.127027f,

 -0.664976f,
 +0.077275f,
 -0.024202f,
 -0.053927f,
 +0.256144f,
 +1.819188f,
 -0.234988f,
 +1.316868f,
 +0.050644f,
 +0.016209f,
 +0.150115f,
 +0.057641f,
 -0.812629f,
 +0.890935f,
 -0.364151f,
 +0.168222f,

 -0.132872f,
 +0.001317f,
 -0.211788f,
 -0.591906f,
 -0.413219f,
 +1.788808f,
 +0.057320f,
 +1.176883f,
 -0.152263f,
 -0.086791f,
 +0.182219f,
 -0.072540f,
 -0.786615f,
 +0.025461f,
 +0.068288f,
 -0.127804f,

};

const float CONV3_BN2_WEIGHT[] = 
{
//    (32,),
 +0.043997f, +0.038056f, +0.048608f, +0.057786f, +0.061730f, +0.286461f, +0.073990f, +0.267972f, +0.306310f, +0.106816f, +0.087354f, +0.074422f, +0.022534f, +0.055449f, +0.079548f, +0.241238f, -0.214755f, +0.074618f, +0.223770f, +0.211720f, +0.219851f, +0.305723f, +0.267939f, +0.050607f, +0.154571f, +0.079470f, +0.210741f, -0.340127f, +0.059719f, -0.249817f, +0.218175f, +0.186991f,
};

const float CONV3_BN2_BIAS[] = 
{
//    32,
 +0.334095f, +0.244683f, -0.231874f, -0.155344f, +0.026296f, -0.909164f, -0.200414f, +1.924946f, -0.630504f, -0.156358f, -0.058161f, +0.012770f, +0.297545f, -0.228167f, +0.033012f, +0.180471f, -3.440797f, +0.046374f, +0.514392f, -0.456193f, -2.478261f, -1.358230f, +0.876324f, +0.072696f, -0.049221f, +0.278154f, -0.365819f, +0.061578f, +0.001863f, -0.443936f, -0.628784f, +0.226753f,
};

const float CONV4_CONV1_WEIGHT[] = 
{
//    32, 1, 3, 3
 -0.139040f, -0.276984f, -0.244982f, -0.166839f, +0.104636f, -0.122592f, +0.147243f, +0.487474f, +0.229765f,

 -0.302562f, -0.266265f, -0.518728f, -0.023733f, +0.108620f, -0.218617f, -0.326015f, -0.260571f, -0.462246f,

 -0.086619f, -0.028187f, -0.157203f, +0.283043f, -0.070519f, -0.280811f, -0.053001f, -0.148749f, -0.291563f,

 -0.103100f, -0.308736f, -0.005058f, +0.198482f, +0.193011f, +0.089699f, +0.088479f, +0.245089f, +0.195081f,

 -0.034190f, +0.170306f, +0.205815f, -0.098602f, -0.151565f, -0.050599f, -0.013902f, -0.020080f, -0.113728f,

 +1.229337f, +2.361902f, +0.244278f, +0.458411f, +0.892111f, -0.154760f, -1.608918f, -1.532923f, -0.655207f,

 -0.093057f, +0.039544f, +0.016395f, -0.132494f, -0.115728f, -0.039405f, -0.171894f, -0.006163f, -0.197533f,

 -0.783100f, -1.318720f, -0.984798f, +0.059275f, -0.058661f, -0.350169f, +0.695815f, +0.997065f, +0.549821f,

 +0.039573f, +0.916809f, +0.293568f, +0.547959f, +0.918608f, +0.870137f, +0.309900f, +0.315471f, +0.609392f,

 +0.015385f, +0.267814f, +0.021084f, -0.209320f, -0.011573f, +0.432715f, +0.148928f, +0.096863f, +0.189925f,

 -0.217023f, -0.213344f, +0.071728f, -0.021442f, +0.009668f, +0.017124f, -0.074089f, -0.122410f, +0.009013f,

 -0.335523f, -0.167355f, -0.154008f, -0.275173f, -0.017118f, -0.028776f, +0.040873f, -0.030514f, +0.211106f,

 +0.331653f, +0.006361f, +0.017162f, +0.461288f, +0.343058f, -0.055632f, +0.636901f, +0.357186f, +0.006547f,

 +0.088997f, +0.018667f, -0.229529f, +0.104014f, +0.246675f, +0.240838f, +0.253398f, +0.144025f, -0.020829f,

 +0.184270f, +0.158598f, +0.006062f, -0.110670f, -0.001008f, -0.072086f, -0.068172f, -0.238912f, -0.135393f,

 +0.039286f, -0.003196f, -0.108059f, -0.176814f, -0.151952f, -0.115800f, -0.075195f, -0.096803f, -0.080274f,

 +0.793525f, +0.480640f, +0.392114f, +0.454876f, +1.110344f, +1.164398f, -0.531341f, +0.547866f, +0.209664f,

 +0.190437f, +0.095465f, +0.445479f, +0.251522f, +0.355297f, +0.370647f, +0.023022f, -0.064052f, +0.142288f,

 -0.154680f, -0.772045f, -1.452221f, -0.640356f, +0.851311f, +0.298315f, +1.714313f, +2.293425f, +0.377934f,

 -2.003917f, -2.497004f, -0.823714f, -0.851403f, +0.848861f, +0.336986f, +1.829197f, +3.714851f, +1.075419f,

 +0.868880f, -0.483590f, -0.637034f, +1.801218f, +0.127818f, -0.886096f, +0.924743f, +0.740989f, -0.706767f,

 -0.621673f, -0.190168f, +1.147847f, -0.639110f, -0.346644f, +0.144199f, -0.958582f, -0.344231f, +0.447030f,

 -0.161768f, +0.045438f, -0.096037f, -0.408439f, -0.326055f, -0.299394f, -0.398444f, -0.220521f, -0.167446f,

 -0.066322f, -0.041910f, -0.085782f, -0.074371f, +0.066409f, -0.125061f, +0.347035f, +0.097773f, +0.083182f,

 -0.036100f, -0.176029f, -0.003872f, -0.054274f, +0.028761f, -0.089164f, -0.018423f, -0.064096f, +0.192772f,

 -0.269572f, -0.016124f, -0.065231f, -0.121944f, -0.090333f, -0.087309f, +0.092655f, -0.049416f, -0.093007f,

 -1.074351f, -2.279783f, -0.029860f, -1.152640f, -0.764231f, +0.700470f, +0.815270f, +2.098793f, +1.270808f,

 -1.327554f, -0.367397f, +0.153099f, +1.280322f, -0.736609f, -1.071229f, +2.123534f, +0.602361f, -0.632642f,

 -0.001336f, -0.035337f, +0.142944f, +0.728665f, +0.290790f, +0.233252f, +0.137635f, +0.370712f, +0.140558f,

 -0.800006f, -0.089782f, -0.535573f, -0.707119f, -0.052062f, -0.102971f, -0.495779f, +0.150012f, -0.078470f,

 +0.770055f, -0.937198f, -1.048069f, +0.249585f, +0.203987f, -1.587288f, -0.182516f, +1.311733f, -0.853864f,

 +0.201189f, -1.126777f, -0.641345f, +0.212003f, -1.048429f, -0.996165f, +0.260499f, -0.011999f, -0.603678f,

};

const float CONV4_BN1_WEIGHT[] = 
{
//    (32,),
 +0.031143f, +0.003313f, +0.439643f, +0.008246f, +0.156853f, +0.273067f, +0.530268f, +0.631047f, +0.178512f, -0.071337f, +0.389140f, -0.026239f, +0.114332f, -0.134880f, -0.437588f, +0.125140f, +0.405446f, -0.381468f, +0.369272f, +0.283252f, +0.338189f, +0.416879f, -1.299863f, +0.029873f, +0.661640f, -0.077692f, +0.324269f, +0.411083f, +0.012281f, +0.791208f, +0.378874f, +0.412675f,
};

const float CONV4_BN1_BIAS[] = 
{
//    32,
 -0.096943f, -0.062398f, -0.190813f, -0.048670f, -0.063283f, +0.326679f, -0.012836f, +2.318664f, +0.013851f, -0.043798f, -0.011188f, -0.021694f, -0.253753f, -0.151984f, -0.215074f, -0.035161f, -0.096321f, -0.160234f, +0.361553f, +2.048517f, +0.168215f, +0.686958f, -0.934607f, -0.066695f, -0.009676f, -0.156009f, +1.335837f, +0.034995f, -0.088680f, +2.376435f, +1.888982f, +2.491519f,
};

const float CONV4_CONV2_WEIGHT[] = 
{
//    32, 32, 1, 1
 -0.051213f,
 -0.018215f,
 -0.046610f,
 +0.092690f,
 -0.105205f,
 -0.014006f,
 -0.002631f,
 +0.028600f,
 -0.011770f,
 +0.001436f,
 +0.068942f,
 -0.037897f,
 +0.041680f,
 +0.060635f,
 -0.064038f,
 -0.039936f,
 -0.041760f,
 +0.136651f,
 +0.052952f,
 +0.122342f,
 +0.012028f,
 +0.128928f,
 +0.012877f,
 +0.056091f,
 -0.052684f,
 -0.038356f,
 +0.109537f,
 +0.105568f,
 +0.004311f,
 +0.056117f,
 -0.025532f,
 -0.033502f,

 +0.066540f,
 -0.100649f,
 +0.041847f,
 -0.155057f,
 -0.026932f,
 +0.118937f,
 +0.060467f,
 -0.002590f,
 +0.036709f,
 -0.176541f,
 -0.209362f,
 +0.118606f,
 -0.149010f,
 -0.013947f,
 +0.194593f,
 -0.144473f,
 -0.357702f,
 -0.147132f,
 +0.242277f,
 -0.230274f,
 -0.007275f,
 -0.191397f,
 -0.115796f,
 -0.177793f,
 -0.076424f,
 +0.009515f,
 -0.115851f,
 -0.203773f,
 +0.033260f,
 -0.217531f,
 -0.177705f,
 +0.076742f,

 -0.049967f,
 -0.088054f,
 -0.025589f,
 -0.193540f,
 +0.182670f,
 +1.104547f,
 +0.082813f,
 +0.227267f,
 +0.170971f,
 +0.017516f,
 -0.049572f,
 +0.083448f,
 +0.082799f,
 +0.078409f,
 +0.030065f,
 +0.003966f,
 -0.234705f,
 -0.036112f,
 -1.506971f,
 -1.235380f,
 -0.801318f,
 -0.138130f,
 -0.238599f,
 +0.151062f,
 -0.082183f,
 -0.108781f,
 -1.441114f,
 +0.269276f,
 -0.000767f,
 +0.102128f,
 -0.612204f,
 -0.771238f,

 +0.031015f,
 +0.021166f,
 -0.065189f,
 -0.034192f,
 -0.211637f,
 +0.244769f,
 -0.076593f,
 -0.164398f,
 +0.345582f,
 +0.039607f,
 -0.039651f,
 -0.357004f,
 +0.014546f,
 -0.154801f,
 -0.063324f,
 -0.122292f,
 +0.158084f,
 +0.186513f,
 +0.341664f,
 +0.687779f,
 +0.589369f,
 -0.678725f,
 -0.169460f,
 -0.084739f,
 -0.168392f,
 -0.047927f,
 +0.641976f,
 -0.443952f,
 +0.029242f,
 -0.728435f,
 +0.739976f,
 +0.922186f,

 +0.006405f,
 +0.119845f,
 -0.229192f,
 +0.113864f,
 -0.191230f,
 -0.208065f,
 +0.040622f,
 +0.238010f,
 -0.058738f,
 -0.472339f,
 +0.066030f,
 +0.113744f,
 +0.010501f,
 +0.137172f,
 +0.022843f,
 +0.003783f,
 +0.160504f,
 +0.001200f,
 +0.942659f,
 +1.602791f,
 -0.087208f,
 -0.548993f,
 +0.204367f,
 +0.001243f,
 +0.128158f,
 -0.059187f,
 +0.252281f,
 +0.900790f,
 +0.313156f,
 +0.599757f,
 -0.193847f,
 -0.485812f,

 -0.058536f,
 -0.153585f,
 +0.157656f,
 -0.008012f,
 +0.160763f,
 -0.079199f,
 +0.091880f,
 -0.089546f,
 -0.116455f,
 +0.140897f,
 -0.074505f,
 -0.165238f,
 -0.074498f,
 +0.149004f,
 +0.106613f,
 -0.058466f,
 -0.037508f,
 +0.055736f,
 -0.003382f,
 +0.100623f,
 -0.069923f,
 +0.105768f,
 +0.069599f,
 -0.250862f,
 +0.043952f,
 -0.045691f,
 +0.110206f,
 +0.128542f,
 -0.018624f,
 -0.028956f,
 -0.021150f,
 +0.157087f,

 -0.150965f,
 +0.018640f,
 -0.070068f,
 +0.234864f,
 +0.149011f,
 +0.074243f,
 +0.051455f,
 -0.027455f,
 +0.069388f,
 +0.054622f,
 -0.082530f,
 +0.185827f,
 +0.008697f,
 +0.341254f,
 -0.065461f,
 +0.095340f,
 -0.067538f,
 +0.019994f,
 -0.012665f,
 +0.151968f,
 +0.138483f,
 +0.115513f,
 -0.059425f,
 -0.013861f,
 +0.005424f,
 +0.009311f,
 +0.192952f,
 +0.338287f,
 +0.079449f,
 -0.017747f,
 +0.296615f,
 +0.078234f,

 -0.203760f,
 -0.261429f,
 +0.065903f,
 -0.191081f,
 +0.142421f,
 +0.233861f,
 -0.310460f,
 -0.129942f,
 +0.233779f,
 +0.250969f,
 -0.242129f,
 +0.194823f,
 -0.154487f,
 -0.578400f,
 -0.030367f,
 +0.296238f,
 +0.331365f,
 +0.235475f,
 -0.059353f,
 +2.353608f,
 +0.849988f,
 +0.018381f,
 +0.660624f,
 -0.427655f,
 +0.207355f,
 +0.298083f,
 -1.114957f,
 +0.898689f,
 -0.271182f,
 +0.651744f,
 +0.779298f,
 +0.095668f,

 +0.123326f,
 -0.098635f,
 -0.107115f,
 +0.066690f,
 +0.189197f,
 +0.094610f,
 -0.054377f,
 -0.003767f,
 -0.266963f,
 +0.256931f,
 +0.154542f,
 +0.050607f,
 -0.039151f,
 +0.033633f,
 +0.048139f,
 -0.036027f,
 +0.034886f,
 +0.090516f,
 -0.109830f,
 -0.081129f,
 -0.142521f,
 +0.082839f,
 -0.089438f,
 -0.036689f,
 -0.020452f,
 +0.022144f,
 -0.075113f,
 +0.041074f,
 +0.032077f,
 +0.011415f,
 -0.035781f,
 +0.031333f,

 -0.054059f,
 +0.040075f,
 -0.078016f,
 +0.073058f,
 -0.058943f,
 +0.134244f,
 +0.109123f,
 -0.214016f,
 -0.130296f,
 +0.085262f,
 +0.071828f,
 -0.007189f,
 +0.309993f,
 +0.024331f,
 +0.033596f,
 -0.029924f,
 -0.181526f,
 +0.053581f,
 +0.066041f,
 -0.143211f,
 -0.065548f,
 +0.018525f,
 -0.017389f,
 -0.184236f,
 -0.066652f,
 -0.053564f,
 +0.002931f,
 +0.067071f,
 +0.092914f,
 -0.002936f,
 -0.072550f,
 -0.029687f,

 +0.038737f,
 +0.246041f,
 +0.243413f,
 +0.169830f,
 -0.116708f,
 +1.189961f,
 -0.052581f,
 -0.496938f,
 -0.281958f,
 +0.000679f,
 +0.064203f,
 +0.113924f,
 -0.023855f,
 +0.117557f,
 -0.082514f,
 +0.097310f,
 -0.191315f,
 +0.009030f,
 +1.195039f,
 +1.381539f,
 +0.472599f,
 -0.822134f,
 +0.388343f,
 +0.175614f,
 +0.036095f,
 -0.035020f,
 -0.831641f,
 +1.345904f,
 -0.039599f,
 +0.357505f,
 +0.513409f,
 +0.456933f,

 +0.157645f,
 +0.098397f,
 -0.130344f,
 -0.153838f,
 +0.171826f,
 +0.243793f,
 +0.075345f,
 +0.340218f,
 +0.172443f,
 +0.130998f,
 -0.057386f,
 -0.007184f,
 +0.192208f,
 +0.187042f,
 -0.037252f,
 +0.049373f,
 +0.209841f,
 +0.008373f,
 -0.075146f,
 +0.180291f,
 +0.297916f,
 -0.134818f,
 +0.061110f,
 -0.016736f,
 -0.267617f,
 +0.253031f,
 -0.239695f,
 -0.014506f,
 -0.114448f,
 +0.139836f,
 +0.198572f,
 +0.040840f,

 +0.217488f,
 -0.125767f,
 +0.098819f,
 -0.021577f,
 -0.149917f,
 +1.124986f,
 -0.078444f,
 -0.005965f,
 -0.267203f,
 -0.153348f,
 +0.027046f,
 -0.116172f,
 -0.075212f,
 +0.040524f,
 +0.107017f,
 +0.006603f,
 +1.045798f,
 +0.277342f,
 +0.021862f,
 +0.031496f,
 +0.755242f,
 +0.136755f,
 +0.291660f,
 +0.082551f,
 +0.018784f,
 +0.083023f,
 +1.453897f,
 +0.515660f,
 -0.095348f,
 -0.110362f,
 +0.094353f,
 -1.076953f,

 +0.115450f,
 -0.009879f,
 +0.109921f,
 +0.035573f,
 -0.173965f,
 -0.875200f,
 -0.142716f,
 +0.195235f,
 -0.468598f,
 -0.175011f,
 -0.007206f,
 -0.049819f,
 -0.014490f,
 +0.144545f,
 -0.075066f,
 +0.094051f,
 -0.063387f,
 -0.002495f,
 +0.957478f,
 -0.330567f,
 -0.214566f,
 -0.102632f,
 +0.222370f,
 -0.260732f,
 +0.080652f,
 -0.017704f,
 +0.467122f,
 -0.242247f,
 -0.072408f,
 -0.138660f,
 -0.405412f,
 +0.229537f,

 +0.015238f,
 -0.034177f,
 -0.067644f,
 -0.112816f,
 +0.074732f,
 -0.736009f,
 +0.182731f,
 +0.585203f,
 -0.415669f,
 -0.098756f,
 +0.104211f,
 -0.049028f,
 +0.197550f,
 -0.006445f,
 +0.024199f,
 -0.052485f,
 -0.824029f,
 -0.024222f,
 -0.608326f,
 -0.000288f,
 -0.864942f,
 -0.588646f,
 +0.206666f,
 -0.073816f,
 -0.009776f,
 +0.066824f,
 -0.861392f,
 -0.240468f,
 -0.228526f,
 +0.928538f,
 -0.274594f,
 +0.543628f,

 +0.157664f,
 +0.011656f,
 +0.292375f,
 +0.047156f,
 +0.004118f,
 -1.647503f,
 +0.104565f,
 -0.169110f,
 -0.648422f,
 -0.475337f,
 -0.061019f,
 +0.073874f,
 +0.020729f,
 +0.052194f,
 -0.031461f,
 +0.040013f,
 +0.187729f,
 -0.026435f,
 +0.434150f,
 +0.098574f,
 -1.336174f,
 -0.009581f,
 +0.102341f,
 -0.062495f,
 -0.061182f,
 -0.067633f,
 +1.150567f,
 -0.544089f,
 +0.167236f,
 +0.061149f,
 -0.174660f,
 +0.402359f,

 +0.225637f,
 +0.022142f,
 +0.189550f,
 +0.072745f,
 +0.000022f,
 +0.091143f,
 +0.041837f,
 -0.564489f,
 -0.915294f,
 +0.131569f,
 +0.090561f,
 +0.143153f,
 -0.029879f,
 +0.093464f,
 +0.033168f,
 +0.000707f,
 -0.455308f,
 +0.059550f,
 +1.695514f,
 +0.756752f,
 +0.349643f,
 -0.681859f,
 +0.258315f,
 -0.019007f,
 -0.024817f,
 +0.068372f,
 +1.119632f,
 +0.723908f,
 +0.111091f,
 -0.527814f,
 +1.185129f,
 +1.133397f,

 +0.064895f,
 -0.031327f,
 +0.063640f,
 +0.105323f,
 -0.071489f,
 +0.995615f,
 +0.048055f,
 +0.625536f,
 +1.142404f,
 -0.013579f,
 -0.037004f,
 -0.001631f,
 -0.020397f,
 -0.050042f,
 +0.054118f,
 -0.052935f,
 +0.762545f,
 +0.038526f,
 -0.156412f,
 +1.725459f,
 +0.025258f,
 -0.143988f,
 +0.032116f,
 -0.104933f,
 -0.006301f,
 -0.042201f,
 -0.131242f,
 +0.687162f,
 +0.016642f,
 -0.325448f,
 +0.703324f,
 +0.733303f,

 -0.015234f,
 +0.036029f,
 +0.037866f,
 +0.125412f,
 -0.152995f,
 -0.740886f,
 -0.092321f,
 -1.318570f,
 -0.055911f,
 +0.229497f,
 -0.148413f,
 -0.043238f,
 -0.093062f,
 -0.022533f,
 +0.075542f,
 +0.062562f,
 +0.524588f,
 +0.147363f,
 +1.120344f,
 +2.537913f,
 -0.100727f,
 +0.769937f,
 +0.181571f,
 -0.111770f,
 -0.079468f,
 +0.035393f,
 +1.187504f,
 +0.179387f,
 +0.036893f,
 +0.419442f,
 -0.200053f,
 -0.119159f,

 +0.075968f,
 +0.058983f,
 +0.009670f,
 -0.002556f,
 +0.129921f,
 +0.854772f,
 -0.044709f,
 -0.273658f,
 +0.064432f,
 +0.195190f,
 +0.007331f,
 +0.029460f,
 -0.073420f,
 +0.121476f,
 +0.130965f,
 +0.079045f,
 -0.080732f,
 +0.028826f,
 +0.566765f,
 +0.025801f,
 +0.477626f,
 -0.419065f,
 +0.109598f,
 +0.177940f,
 +0.024326f,
 +0.072597f,
 -0.001799f,
 +0.856388f,
 +0.164504f,
 -0.173109f,
 +1.094423f,
 +0.350267f,

 -0.251312f,
 -0.198889f,
 -0.082649f,
 +0.031305f,
 -0.105241f,
 +0.091738f,
 +0.002727f,
 -0.193160f,
 -0.258720f,
 -0.110784f,
 +0.027130f,
 -0.108531f,
 +0.160833f,
 -0.202986f,
 +0.117851f,
 -0.027153f,
 +0.480136f,
 +0.263248f,
 -0.236990f,
 -1.344821f,
 -0.166341f,
 -0.137357f,
 -0.208695f,
 -0.018448f,
 -0.039050f,
 +0.042045f,
 -0.780654f,
 -0.490868f,
 -0.014973f,
 -0.011297f,
 +0.038208f,
 -0.079526f,

 +0.226135f,
 +0.022646f,
 +0.342894f,
 +0.092740f,
 -0.021093f,
 +0.210220f,
 +0.101775f,
 -0.250483f,
 -0.192910f,
 +0.012172f,
 +0.027689f,
 +0.010438f,
 +0.022493f,
 +0.001263f,
 +0.154079f,
 +0.003823f,
 -0.231686f,
 +0.074330f,
 +0.064418f,
 +0.153306f,
 -0.428606f,
 -0.016736f,
 -0.049436f,
 -0.049155f,
 +0.004656f,
 -0.101103f,
 -0.230575f,
 -0.459040f,
 +0.079700f,
 +0.102191f,
 -0.137608f,
 -0.089207f,

 -0.265267f,
 -0.141021f,
 -0.069780f,
 +0.150870f,
 -0.151879f,
 -0.045286f,
 -0.148121f,
 +0.081046f,
 -0.088091f,
 -0.050635f,
 -0.047203f,
 -0.078729f,
 +0.083265f,
 +0.058343f,
 +0.054238f,
 +0.044570f,
 +0.413801f,
 -0.021721f,
 -0.105418f,
 -0.033755f,
 -0.038816f,
 +0.225468f,
 +0.067840f,
 +0.178114f,
 -0.018723f,
 -0.053901f,
 +0.116537f,
 -0.273967f,
 -0.018652f,
 +0.196178f,
 -0.016036f,
 +0.000666f,

 +0.067156f,
 -0.053556f,
 +0.018007f,
 +0.119752f,
 +0.018117f,
 -0.118868f,
 -0.020425f,
 +0.967025f,
 -0.453495f,
 +0.091532f,
 -0.010888f,
 +0.018343f,
 +0.181078f,
 +0.059803f,
 -0.051920f,
 +0.022088f,
 +1.090213f,
 -0.002615f,
 +0.694287f,
 -0.971401f,
 -0.186487f,
 -0.207279f,
 +0.329568f,
 +0.050311f,
 -0.024186f,
 +0.066049f,
 +0.590532f,
 +1.099922f,
 -0.040485f,
 +0.155816f,
 +0.394844f,
 -0.196415f,

 +0.236940f,
 +0.207360f,
 -0.237827f,
 +0.025225f,
 +0.058500f,
 +0.081038f,
 +0.015865f,
 -0.205793f,
 -0.197741f,
 -0.155898f,
 -0.057818f,
 -0.028941f,
 -0.149008f,
 +0.009840f,
 -0.007481f,
 +0.076652f,
 -0.160354f,
 +0.004597f,
 +0.084136f,
 +0.157014f,
 -0.122521f,
 +0.161764f,
 +0.035668f,
 -0.143767f,
 +0.079990f,
 -0.051896f,
 -0.262357f,
 +0.106458f,
 -0.016835f,
 +0.058190f,
 -0.005105f,
 -0.210512f,

 -0.012107f,
 -0.012761f,
 -0.099370f,
 -0.095991f,
 +0.098399f,
 -0.709048f,
 +0.064176f,
 +0.753898f,
 -0.033916f,
 +0.060110f,
 -0.048233f,
 -0.006699f,
 +0.040267f,
 +0.000586f,
 -0.066215f,
 -0.049327f,
 +0.057291f,
 -0.038790f,
 +1.844276f,
 -0.359774f,
 -0.084689f,
 -0.614811f,
 +0.080351f,
 -0.074912f,
 +0.051004f,
 +0.077240f,
 +0.545741f,
 +1.366687f,
 -0.055480f,
 -0.732658f,
 +0.062103f,
 +0.328346f,

 -0.125881f,
 +0.149011f,
 +0.390997f,
 -0.303939f,
 +0.082927f,
 +0.021731f,
 -0.074506f,
 +0.145993f,
 +0.164123f,
 -0.167808f,
 -0.155657f,
 +0.045861f,
 +0.079912f,
 -0.188573f,
 -0.027103f,
 -0.114512f,
 +0.528110f,
 -0.040225f,
 -0.082797f,
 +0.371258f,
 +0.045612f,
 +0.061004f,
 +0.036025f,
 +0.081063f,
 -0.023149f,
 -0.073394f,
 +0.206613f,
 +0.226710f,
 -0.066558f,
 -0.179553f,
 -0.036455f,
 +0.097763f,

 +0.069446f,
 +0.119913f,
 +0.054845f,
 -0.068886f,
 -0.066378f,
 +0.368618f,
 +0.044536f,
 -0.539202f,
 -0.471990f,
 -0.179723f,
 +0.066033f,
 +0.047937f,
 -0.004192f,
 -0.067117f,
 -0.045664f,
 -0.020472f,
 -0.216955f,
 -0.026757f,
 -0.146223f,
 -0.507107f,
 +0.756905f,
 -0.172586f,
 -0.364517f,
 +0.035251f,
 -0.005847f,
 -0.064417f,
 -1.014284f,
 +0.267901f,
 +0.044759f,
 -0.494789f,
 +0.770072f,
 +0.761977f,

 +0.008856f,
 +0.032444f,
 -0.311033f,
 +0.028367f,
 -0.079517f,
 +0.549056f,
 +0.045884f,
 +0.612617f,
 -0.034762f,
 +0.045243f,
 -0.002326f,
 -0.171221f,
 +0.092828f,
 +0.089031f,
 -0.020455f,
 -0.111501f,
 +0.164959f,
 +0.071836f,
 -0.200891f,
 +0.831555f,
 +0.635338f,
 -0.087257f,
 -0.110430f,
 +0.004145f,
 -0.131052f,
 -0.019451f,
 +0.307544f,
 -0.718291f,
 +0.062304f,
 -0.301278f,
 +1.378638f,
 +0.941588f,

 +0.108125f,
 -0.411787f,
 -0.141058f,
 +0.044200f,
 +0.267711f,
 +0.168881f,
 +0.255941f,
 +0.035426f,
 -0.041874f,
 +0.275949f,
 +0.104220f,
 -0.204765f,
 -0.033413f,
 -0.095313f,
 +0.021221f,
 -0.077399f,
 -0.166004f,
 +0.043957f,
 -0.234875f,
 +0.126387f,
 -0.013499f,
 -0.327231f,
 -0.135300f,
 +0.159476f,
 -0.129423f,
 +0.179061f,
 +0.091836f,
 -0.239327f,
 +0.149810f,
 -0.171500f,
 +0.199340f,
 +0.091809f,

 -0.133261f,
 +0.044034f,
 +0.019494f,
 +0.076901f,
 -0.151357f,
 -0.000845f,
 -0.222212f,
 +0.003798f,
 +0.409532f,
 -0.127963f,
 -0.027724f,
 -0.065619f,
 +0.133797f,
 +0.075630f,
 -0.270211f,
 +0.003388f,
 +0.320247f,
 -0.049462f,
 +0.005469f,
 -0.033945f,
 -0.017244f,
 +0.014584f,
 +0.047563f,
 +0.237934f,
 +0.055600f,
 -0.134188f,
 -0.044230f,
 -0.169977f,
 +0.087482f,
 -0.014041f,
 -0.121909f,
 -0.066732f,

 +0.188740f,
 +0.003224f,
 -0.096263f,
 -0.426652f,
 +0.054377f,
 +0.291697f,
 +0.004119f,
 +1.032779f,
 +0.470158f,
 +0.315717f,
 +0.033551f,
 -0.094706f,
 +0.152049f,
 -0.245811f,
 -0.068970f,
 +0.023807f,
 +0.265413f,
 -0.060401f,
 +0.388957f,
 -2.091932f,
 +0.665944f,
 -0.102155f,
 +0.163133f,
 -0.087817f,
 -0.127793f,
 -0.012945f,
 -0.817664f,
 +0.346930f,
 -0.024408f,
 -0.587061f,
 -0.108608f,
 +0.556371f,

};

const float CONV4_BN2_WEIGHT[] = 
{
//    (32,),
 +0.104052f, +0.011936f, +0.220387f, +0.316471f, +0.277482f, +0.086783f, +0.048801f, +0.310218f, +0.071284f, +0.102621f, +0.282113f, +0.047589f, +0.501347f, +0.359491f, +0.332950f, +0.286642f, +0.301882f, +0.321480f, +0.298482f, +0.276537f, -0.151503f, +0.021843f, +0.095739f, +0.421395f, +0.083686f, +0.300948f, +0.091535f, -0.409265f, +0.266746f, +0.005358f, +0.039434f, +0.511038f,
};

const float CONV4_BN2_BIAS[] = 
{
//    32,
 -0.202262f, +0.295703f, +2.651097f, -2.132096f, -0.756477f, +0.000757f, -0.223770f, -0.720641f, +0.053337f, +0.135665f, -1.091050f, -0.173892f, -0.911322f, +0.248981f, +3.280807f, +1.473558f, -1.263801f, -2.854019f, -1.183479f, -0.758689f, -0.539287f, +0.205823f, -0.099211f, +1.187837f, +0.145712f, -0.332340f, -0.672219f, +0.644504f, -1.013130f, -0.239328f, -0.195677f, +2.031515f,
};

const float CONV5_CONV1_WEIGHT[] = 
{
//    32, 1, 3, 3
 -0.096387f, +0.010972f, -0.142332f, -0.013678f, -0.012532f, -0.037132f, -0.025552f, -0.061471f, -0.078977f,

 -0.133167f, +0.015303f, -0.133660f, -0.012040f, -0.055694f, -0.120629f, +0.072022f, +0.125912f, -0.478171f,

 -0.483742f, -0.547340f, -0.131542f, -0.705021f, -1.401971f, -0.281171f, -0.283130f, -0.794155f, -0.563642f,

 -0.092171f, -0.042569f, +0.076439f, -0.073434f, -0.834000f, -0.349029f, -0.144244f, -0.630170f, -0.887222f,

 +0.401331f, -0.462960f, +0.728526f, -1.012222f, -1.026601f, +0.389075f, -1.008781f, -0.741084f, +0.696913f,

 -0.074278f, -0.138201f, -0.132383f, -0.195873f, -0.094757f, -0.041795f, -0.154857f, -0.183003f, -0.138604f,

 +0.163622f, +0.084030f, +0.028579f, -0.003060f, +0.245416f, +0.318947f, +0.055842f, +0.126002f, +0.231839f,

 +0.746998f, +1.610837f, +0.964650f, +0.364736f, +1.610827f, +0.467406f, -0.599888f, -0.018204f, -0.516664f,

 -0.079483f, -0.078556f, -0.147245f, +0.067115f, -0.177474f, -0.044283f, -0.029996f, -0.135914f, -0.200680f,

 +0.017613f, -0.058781f, -0.170047f, -0.043807f, +0.037049f, -0.115138f, -0.224072f, -0.003147f, +0.062871f,

 +0.425050f, +0.300005f, -1.274113f, +0.631138f, -0.674592f, -1.937795f, +0.775414f, +0.000721f, -1.031424f,

 +0.074703f, +0.133037f, +0.085718f, +0.067485f, +0.132513f, -0.127059f, +0.018423f, -0.049166f, +0.128773f,

 +0.474266f, +0.576209f, +0.887953f, +0.319731f, +1.241408f, +0.714628f, -0.045670f, +0.245207f, +0.227742f,

 -0.354303f, -0.493657f, +0.005137f, +0.009716f, -0.678837f, -0.015495f, -0.306794f, -0.239473f, +0.268922f,

 +0.135046f, +0.628254f, +1.529178f, -1.208409f, -0.356874f, +0.088898f, -1.451732f, -0.305840f, -0.761122f,

 -0.348839f, -0.384350f, +0.097323f, -0.273178f, -1.017049f, -0.800934f, +0.058334f, -0.428817f, -1.114974f,

 -0.391229f, -0.961740f, -1.238895f, -0.337827f, -0.946405f, -1.648336f, +1.206764f, +1.481177f, +0.420342f,

 +0.037582f, +0.359094f, +0.952343f, -0.241605f, +0.574965f, +1.207162f, -0.433173f, +0.274259f, +1.249515f,

 +1.376360f, +1.088655f, -0.797466f, +2.065412f, +0.876211f, -1.912758f, +0.811979f, -0.625328f, -0.759030f,

 -0.444477f, -0.554788f, -0.174093f, -0.269287f, -0.553301f, -0.584791f, -0.209968f, -0.390192f, -0.174296f,

 -0.303495f, +0.268777f, +0.475250f, -0.419110f, -1.271086f, -0.052108f, +0.108028f, -0.449673f, +0.619025f,

 +0.024945f, +0.040341f, +0.072736f, +0.313498f, +0.104254f, -0.189809f, +0.204345f, -0.103727f, +0.160618f,

 -0.308858f, +0.013449f, -0.281413f, -0.370606f, -0.166383f, -0.283063f, +0.049342f, -0.281396f, +0.020957f,

 +0.794362f, +0.482943f, -0.754449f, +1.539711f, +0.745754f, -0.631724f, +0.346214f, +0.765088f, -0.013908f,

 -0.264190f, -0.297536f, -0.199528f, -0.111330f, -0.096804f, -0.045399f, -0.078064f, -0.294423f, -0.052588f,

 -0.059421f, -1.056596f, -0.352635f, -0.472354f, -1.224233f, -0.332279f, +0.018101f, -1.006181f, -0.102822f,

 +0.056821f, +0.372686f, +0.107119f, -0.169820f, +0.439994f, +0.218529f, -0.052359f, -0.170368f, +0.237884f,

 -0.027181f, -1.006117f, +0.259681f, +1.237771f, -1.192734f, -0.117952f, +0.686047f, -0.652329f, -0.481256f,

 -0.541484f, -0.431906f, -0.388272f, -0.478382f, -0.703833f, +0.074623f, -0.233811f, -0.354317f, -0.510879f,

 -0.013489f, +0.064798f, -0.210685f, -0.047963f, +0.201099f, +0.102233f, -0.002448f, +0.097568f, -0.057488f,

 +0.051386f, +0.330256f, +0.140069f, +0.297507f, +0.093375f, +0.093661f, -0.121434f, -0.104633f, +0.087596f,

 -0.098124f, -0.668177f, +0.104207f, +0.031484f, +0.619059f, +1.227667f, +0.242322f, +1.465602f, +1.193161f,

};

const float CONV5_BN1_WEIGHT[] = 
{
//    (32,),
 +0.802147f, +0.120201f, +0.603688f, +0.658221f, +0.581878f, +0.213179f, -0.466738f, +0.306398f, -0.245805f, +0.428436f, +0.442710f, +0.083974f, +0.356097f, +1.524908f, +0.856733f, +0.442349f, -0.309756f, +0.413823f, +0.393844f, +0.602179f, +0.402674f, -0.049318f, +0.382488f, +0.380004f, -0.050886f, +0.511361f, +0.212358f, +0.562203f, +0.657452f, +84.984867f, +1.089699f, +0.542268f,
};

const float CONV5_BN1_BIAS[] = 
{
//    32,
 -0.072584f, -0.027688f, +3.800118f, +2.253144f, +3.279263f, -0.003756f, -0.017285f, -0.825775f, -0.134900f, -0.122271f, +4.047521f, -0.108779f, -0.180083f, +2.068044f, +4.221954f, +4.468623f, -0.797965f, -0.406965f, +0.377559f, +2.735642f, +2.498358f, -0.025032f, -0.113884f, -0.219353f, -0.097036f, +3.240516f, -0.190082f, +2.434633f, +3.047215f, +0.032078f, -0.207419f, -0.471274f,
};

const float CONV5_CONV2_WEIGHT[] = 
{
//    48, 32, 1, 1
 +0.013359f,
 +0.096774f,
 -1.334871f,
 +0.525509f,
 -0.168326f,
 +0.054839f,
 +0.044961f,
 -0.010894f,
 -0.000907f,
 +0.036256f,
 -0.108070f,
 -0.011259f,
 +0.791712f,
 -0.152312f,
 -0.515495f,
 +0.456688f,
 +0.588959f,
 -0.198968f,
 +1.391927f,
 +0.150441f,
 +0.400752f,
 +0.068080f,
 +0.045963f,
 +0.236210f,
 -0.043532f,
 -0.003305f,
 +0.016607f,
 +0.234507f,
 +0.642006f,
 -0.011815f,
 -0.052189f,
 +0.131595f,

 +0.041758f,
 -0.021775f,
 -0.303347f,
 +0.398421f,
 +0.525295f,
 -0.003689f,
 -0.115933f,
 -0.192329f,
 -0.039565f,
 -0.006556f,
 +0.212969f,
 +0.011831f,
 +1.198862f,
 +0.232259f,
 +0.265885f,
 +0.827367f,
 -0.054899f,
 -0.385185f,
 +0.738980f,
 +0.251243f,
 +0.632713f,
 +0.043567f,
 -0.080645f,
 +0.019061f,
 -0.037625f,
 +0.347251f,
 -0.064765f,
 +0.247701f,
 +0.311294f,
 -0.014428f,
 -0.113366f,
 -0.283847f,

 -0.004560f,
 +0.029394f,
 +0.775430f,
 +0.164811f,
 +0.281454f,
 -0.008610f,
 +0.047091f,
 +0.791352f,
 -0.049024f,
 -0.006219f,
 -0.198352f,
 -0.041555f,
 -0.124090f,
 +0.391331f,
 +0.174003f,
 -0.310378f,
 -0.176066f,
 -0.230321f,
 -1.094342f,
 +0.320788f,
 +0.031477f,
 -0.136696f,
 -0.083434f,
 -0.495782f,
 -0.065372f,
 +0.830667f,
 -0.074009f,
 -0.196934f,
 -0.287720f,
 +0.075941f,
 -0.037859f,
 -0.141627f,

 -0.002445f,
 -0.010563f,
 +0.164393f,
 -0.039909f,
 +0.014599f,
 -0.003454f,
 +0.145007f,
 -0.048730f,
 -0.052774f,
 +0.058996f,
 -0.016878f,
 -0.066429f,
 +0.049563f,
 +0.008176f,
 -0.045150f,
 -0.212356f,
 +0.033814f,
 -0.054776f,
 -0.040620f,
 +0.037006f,
 -0.025492f,
 +0.178447f,
 +0.000401f,
 +0.058166f,
 +0.058391f,
 +0.041584f,
 -0.034744f,
 -0.007015f,
 +0.015201f,
 +0.014169f,
 +0.044808f,
 -0.011356f,

 -0.087068f,
 +0.126379f,
 -0.008344f,
 +0.109133f,
 -0.022110f,
 -0.040273f,
 +0.028012f,
 +0.198300f,
 +0.004257f,
 +0.029494f,
 -0.074709f,
 +0.068526f,
 -0.098161f,
 +0.040298f,
 +0.045457f,
 -0.064031f,
 +0.174559f,
 +0.077460f,
 +0.150230f,
 -0.053509f,
 +0.251183f,
 +0.125607f,
 +0.052986f,
 +0.129847f,
 +0.054856f,
 +0.026515f,
 +0.039567f,
 -0.076704f,
 -0.041514f,
 +0.007619f,
 +0.049302f,
 +0.101592f,

 -0.073507f,
 -0.213833f,
 +0.660512f,
 +0.160194f,
 +0.173955f,
 +0.080260f,
 -0.173266f,
 +0.626519f,
 -0.041124f,
 +0.028574f,
 +0.563574f,
 +0.036467f,
 +0.278370f,
 +0.190523f,
 +0.478519f,
 +0.366207f,
 -0.539132f,
 -0.034242f,
 -0.743085f,
 +0.071755f,
 +0.885445f,
 +0.074358f,
 +0.000369f,
 +0.338039f,
 -0.106678f,
 +0.217185f,
 -0.313654f,
 +0.445718f,
 +0.308326f,
 +0.039809f,
 -0.298537f,
 -0.726430f,

 +0.007616f,
 +0.084496f,
 +0.233853f,
 -0.022072f,
 +0.054899f,
 -0.064139f,
 +0.069901f,
 +0.415830f,
 -0.025968f,
 +0.035231f,
 +0.143923f,
 +0.025298f,
 +0.292691f,
 -0.056034f,
 +0.258031f,
 +0.394254f,
 +0.110774f,
 -0.134920f,
 +0.635034f,
 -0.335307f,
 +0.261339f,
 +0.108319f,
 +0.053607f,
 +0.247506f,
 -0.078823f,
 -0.272408f,
 +0.169555f,
 +0.754254f,
 -0.225663f,
 -0.040018f,
 +0.007239f,
 +0.317311f,

 +0.003465f,
 +0.049828f,
 -0.500560f,
 +0.065437f,
 +0.914185f,
 -0.082009f,
 +0.214994f,
 +0.063986f,
 -0.079909f,
 -0.149462f,
 -0.784434f,
 +0.024821f,
 +0.412042f,
 -0.168872f,
 +0.270034f,
 +0.331421f,
 +1.441692f,
 +0.515526f,
 +0.214662f,
 -0.364975f,
 +0.225329f,
 +0.033028f,
 -0.048006f,
 -0.218388f,
 -0.047824f,
 +0.061137f,
 -0.019703f,
 -0.325846f,
 +0.208725f,
 -0.026152f,
 -0.084004f,
 +0.612509f,

 -0.034960f,
 -0.107582f,
 -0.728744f,
 +0.384695f,
 +0.668892f,
 +0.002969f,
 -0.025890f,
 -0.468453f,
 +0.028003f,
 -0.097351f,
 +0.206381f,
 -0.203276f,
 +0.434396f,
 -0.020117f,
 -0.218390f,
 +0.378257f,
 +0.099379f,
 -0.217521f,
 +0.086187f,
 +0.243623f,
 +0.737171f,
 -0.153071f,
 -0.007016f,
 -0.005649f,
 +0.062257f,
 +0.793318f,
 -0.093664f,
 +0.291595f,
 +0.405668f,
 -0.134709f,
 -0.090160f,
 -0.178275f,

 +0.114123f,
 +0.095783f,
 +0.096814f,
 +0.651270f,
 +0.825406f,
 -0.100623f,
 -0.025547f,
 -0.600916f,
 -0.028165f,
 +0.112446f,
 +0.249436f,
 -0.257011f,
 +0.479034f,
 +0.019532f,
 +0.563098f,
 +0.471633f,
 -0.162427f,
 -0.322107f,
 -0.819504f,
 -0.421825f,
 +0.306294f,
 +0.039736f,
 -0.079613f,
 +0.831957f,
 +0.119444f,
 -0.304495f,
 +0.014670f,
 +0.741523f,
 +0.423766f,
 +0.004071f,
 -0.012309f,
 +0.110445f,

 +0.042635f,
 +0.020513f,
 -0.075195f,
 +0.170840f,
 +0.503346f,
 +0.029713f,
 +0.007167f,
 -0.106436f,
 +0.064574f,
 +0.063391f,
 +1.712863f,
 +0.064847f,
 -0.161861f,
 +0.549097f,
 +0.147713f,
 -0.062524f,
 -0.229239f,
 -0.306939f,
 -0.770559f,
 +0.095044f,
 +0.454339f,
 +0.097501f,
 -0.092795f,
 -0.425161f,
 +0.003675f,
 +0.681772f,
 -0.054457f,
 +0.418129f,
 -0.770992f,
 -0.060253f,
 -0.135299f,
 +0.401866f,

 +0.082218f,
 +0.055617f,
 +0.147253f,
 +0.236712f,
 +0.032806f,
 -0.095585f,
 +0.050234f,
 +0.145941f,
 -0.042928f,
 +0.002641f,
 -0.147193f,
 -0.067365f,
 -0.163217f,
 +0.095593f,
 +0.097118f,
 -0.006302f,
 +0.069467f,
 +0.034545f,
 -0.068063f,
 +0.011650f,
 -0.016942f,
 +0.165996f,
 -0.008237f,
 -0.096729f,
 +0.009726f,
 -0.131867f,
 +0.120494f,
 +0.267147f,
 -0.104665f,
 -0.052447f,
 +0.085412f,
 +0.052131f,

 +0.072525f,
 +0.141396f,
 -0.069470f,
 -0.007938f,
 -0.046298f,
 +0.036284f,
 +0.017208f,
 -0.066555f,
 -0.037252f,
 -0.136715f,
 +0.075053f,
 +0.072507f,
 -0.041983f,
 +0.047336f,
 +0.167621f,
 -0.088032f,
 -0.083565f,
 -0.016005f,
 -0.079103f,
 -0.027661f,
 +0.230682f,
 +0.055587f,
 -0.011359f,
 +0.060564f,
 +0.025302f,
 -0.059797f,
 -0.154819f,
 -0.060148f,
 +0.037977f,
 -0.091905f,
 +0.075186f,
 +0.116144f,

 -0.045109f,
 -0.026476f,
 +0.026650f,
 +0.088362f,
 -0.221003f,
 +0.011860f,
 +0.282475f,
 -0.048331f,
 -0.086840f,
 -0.107794f,
 -0.352867f,
 -0.063699f,
 +0.253547f,
 -0.403443f,
 +0.628122f,
 -0.092402f,
 +2.209862f,
 -0.330996f,
 +0.390594f,
 -0.557908f,
 -0.187526f,
 -0.173723f,
 +0.019211f,
 +0.044470f,
 -0.026166f,
 -0.733529f,
 -0.092142f,
 +0.313856f,
 +0.080938f,
 -0.119782f,
 -0.213131f,
 -0.993887f,

 -0.003395f,
 +0.042306f,
 +0.404802f,
 -0.121472f,
 -0.165810f,
 -0.005779f,
 -0.074045f,
 +1.279929f,
 +0.025137f,
 -0.085547f,
 +0.633492f,
 +0.136711f,
 +0.001300f,
 +0.392451f,
 +1.049121f,
 +1.224073f,
 +0.439486f,
 +0.031059f,
 +0.382876f,
 -0.356590f,
 -0.054769f,
 -0.039013f,
 -0.049431f,
 +0.392724f,
 -0.005274f,
 +0.365184f,
 -0.052444f,
 +0.592862f,
 -0.168060f,
 +0.052913f,
 +0.058467f,
 +1.429900f,

 +0.002952f,
 +0.098316f,
 -0.074256f,
 -0.109903f,
 -0.141004f,
 +0.088207f,
 +0.066163f,
 -0.252307f,
 +0.097168f,
 -0.163394f,
 -0.041826f,
 +0.218566f,
 -0.079540f,
 -0.033388f,
 +0.006129f,
 +0.002609f,
 -0.073168f,
 +0.012224f,
 +0.173606f,
 -0.014401f,
 -0.228961f,
 +0.100516f,
 -0.012564f,
 -0.010381f,
 -0.045120f,
 +0.002257f,
 -0.094007f,
 -0.048762f,
 +0.022861f,
 -0.087332f,
 -0.049938f,
 +0.170324f,

 +0.018753f,
 -0.022488f,
 +0.128269f,
 -0.025738f,
 -0.054713f,
 -0.040742f,
 -0.193516f,
 -0.182897f,
 +0.002590f,
 -0.205709f,
 -0.041742f,
 -0.018361f,
 -0.123362f,
 +0.114095f,
 -0.108836f,
 +0.027802f,
 +0.010701f,
 -0.032666f,
 -0.065060f,
 +0.092043f,
 +0.091772f,
 +0.128828f,
 +0.149010f,
 -0.097980f,
 +0.037251f,
 -0.015381f,
 +0.401156f,
 -0.148780f,
 -0.031721f,
 -0.006055f,
 +0.150802f,
 -0.258963f,

 +0.016257f,
 -0.080123f,
 +0.947950f,
 +0.393737f,
 +0.379680f,
 -0.015076f,
 -0.017216f,
 -0.224645f,
 +0.010686f,
 +0.012636f,
 +0.691725f,
 -0.018079f,
 -0.079701f,
 +0.112261f,
 -0.059429f,
 -0.805152f,
 +0.286178f,
 +0.201410f,
 -0.339693f,
 +0.691474f,
 +0.795352f,
 +0.103603f,
 +0.076501f,
 +0.241623f,
 +0.041272f,
 +0.739004f,
 +0.012758f,
 +0.216139f,
 -0.363035f,
 -0.026707f,
 -0.064215f,
 -0.491380f,

 -0.019047f,
 -0.061613f,
 +1.037406f,
 +0.140383f,
 +0.080312f,
 -0.017858f,
 -0.038156f,
 -0.017303f,
 +0.072665f,
 -0.009633f,
 -0.136986f,
 -0.137749f,
 -0.136430f,
 -0.129242f,
 +0.012682f,
 -0.332367f,
 -0.193104f,
 -0.184072f,
 -0.051931f,
 +0.463977f,
 +0.075202f,
 +0.114320f,
 +0.047660f,
 -0.378592f,
 +0.079949f,
 +0.205273f,
 +0.080385f,
 -0.139288f,
 +0.053756f,
 +0.027198f,
 +0.051820f,
 -0.068588f,

 -0.026627f,
 +0.077470f,
 +0.094916f,
 -0.090842f,
 -0.004573f,
 +0.053612f,
 -0.088714f,
 -0.203291f,
 -0.155456f,
 -0.005145f,
 -0.125493f,
 +0.045475f,
 -0.073782f,
 -0.033443f,
 -0.009063f,
 +0.027077f,
 -0.102091f,
 -0.027403f,
 +0.114000f,
 -0.001848f,
 -0.193191f,
 -0.005948f,
 +0.175359f,
 -0.227925f,
 +0.004512f,
 +0.055293f,
 -0.240961f,
 -0.033444f,
 -0.028353f,
 -0.113496f,
 -0.011336f,
 +0.104199f,

 -0.001160f,
 +0.041789f,
 +0.118567f,
 +0.135994f,
 -0.122694f,
 -0.033945f,
 -0.136618f,
 -0.297353f,
 +0.066353f,
 +0.130850f,
 +0.074471f,
 -0.012146f,
 +0.047679f,
 +0.051541f,
 +0.100143f,
 -0.125915f,
 +0.206149f,
 +0.002579f,
 -0.023542f,
 -0.157670f,
 +0.044061f,
 -0.033208f,
 +0.074226f,
 -0.015660f,
 +0.163714f,
 +0.051401f,
 +0.101156f,
 -0.031468f,
 -0.041700f,
 -0.109369f,
 +0.046577f,
 +0.077021f,

 -0.118883f,
 +0.106507f,
 +0.052087f,
 -0.151549f,
 -0.005905f,
 -0.017589f,
 +0.105845f,
 +0.112767f,
 +0.049229f,
 +0.126210f,
 +0.390609f,
 +0.052257f,
 -0.129863f,
 +0.061308f,
 -0.116268f,
 -0.151966f,
 +0.116758f,
 +0.084337f,
 +0.037271f,
 +0.001367f,
 -0.047317f,
 +0.162143f,
 +0.072292f,
 +0.050620f,
 -0.035101f,
 +0.039204f,
 +0.192257f,
 +0.190015f,
 +0.061019f,
 -0.045015f,
 +0.100380f,
 -0.074406f,

 +0.003836f,
 +0.058507f,
 -0.572137f,
 +0.077452f,
 +0.355904f,
 +0.005195f,
 -0.038540f,
 +0.568428f,
 +0.041600f,
 -0.094277f,
 -0.905058f,
 -0.066795f,
 -0.021751f,
 -0.024384f,
 -0.171823f,
 +0.693444f,
 +1.050061f,
 +0.029500f,
 +1.179242f,
 -0.446816f,
 +0.022435f,
 -0.038503f,
 +0.207995f,
 +0.204535f,
 +0.170183f,
 +0.074309f,
 +0.120683f,
 +0.374345f,
 +0.259687f,
 -0.014972f,
 -0.086058f,
 +0.311008f,

 -0.028909f,
 -0.051176f,
 +0.777206f,
 +0.526899f,
 +0.681133f,
 -0.066671f,
 -0.127930f,
 -1.008868f,
 +0.163796f,
 +0.084930f,
 +0.487620f,
 -0.020760f,
 +0.542754f,
 -0.378987f,
 +0.460541f,
 -0.865701f,
 +0.320170f,
 +0.111723f,
 +0.105943f,
 +0.168954f,
 +0.782126f,
 +0.071294f,
 -0.072719f,
 +0.168248f,
 -0.128338f,
 -0.094510f,
 -0.105479f,
 -0.098596f,
 +0.727123f,
 -0.135862f,
 -0.040855f,
 -0.944280f,

 +0.036621f,
 +0.154537f,
 +0.963012f,
 -0.146854f,
 -0.334553f,
 +0.008320f,
 -0.040550f,
 +0.035793f,
 -0.027999f,
 -0.044079f,
 +0.315359f,
 +0.021332f,
 -0.182306f,
 +0.116886f,
 -0.373890f,
 +0.007059f,
 -0.077438f,
 +0.114627f,
 +0.176795f,
 +0.285670f,
 -0.357610f,
 +0.038088f,
 -0.093633f,
 -0.074667f,
 +0.030271f,
 -0.042349f,
 +0.010590f,
 +0.518214f,
 -0.141089f,
 -0.079967f,
 -0.170006f,
 +0.458952f,

 +0.051501f,
 +0.068856f,
 -0.199308f,
 -0.694717f,
 +0.454897f,
 +0.024812f,
 +0.107992f,
 +0.594524f,
 +0.113330f,
 +0.114159f,
 -0.523954f,
 +0.104530f,
 +0.612989f,
 -0.275445f,
 +1.030073f,
 +0.732683f,
 +0.721576f,
 +1.554015f,
 -0.229552f,
 -0.580948f,
 +0.532414f,
 -0.013090f,
 -0.067865f,
 +0.687262f,
 +0.047574f,
 -0.539835f,
 -0.064119f,
 +0.842220f,
 -0.803525f,
 +0.015554f,
 -0.083514f,
 +0.128557f,

 +0.037875f,
 -0.175525f,
 -0.079353f,
 +0.035194f,
 +0.015725f,
 -0.035354f,
 -0.067864f,
 -0.067251f,
 +0.004700f,
 +0.041620f,
 +0.078010f,
 -0.025102f,
 +0.047907f,
 -0.063879f,
 +0.126512f,
 -0.156706f,
 -0.028845f,
 +0.056328f,
 +0.009801f,
 -0.003935f,
 -0.102728f,
 -0.108503f,
 -0.115836f,
 -0.114696f,
 -0.065895f,
 -0.041935f,
 -0.106907f,
 -0.007957f,
 +0.030468f,
 +0.072660f,
 -0.048260f,
 +0.172250f,

 +0.024319f,
 +0.028421f,
 +0.845473f,
 +0.433251f,
 -0.106957f,
 -0.001429f,
 -0.005456f,
 -0.462820f,
 +0.045375f,
 +0.050893f,
 +0.396427f,
 -0.113392f,
 -0.618903f,
 -0.704375f,
 +0.345068f,
 -0.445141f,
 +0.194246f,
 -0.100605f,
 +1.332431f,
 +0.417532f,
 -0.058490f,
 +0.025755f,
 +0.187431f,
 +0.639927f,
 +0.010573f,
 -1.013341f,
 -0.064976f,
 -0.063898f,
 +0.695194f,
 +0.056066f,
 -0.124807f,
 -0.569170f,

 -0.018777f,
 +0.061491f,
 +0.888716f,
 +1.234166f,
 -0.393858f,
 +0.016527f,
 +0.001937f,
 -0.523584f,
 +0.018600f,
 +0.039857f,
 +0.286325f,
 +0.164736f,
 +0.026583f,
 -0.237632f,
 -0.826136f,
 -0.030316f,
 -0.219021f,
 +0.571876f,
 -0.604431f,
 +0.504492f,
 +0.272542f,
 +0.001265f,
 +0.005231f,
 +1.345851f,
 -0.003680f,
 -1.533455f,
 -0.098153f,
 -0.094440f,
 +1.203059f,
 +0.001820f,
 +0.022765f,
 -0.088103f,

 +0.036998f,
 -0.099144f,
 -0.055549f,
 +0.073213f,
 -0.219598f,
 -0.016868f,
 -0.051368f,
 +0.176132f,
 +0.099137f,
 +0.034587f,
 -0.157435f,
 -0.203233f,
 -0.129093f,
 +0.043696f,
 -0.059637f,
 +0.084589f,
 -0.138459f,
 +0.039141f,
 -0.055118f,
 +0.136689f,
 -0.088654f,
 -0.010894f,
 -0.094208f,
 -0.095168f,
 +0.114817f,
 +0.174949f,
 -0.137665f,
 -0.235972f,
 -0.021647f,
 -0.048322f,
 -0.002012f,
 -0.304025f,

 +0.099156f,
 +0.268117f,
 +0.676895f,
 -0.511180f,
 +0.002026f,
 -0.021570f,
 +0.065935f,
 +1.699020f,
 -0.025336f,
 +0.072330f,
 +0.595096f,
 -0.055897f,
 -0.436505f,
 +0.324015f,
 +0.235238f,
 +1.121126f,
 -0.655682f,
 +0.939776f,
 +0.046667f,
 -0.070229f,
 -0.317468f,
 -0.046748f,
 +0.043730f,
 +0.007809f,
 +0.102913f,
 +0.335820f,
 -0.058618f,
 +0.443399f,
 -0.413895f,
 -0.057561f,
 +0.013550f,
 +0.327328f,

 -0.005049f,
 +0.038051f,
 +0.335700f,
 -0.072300f,
 -0.051991f,
 -0.031335f,
 -0.027248f,
 +0.373514f,
 +0.082140f,
 -0.035048f,
 +0.654748f,
 +0.090606f,
 -0.648631f,
 +0.115962f,
 -0.216273f,
 +0.027382f,
 -0.243487f,
 +0.386471f,
 -0.562980f,
 +0.108560f,
 +0.358758f,
 -0.007100f,
 -0.049808f,
 +0.415826f,
 +0.056754f,
 -0.284514f,
 -0.048260f,
 +0.371382f,
 -0.208093f,
 +0.021706f,
 +0.308421f,
 +0.072227f,

 -0.022817f,
 -0.139544f,
 +0.605469f,
 +0.259294f,
 +0.543011f,
 +0.046615f,
 -0.075391f,
 -0.511417f,
 +0.027189f,
 -0.028355f,
 -0.208085f,
 +0.184105f,
 +0.737269f,
 -0.187386f,
 +0.372341f,
 +0.012814f,
 +0.418090f,
 +0.627617f,
 -0.317404f,
 +0.088610f,
 +0.474357f,
 +0.082558f,
 -0.028042f,
 +1.152000f,
 -0.050200f,
 -0.021931f,
 +0.005515f,
 -0.247813f,
 -0.185479f,
 -0.077541f,
 -0.159337f,
 -0.419366f,

 +0.000133f,
 -0.171545f,
 +0.613687f,
 +0.140954f,
 -0.409553f,
 -0.033948f,
 +0.056121f,
 -0.550678f,
 -0.056297f,
 +0.045384f,
 +0.704494f,
 -0.010478f,
 +0.970031f,
 -0.251782f,
 +0.001338f,
 -0.296859f,
 +0.163283f,
 -0.368778f,
 +1.324762f,
 +1.206805f,
 +0.293165f,
 +0.092782f,
 +0.061110f,
 -0.978199f,
 +0.001662f,
 +0.784406f,
 -0.034680f,
 -0.301392f,
 +0.286100f,
 -0.042790f,
 -0.158042f,
 +0.120353f,

 -0.053564f,
 +0.022313f,
 +0.544014f,
 -0.287545f,
 +0.582983f,
 -0.035921f,
 +0.123144f,
 -0.481645f,
 -0.079983f,
 -0.141742f,
 +1.029457f,
 +0.023401f,
 -0.501956f,
 +0.634657f,
 +0.059544f,
 +0.186201f,
 -0.980768f,
 +0.732143f,
 +0.374262f,
 -0.415405f,
 +0.059624f,
 -0.189009f,
 -0.005155f,
 +0.242589f,
 -0.077612f,
 +0.237809f,
 +0.018280f,
 +0.282656f,
 -0.241117f,
 -0.005206f,
 -0.107945f,
 +0.647327f,

 -0.040586f,
 +0.075035f,
 +0.103728f,
 +0.177543f,
 +0.395073f,
 +0.069084f,
 +0.041733f,
 -0.064376f,
 +0.007454f,
 +0.039150f,
 +0.100280f,
 -0.070681f,
 +0.079779f,
 -0.010072f,
 -0.027676f,
 -0.047714f,
 +0.007148f,
 +0.054475f,
 -0.003619f,
 -0.100548f,
 -0.125695f,
 +0.119399f,
 +0.060809f,
 -0.017101f,
 -0.084927f,
 -0.136293f,
 +0.203341f,
 -0.126471f,
 -0.000472f,
 +0.006178f,
 +0.056109f,
 -0.001113f,

 +0.097717f,
 -0.075795f,
 +0.428817f,
 -0.232787f,
 +0.236416f,
 +0.086437f,
 -0.177122f,
 +0.294114f,
 +0.070083f,
 +0.156416f,
 -0.060133f,
 -0.033476f,
 +0.487128f,
 +0.050669f,
 +0.566395f,
 +0.251002f,
 -0.038083f,
 +0.149579f,
 -0.059907f,
 -0.041095f,
 +0.514364f,
 -0.070279f,
 -0.006864f,
 -0.135442f,
 -0.091882f,
 -0.146357f,
 +0.029392f,
 +0.134237f,
 -0.004560f,
 +0.006626f,
 -0.121235f,
 -0.196852f,

 -0.031901f,
 +0.256194f,
 +0.511532f,
 -0.219200f,
 -0.352321f,
 +0.039818f,
 +0.135427f,
 +0.073476f,
 +0.012115f,
 -0.011886f,
 -0.220728f,
 -0.132599f,
 +0.671339f,
 -0.292875f,
 +1.245537f,
 -0.168530f,
 +0.519481f,
 +0.481909f,
 -0.814941f,
 -0.147828f,
 -0.470452f,
 +0.149062f,
 +0.032391f,
 +0.683174f,
 -0.001966f,
 -0.695143f,
 +0.060023f,
 +0.235772f,
 -0.203753f,
 -0.115408f,
 -0.255775f,
 -0.947658f,

 -0.078199f,
 +0.059366f,
 -0.486106f,
 +0.721873f,
 +0.665856f,
 +0.066257f,
 +0.170392f,
 +0.120866f,
 -0.027545f,
 -0.094774f,
 -0.028200f,
 +0.003862f,
 -0.164191f,
 +0.435064f,
 -0.419788f,
 +1.431681f,
 +0.246017f,
 +0.039379f,
 +0.389111f,
 +0.588165f,
 +0.535850f,
 +0.010254f,
 -0.013437f,
 -0.267589f,
 +0.043443f,
 +0.974285f,
 -0.133993f,
 +0.443732f,
 +0.561404f,
 -0.111718f,
 +0.015052f,
 -0.452114f,

 +0.037251f,
 +0.197438f,
 -0.036890f,
 +0.127287f,
 +0.018002f,
 -0.028772f,
 -0.014804f,
 +0.061187f,
 -0.055790f,
 -0.035298f,
 +0.103957f,
 -0.054425f,
 +0.236276f,
 -0.163902f,
 +0.099150f,
 -0.091513f,
 +0.121740f,
 -0.041702f,
 +0.103710f,
 +0.045229f,
 -0.008946f,
 +0.035951f,
 +0.237749f,
 +0.113537f,
 +0.193483f,
 +0.074705f,
 -0.165332f,
 -0.086198f,
 -0.020735f,
 +0.027419f,
 +0.256716f,
 +0.005548f,

 -0.027999f,
 +0.032781f,
 -0.012734f,
 -0.129451f,
 -0.059426f,
 +0.009766f,
 -0.055950f,
 -0.179958f,
 -0.056685f,
 +0.044450f,
 -0.193003f,
 -0.216012f,
 -0.055749f,
 +0.051687f,
 -0.048234f,
 +0.006123f,
 -0.057544f,
 -0.003689f,
 -0.102659f,
 -0.082351f,
 +0.140305f,
 -0.087799f,
 -0.043936f,
 -0.056604f,
 -0.088257f,
 +0.023639f,
 -0.111078f,
 -0.125411f,
 +0.104354f,
 +0.111325f,
 +0.031849f,
 -0.130739f,

 -0.027861f,
 +0.054480f,
 -0.703766f,
 +0.270088f,
 +1.567584f,
 +0.018698f,
 -0.026102f,
 -0.486615f,
 +0.033223f,
 +0.077765f,
 +1.290920f,
 -0.027369f,
 +0.503057f,
 -0.115197f,
 -0.513477f,
 -0.334117f,
 +0.144535f,
 +0.162764f,
 -0.320920f,
 +0.312653f,
 +0.585211f,
 +0.117994f,
 +0.117254f,
 -0.575820f,
 +0.018998f,
 +0.396046f,
 -0.140964f,
 +0.321393f,
 +0.021291f,
 -0.059939f,
 -0.115524f,
 -0.274480f,

 -0.012292f,
 +0.112988f,
 -0.103070f,
 -0.136456f,
 -0.112781f,
 -0.022528f,
 +0.173155f,
 -0.148600f,
 -0.000795f,
 -0.111546f,
 -0.045157f,
 -0.061112f,
 -0.025837f,
 -0.087380f,
 -0.060962f,
 +0.202724f,
 -0.098451f,
 +0.031896f,
 +0.211945f,
 -0.037804f,
 -0.176961f,
 -0.036993f,
 -0.037223f,
 -0.117274f,
 -0.130674f,
 -0.184796f,
 +0.044667f,
 -0.079279f,
 -0.100277f,
 -0.058209f,
 -0.138060f,
 -0.020308f,

 -0.010395f,
 +0.088965f,
 -0.107604f,
 -0.545865f,
 +0.194802f,
 -0.068010f,
 +0.151574f,
 +0.520182f,
 +0.041775f,
 -0.046116f,
 +0.421844f,
 +0.025135f,
 +0.445233f,
 +0.275717f,
 -0.283446f,
 +0.241034f,
 -0.202888f,
 -0.128224f,
 +1.427241f,
 -0.255646f,
 -0.182386f,
 -0.024447f,
 +0.207773f,
 -0.187398f,
 +0.060381f,
 -0.033476f,
 +0.138334f,
 +0.064700f,
 -0.254135f,
 +0.039790f,
 -0.148179f,
 +0.484909f,

 -0.025725f,
 +0.036515f,
 -0.515091f,
 +0.244061f,
 +0.446001f,
 -0.002057f,
 -0.032616f,
 -0.019070f,
 -0.052379f,
 +0.037137f,
 +0.352545f,
 +0.192585f,
 +0.423032f,
 +0.110776f,
 +0.421647f,
 +0.780176f,
 -0.023053f,
 -0.227477f,
 +0.694307f,
 -0.547243f,
 +0.361164f,
 -0.005389f,
 +0.076852f,
 +0.354592f,
 -0.074005f,
 -0.431446f,
 -0.066226f,
 +0.286284f,
 +0.010805f,
 -0.044315f,
 -0.066209f,
 +0.959326f,

 +0.041455f,
 +0.148574f,
 -0.037147f,
 -0.030803f,
 +0.134046f,
 -0.038097f,
 -0.077002f,
 +0.123178f,
 +0.095816f,
 +0.018245f,
 -0.087015f,
 +0.113441f,
 +0.178962f,
 -0.022577f,
 -0.115578f,
 -0.036165f,
 -0.044349f,
 +0.053840f,
 -0.160561f,
 -0.023006f,
 +0.113987f,
 +0.078386f,
 +0.062762f,
 -0.008443f,
 -0.059258f,
 +0.083161f,
 +0.453831f,
 +0.061157f,
 +0.013256f,
 -0.002351f,
 +0.162680f,
 -0.046511f,

 -0.044039f,
 +0.038226f,
 +0.118329f,
 +0.447936f,
 +0.191037f,
 +0.054503f,
 +0.084608f,
 +0.335902f,
 +0.022457f,
 +0.006217f,
 -0.924926f,
 +0.024157f,
 +0.583557f,
 +0.324239f,
 -0.158980f,
 +0.536995f,
 -0.150030f,
 +0.047606f,
 -0.017257f,
 +0.258396f,
 +0.076009f,
 +0.079071f,
 +0.082772f,
 +0.162237f,
 -0.046197f,
 +0.420977f,
 +0.101610f,
 +1.288250f,
 +0.525661f,
 +0.028519f,
 +0.075799f,
 +0.373112f,

 -0.066104f,
 -0.092111f,
 -0.467763f,
 +0.265836f,
 +0.318712f,
 +0.028382f,
 -0.172366f,
 +1.187881f,
 -0.073399f,
 -0.092314f,
 +0.426173f,
 +0.042481f,
 +0.414560f,
 +0.488405f,
 +0.390921f,
 +1.101235f,
 +0.060001f,
 +0.161465f,
 -1.378565f,
 +0.583103f,
 +0.934858f,
 -0.079382f,
 +0.109021f,
 +0.632801f,
 +0.106581f,
 +0.321326f,
 -0.153876f,
 +0.210705f,
 +0.306832f,
 +0.108665f,
 -0.066566f,
 -0.127811f,

};

const float CONV5_BN2_WEIGHT[] = 
{
//    (48,),
 +0.267924f, +0.348287f, +0.382710f, +0.072107f, +0.072093f, +0.378723f, +0.324994f, +0.311343f, +0.270428f, +0.370564f, +0.363541f, +0.083041f, +0.107514f, +0.369987f, +0.315398f, +0.108044f, +0.074919f, +0.452313f, +0.323147f, +0.108510f, +0.071105f, +0.127336f, +0.275122f, +0.328244f, +0.418213f, +0.291822f, +0.168995f, +0.374455f, +0.456187f, +0.260862f, +0.340579f, +0.544167f, +0.432450f, +0.432603f, +0.440305f, +0.082208f, +0.358594f, +0.431890f, +0.444821f, +0.092596f, +0.094916f, +0.369375f, +0.062383f, +0.339055f, +0.323246f, +0.032759f, +0.366885f, +0.403409f,
};

const float CONV5_BN2_BIAS[] = 
{
//    48,
 -0.884014f, -2.262813f, +0.318729f, +0.126683f, -0.106302f, +0.120643f, -1.384946f, +0.327391f, -0.612259f, +0.260672f, +0.509371f, -0.066959f, +0.044580f, +1.341361f, -2.407120f, +0.161436f, +0.043735f, -0.665212f, +0.209606f, +0.202060f, -0.109119f, -0.307598f, -0.754740f, +0.620829f, -0.198085f, -0.388867f, +0.099585f, +0.259797f, +0.769491f, +0.926405f, -1.832943f, +0.118663f, -1.409808f, -0.595680f, -0.729528f, -0.155446f, -1.491283f, +1.952469f, -1.376417f, -0.270801f, +0.233657f, -0.365328f, +0.255382f, -0.804456f, -1.597593f, -0.137926f, -1.221967f, -2.625733f,
};

const float CONV6_CONV1_WEIGHT[] = 
{
//    48, 1, 3, 3
 -0.335508f, +0.833237f, +0.117874f, +0.407559f, +1.806696f, -0.334918f, +0.096618f, -0.611971f, -0.221483f,

 -0.748881f, -0.177198f, -0.082070f, -0.068239f, -0.244648f, -0.417958f, +0.828423f, +1.208437f, -0.434167f,

 -0.649149f, -0.338411f, +0.186653f, +0.443787f, +0.822693f, +0.145494f, +0.956874f, +0.768457f, -1.196655f,

 -0.091289f, -0.061112f, -0.139782f, -0.016443f, -0.051159f, -0.005615f, -0.013201f, -0.022723f, +0.043821f,

 -0.050752f, -0.019039f, -0.096790f, -0.195759f, -0.114209f, +0.174329f, -0.259580f, -0.183383f, -0.093977f,

 +0.137948f, +0.368649f, +0.715161f, +0.110056f, -0.256779f, -0.486866f, -1.753987f, -0.473860f, +0.941474f,

 -0.343322f, -0.117732f, +0.807399f, -0.026119f, -0.177563f, +0.244731f, +0.597192f, -0.431252f, +0.165347f,

 +0.138467f, +0.356741f, -1.103152f, +0.442832f, +1.500053f, +0.005643f, +0.059400f, +0.534371f, +0.810023f,

 +0.914505f, -0.019803f, -0.749822f, -0.246197f, -0.575431f, -0.133475f, -0.331595f, -0.586276f, -0.032939f,

 +0.394077f, +0.427970f, +0.262932f, +0.109858f, -1.136283f, +0.174150f, +0.034415f, -1.367441f, -0.452002f,

 -0.424975f, +1.816220f, +0.192547f, -0.070361f, +0.975730f, -0.849764f, +0.027688f, +0.180978f, -1.202130f,

 -0.147433f, +0.009354f, +0.105703f, +0.050855f, +0.199974f, +0.220396f, -0.031532f, +0.053583f, -0.006709f,

 -0.056800f, -0.073348f, -0.052969f, +0.068690f, +0.090698f, +0.012016f, +0.013156f, +0.013500f, -0.017478f,

 -0.031439f, +1.233222f, -0.177580f, -0.061926f, +1.454567f, +0.781926f, +0.044021f, +1.366493f, -0.026699f,

 +1.303140f, +0.694056f, -0.234789f, +1.492378f, -0.193037f, -0.592582f, +0.322477f, -1.162678f, -1.253163f,

 +0.049687f, -0.042707f, +0.034833f, +0.209626f, +0.007119f, +0.007853f, +0.238274f, +0.169367f, -0.015787f,

 -0.094437f, +0.003629f, -0.063589f, -0.022397f, +0.216732f, +0.254904f, +0.052275f, +0.037213f, +0.196247f,

 -1.030318f, -0.853196f, -0.484497f, +0.027369f, -0.301621f, +0.149010f, +0.599430f, +0.596302f, +1.125766f,

 -0.182899f, +0.019205f, +0.702182f, +0.034850f, -0.131956f, +0.578343f, -0.039945f, +0.011492f, +0.548172f,

 +0.049523f, -0.118416f, -0.160018f, +0.039917f, +0.008622f, -0.145121f, -0.137529f, -0.103933f, -0.130340f,

 -0.048163f, +0.163639f, +0.187183f, -0.076502f, -0.102194f, -0.101513f, -0.079597f, -0.167810f, -0.065773f,

 -0.088024f, -0.074406f, -0.055555f, +0.032653f, -0.072759f, +0.042780f, +0.135090f, +0.075721f, +0.226707f,

 +0.105130f, -0.693996f, -0.936329f, +0.443912f, -0.935437f, -0.845510f, +0.361028f, -0.916889f, +0.051708f,

 +1.419286f, +0.155881f, +1.141121f, +0.516101f, -0.362672f, +0.117444f, -0.122489f, -1.369808f, -1.066574f,

 -0.374117f, -0.266669f, +0.428019f, -0.446060f, -0.262506f, +0.288306f, -0.577283f, +0.083425f, +0.401360f,

 -0.123811f, -0.649508f, -0.288563f, -0.139900f, +1.496627f, -0.017821f, -1.566137f, +1.835834f, +0.718445f,

 +0.214258f, +0.015133f, -0.176569f, -0.021464f, -0.074123f, -0.058206f, +0.083845f, +0.030127f, +0.109484f,

 -0.268280f, +0.379658f, +1.851753f, -0.210948f, +0.143971f, +0.454922f, -0.497231f, -0.547232f, -1.205282f,

 +0.077149f, -0.047003f, +1.646970f, -0.066360f, +0.483016f, +1.710413f, -0.641941f, -0.418804f, -1.324382f,

 -0.329233f, -0.224229f, -0.122839f, -0.319870f, -0.071420f, -0.117631f, -0.263204f, -0.024580f, -0.117610f,

 -0.593974f, -1.247723f, -0.241761f, -0.025779f, +0.717127f, -0.227853f, +0.312653f, +2.111729f, +0.755139f,

 +0.121223f, -0.649118f, -0.802400f, +0.544271f, -0.401388f, +0.059744f, +0.336683f, +0.109317f, +0.362950f,

 +0.527851f, -0.551038f, +1.430936f, -0.270405f, -0.519214f, +0.090116f, -0.595370f, +0.033917f, -0.137764f,

 -0.249020f, -0.856542f, -0.347720f, -0.929631f, +0.922021f, +1.413132f, -0.518933f, +0.747791f, +0.642672f,

 +0.533081f, -0.608777f, -0.359004f, +0.655824f, +0.193229f, +0.383983f, +0.959617f, +0.609673f, +0.464474f,

 -0.151603f, -0.105749f, +0.000272f, -0.063617f, -0.130680f, -0.154245f, -0.098851f, +0.016885f, -0.043780f,

 +0.186636f, -0.067383f, +0.070294f, +0.172683f, +0.174857f, +0.281110f, +0.093317f, +0.091057f, +0.685775f,

 -0.508096f, -0.809469f, -0.126319f, +0.717600f, +2.026743f, -0.053923f, -0.677050f, -1.076551f, +0.247982f,

 -0.149391f, -1.649056f, -0.354567f, -0.171310f, +0.489893f, -0.669807f, +0.696618f, +0.944088f, +0.928089f,

 -0.068543f, -0.052346f, -0.099846f, +0.020743f, -0.109011f, -0.136392f, +0.025050f, -0.085675f, -0.081254f,

 -0.053009f, -0.002418f, -0.065548f, +0.003340f, -0.054305f, -0.102643f, +0.086615f, +0.339345f, +0.184306f,

 -0.733056f, -0.541228f, -0.001849f, +0.403477f, +0.126205f, -0.242445f, +1.830648f, +0.891679f, -0.860538f,

 +0.098899f, +0.143777f, +0.065268f, +0.005707f, -0.131641f, -0.038909f, +0.204046f, +0.065189f, +0.050945f,

 -0.692540f, -0.620783f, +0.669502f, +0.153059f, +1.314050f, -0.534658f, +0.396359f, -0.342366f, +0.091083f,

 -0.552227f, -0.219742f, -0.964699f, +0.937389f, +0.205995f, -0.102488f, +0.558805f, +0.278324f, -0.982538f,

 +0.133295f, +0.179347f, +0.241560f, -0.015114f, +0.014890f, +0.068846f, +0.037769f, +0.184491f, +0.147968f,

 +1.016631f, -0.081766f, -0.674991f, +0.268470f, -0.367463f, +0.531392f, -0.204966f, -0.815479f, +1.033732f,

 +0.616803f, -0.393497f, -0.217710f, -0.140686f, -0.178295f, +0.934123f, -0.585486f, -1.151314f, +1.885556f,

};

const float CONV6_BN1_WEIGHT[] = 
{
//    (48,),
 +0.417404f, +0.547950f, +0.634962f, +0.575721f, +0.200735f, +0.859162f, +0.828153f, +0.386402f, +0.815436f, -0.621390f, +0.615482f, +0.079782f, +0.124995f, +0.256813f, +0.314650f, -0.492944f, -0.094796f, +0.568204f, +1.839689f, -0.172451f, -0.056095f, +0.117235f, +0.609218f, +0.402065f, +1.224983f, +0.511699f, +0.057271f, +0.560129f, +0.480308f, +1.078558f, +0.498711f, +1.446549f, +0.875624f, +0.658884f, +0.682769f, +11.851202f, +0.315374f, +0.446458f, +0.554722f, +0.839297f, -0.456813f, +0.658321f, +0.046578f, +0.744384f, +0.695546f, -0.033223f, +0.986407f, +0.804521f,
};

const float CONV6_BN1_BIAS[] = 
{
//    48,
 -0.005887f, +0.822010f, -0.214313f, -0.023503f, -0.061748f, +1.259039f, -0.023421f, -0.952135f, +1.905401f, -0.950911f, +0.363973f, -0.085214f, -0.088041f, -0.051060f, +0.404046f, -0.091585f, -0.048556f, +0.636903f, -0.028744f, -0.094185f, -0.085426f, -0.137536f, +2.424226f, +1.737976f, +1.132008f, -0.102702f, -0.063658f, +0.743366f, +0.002915f, +1.876946f, -0.015032f, +1.295365f, +0.536728f, -0.728214f, -0.477675f, -0.058463f, +0.034630f, -0.118430f, -0.068647f, -0.021488f, -0.053604f, +0.013817f, -0.031130f, -0.322946f, +1.411145f, +0.141489f, +0.249004f, +0.268889f,
};

const float CONV6_CONV2_WEIGHT[] = 
{
//    48, 48, 1, 1
 +0.985697f,
 +0.721134f,
 -0.067482f,
 -0.008423f,
 -0.095300f,
 +0.969256f,
 +0.064774f,
 +0.571853f,
 -0.496623f,
 +0.617684f,
 -0.508881f,
 +0.206258f,
 -0.049158f,
 -0.271067f,
 +0.525453f,
 -0.014402f,
 +0.185470f,
 +0.303219f,
 -0.054407f,
 +0.159262f,
 +0.039481f,
 +0.132083f,
 -0.435499f,
 -0.086578f,
 -0.209741f,
 +0.260547f,
 +0.021945f,
 +0.966354f,
 -0.523239f,
 +0.089995f,
 -0.496787f,
 +0.292201f,
 +0.052206f,
 -0.304625f,
 +0.362543f,
 +0.093251f,
 +0.046425f,
 +0.258903f,
 +0.621445f,
 +0.091527f,
 -0.022158f,
 +0.864280f,
 -0.060118f,
 +1.253151f,
 +0.394907f,
 +0.057602f,
 +0.109452f,
 +0.878412f,

 -0.203623f,
 -0.312368f,
 +0.192636f,
 +0.064991f,
 -0.008109f,
 +0.384326f,
 -0.072566f,
 +0.031338f,
 +0.019757f,
 +0.096535f,
 +0.126344f,
 +0.171667f,
 -0.013377f,
 +0.276426f,
 -0.018113f,
 -0.106871f,
 -0.088047f,
 +0.189606f,
 +0.102092f,
 -0.024178f,
 +0.012465f,
 -0.046096f,
 -0.130996f,
 +0.462595f,
 -0.234488f,
 +0.029489f,
 -0.047379f,
 +0.532942f,
 -0.286845f,
 +0.137630f,
 +0.103535f,
 +0.184361f,
 +0.690888f,
 +0.124983f,
 +0.315257f,
 +0.093740f,
 -0.038346f,
 -0.153574f,
 +0.389099f,
 -0.054488f,
 +0.008191f,
 -0.138469f,
 -0.065594f,
 -0.121775f,
 -0.497442f,
 -0.005204f,
 +0.167174f,
 -0.044149f,

 -0.030644f,
 -0.033056f,
 +0.025987f,
 -0.086341f,
 -0.030489f,
 +0.006681f,
 +0.005519f,
 +0.037242f,
 -0.133181f,
 +0.148909f,
 -0.232077f,
 -0.014591f,
 +0.015401f,
 -0.048755f,
 -0.085888f,
 +0.090927f,
 -0.066070f,
 -0.148909f,
 -0.111173f,
 +0.016720f,
 +0.021941f,
 -0.031649f,
 +0.040444f,
 -0.096943f,
 +0.103336f,
 +0.056212f,
 -0.067233f,
 +0.048522f,
 +0.022785f,
 -0.001250f,
 -0.051435f,
 +0.025072f,
 -0.036090f,
 -0.156191f,
 +0.024478f,
 -0.119217f,
 +0.321727f,
 +0.053415f,
 -0.053690f,
 +0.024178f,
 -0.021144f,
 -0.051910f,
 -0.222995f,
 -0.101438f,
 +0.039968f,
 +0.005889f,
 -0.009752f,
 +0.166086f,

 -0.335559f,
 -0.166378f,
 -0.023216f,
 -0.031523f,
 +0.049779f,
 -0.365834f,
 +0.106309f,
 +0.536231f,
 +0.357056f,
 +0.255989f,
 +0.686303f,
 -0.007611f,
 -0.099465f,
 +1.163635f,
 +0.647786f,
 -0.016364f,
 -0.038248f,
 -0.492722f,
 -0.122514f,
 -0.102631f,
 +0.019765f,
 -0.063997f,
 +0.322367f,
 -0.011600f,
 -0.192944f,
 -0.372024f,
 -0.050095f,
 +0.336183f,
 +1.222947f,
 +0.100086f,
 -0.179090f,
 +0.036784f,
 +0.250061f,
 +0.026983f,
 -0.235699f,
 +0.110730f,
 +0.417417f,
 +0.817093f,
 +1.248480f,
 +0.042643f,
 -0.003642f,
 +0.117072f,
 +0.246241f,
 -0.069226f,
 -0.363192f,
 -0.016167f,
 -0.095462f,
 +0.246566f,

 +0.644132f,
 -0.405778f,
 +0.102896f,
 +0.014973f,
 +0.042890f,
 -0.031504f,
 +0.352156f,
 -0.879005f,
 +0.693516f,
 -0.029907f,
 -0.557258f,
 -0.082467f,
 +0.003334f,
 -0.284372f,
 -0.369327f,
 +0.054364f,
 +0.048748f,
 +0.030651f,
 -0.650579f,
 -0.030051f,
 +0.013898f,
 +0.212731f,
 -0.428344f,
 +0.158182f,
 -0.592058f,
 -0.189129f,
 -0.146708f,
 +1.013678f,
 -0.470492f,
 +0.026870f,
 +0.730687f,
 +0.551842f,
 +0.108780f,
 +0.081020f,
 +0.786741f,
 +0.048129f,
 +0.249620f,
 -0.321549f,
 -0.214025f,
 -0.039472f,
 -0.001546f,
 -0.100926f,
 -0.056798f,
 +0.778468f,
 -0.773482f,
 +0.043188f,
 +0.551745f,
 +0.917875f,

 -0.023643f,
 -0.050975f,
 +0.026387f,
 +0.030723f,
 +0.060096f,
 -0.100042f,
 +0.055411f,
 -0.246336f,
 -0.404662f,
 +0.060964f,
 -0.198717f,
 +0.055486f,
 +0.038247f,
 -0.262462f,
 -0.237371f,
 -0.027999f,
 +0.156098f,
 +0.036746f,
 +0.288281f,
 +0.006889f,
 -0.052168f,
 +0.072228f,
 +0.254317f,
 +0.661589f,
 +0.440000f,
 +0.179664f,
 -0.015710f,
 +0.618273f,
 -0.601088f,
 +0.001733f,
 -0.105291f,
 -0.038184f,
 +0.143073f,
 -0.632752f,
 +0.046656f,
 -0.029489f,
 -0.169163f,
 -0.048805f,
 +0.460749f,
 +0.001153f,
 +0.010973f,
 +0.789205f,
 +0.000038f,
 -0.242371f,
 -0.344027f,
 +0.002187f,
 -0.302958f,
 -0.198988f,

 -0.008534f,
 -0.332102f,
 +0.271147f,
 -0.047879f,
 -0.025583f,
 +0.505318f,
 -0.052828f,
 +0.051696f,
 -0.283725f,
 -0.345597f,
 -0.508538f,
 -0.014324f,
 -0.032421f,
 -0.693531f,
 -0.299129f,
 +0.051702f,
 -0.060611f,
 +0.839106f,
 +0.130874f,
 -0.015310f,
 -0.038995f,
 +0.227015f,
 +0.546029f,
 -0.003947f,
 -0.042568f,
 +0.103760f,
 -0.134707f,
 +0.319873f,
 +0.674299f,
 -0.130617f,
 +0.712902f,
 -0.366657f,
 +0.026428f,
 +0.194072f,
 +0.477599f,
 +0.068509f,
 -0.234395f,
 -0.231145f,
 -0.532990f,
 -0.071927f,
 -0.024238f,
 +0.774905f,
 -0.116067f,
 +0.299261f,
 +0.148504f,
 -0.000076f,
 -0.682562f,
 -0.629039f,

 +0.464917f,
 -0.200470f,
 +0.811481f,
 -0.014816f,
 -0.068017f,
 -0.554430f,
 +0.067099f,
 -0.047469f,
 +0.029147f,
 -0.327674f,
 +0.123303f,
 +0.091842f,
 +0.026271f,
 +0.571192f,
 +0.843043f,
 -0.091761f,
 +0.143752f,
 +0.779135f,
 -0.100549f,
 +0.099120f,
 -0.036420f,
 +0.305354f,
 +0.066726f,
 +0.185282f,
 -0.096538f,
 +0.309527f,
 -0.042977f,
 +0.626777f,
 +0.619201f,
 -0.061126f,
 -0.140730f,
 +0.254711f,
 +0.361389f,
 +0.291164f,
 +0.281292f,
 -0.011908f,
 -0.018372f,
 +0.242063f,
 +0.860174f,
 +0.028247f,
 +0.012436f,
 +0.270069f,
 -0.046860f,
 -0.033110f,
 -0.324923f,
 -0.039786f,
 +0.265515f,
 -0.850576f,

 -0.037588f,
 +0.011031f,
 -0.041761f,
 -0.030649f,
 -0.053417f,
 -0.040209f,
 +0.054288f,
 +0.157304f,
 +0.033849f,
 -0.023552f,
 -0.122719f,
 -0.001195f,
 -0.023244f,
 +0.022098f,
 -0.110552f,
 -0.081934f,
 +0.068313f,
 -0.075782f,
 -0.087946f,
 -0.064999f,
 +0.060093f,
 +0.388058f,
 +0.068495f,
 +0.044241f,
 +0.103564f,
 +0.018647f,
 -0.024788f,
 +0.056949f,
 +0.035241f,
 +0.060518f,
 +0.080602f,
 +0.141666f,
 -0.031433f,
 +0.092119f,
 +0.038363f,
 -0.084715f,
 -0.071617f,
 -0.050159f,
 +0.114946f,
 -0.016251f,
 -0.061027f,
 +0.136718f,
 -0.114011f,
 +0.061629f,
 -0.057378f,
 +0.032934f,
 -0.081160f,
 -0.012526f,

 -0.089382f,
 -0.125868f,
 +0.039120f,
 -0.078574f,
 +0.047618f,
 +0.210611f,
 -0.023846f,
 +0.033750f,
 +0.024229f,
 +0.017447f,
 -0.086201f,
 -0.084521f,
 -0.068832f,
 +0.028052f,
 -0.159070f,
 +0.009758f,
 +0.017216f,
 +0.003844f,
 +0.003857f,
 -0.034894f,
 +0.210771f,
 -0.060935f,
 -0.014835f,
 +0.029843f,
 -0.068159f,
 +0.052460f,
 -0.028238f,
 -0.048234f,
 +0.068720f,
 -0.040357f,
 -0.104980f,
 +0.039964f,
 -0.033394f,
 +0.014480f,
 +0.042517f,
 +0.001579f,
 +0.256146f,
 -0.079254f,
 +0.029488f,
 -0.041488f,
 -0.134876f,
 +0.010023f,
 +0.063893f,
 -0.014550f,
 +0.095969f,
 -0.047472f,
 +0.071166f,
 -0.083650f,

 +0.038958f,
 +0.023079f,
 -0.007058f,
 +0.024745f,
 +0.097633f,
 +0.120809f,
 -0.087336f,
 -0.192017f,
 -0.067181f,
 -0.068548f,
 +0.265888f,
 +0.097245f,
 -0.086459f,
 +0.127653f,
 +0.015333f,
 -0.099031f,
 -0.119708f,
 -0.104701f,
 +0.007008f,
 -0.101662f,
 +0.014953f,
 -0.232046f,
 +0.091469f,
 +0.042034f,
 +0.115347f,
 -0.043828f,
 +0.015716f,
 +0.046500f,
 +0.042025f,
 -0.084128f,
 +0.139238f,
 -0.098118f,
 +0.011284f,
 -0.016961f,
 -0.064042f,
 -0.058518f,
 -0.090602f,
 -0.098260f,
 +0.070657f,
 -0.069109f,
 +0.034223f,
 -0.104560f,
 +0.014163f,
 +0.152862f,
 +0.028340f,
 -0.149003f,
 -0.041462f,
 -0.077284f,

 +0.416382f,
 -0.000575f,
 +0.206004f,
 -0.051403f,
 -0.007325f,
 +0.459250f,
 +0.591887f,
 +0.906088f,
 +0.152638f,
 +1.108865f,
 +0.184616f,
 -0.012204f,
 +0.031699f,
 +0.361245f,
 +1.442048f,
 -0.059742f,
 -0.120857f,
 +0.783965f,
 +0.055131f,
 +0.030559f,
 -0.067670f,
 +0.082276f,
 -0.359746f,
 -1.538438f,
 -0.264644f,
 +0.003830f,
 -0.009583f,
 -0.582551f,
 +0.226861f,
 +0.388349f,
 -0.411543f,
 -0.440324f,
 -0.437422f,
 -0.502782f,
 +0.510493f,
 +0.049096f,
 +0.134596f,
 +0.040790f,
 +0.005886f,
 -0.011183f,
 -0.140381f,
 +0.956404f,
 +0.112895f,
 +0.050518f,
 +0.234695f,
 +0.173341f,
 +0.252485f,
 +0.596758f,

 -0.088059f,
 +0.070369f,
 +0.175486f,
 +0.001959f,
 -0.016733f,
 -0.131596f,
 -0.012367f,
 -0.267461f,
 -0.037575f,
 -0.000578f,
 -0.034750f,
 +0.232423f,
 -0.099239f,
 -0.034719f,
 -0.081371f,
 +0.063491f,
 -0.123098f,
 -0.000744f,
 +0.010221f,
 -0.153205f,
 +0.043567f,
 -0.193413f,
 +0.017912f,
 +0.074635f,
 +0.021639f,
 -0.082689f,
 +0.114731f,
 -0.095417f,
 +0.034984f,
 -0.074351f,
 +0.006566f,
 -0.047370f,
 -0.098446f,
 -0.001783f,
 +0.008442f,
 -0.103911f,
 +0.127685f,
 -0.007245f,
 -0.133287f,
 +0.004656f,
 -0.053491f,
 -0.120742f,
 -0.118598f,
 -0.057258f,
 +0.073494f,
 +0.033712f,
 -0.042337f,
 -0.145395f,

 +0.016301f,
 -0.252180f,
 -0.609980f,
 -0.073675f,
 +0.037768f,
 -0.346501f,
 -0.003201f,
 -0.262942f,
 -0.131032f,
 -0.417092f,
 -0.615233f,
 -0.013282f,
 +0.029462f,
 +0.261638f,
 -0.535763f,
 +0.118699f,
 -0.064067f,
 -0.530245f,
 -0.079741f,
 +0.011485f,
 -0.075562f,
 +0.000997f,
 -0.309028f,
 +0.336573f,
 +0.005718f,
 -0.294050f,
 +0.174477f,
 +0.152909f,
 -0.680573f,
 -0.115224f,
 -0.015547f,
 +0.352714f,
 -0.313553f,
 +0.228497f,
 -0.032822f,
 +0.023206f,
 -0.068758f,
 -0.152030f,
 -0.085116f,
 +0.037742f,
 -0.069942f,
 -0.322423f,
 -0.087995f,
 +0.100112f,
 -0.017925f,
 -0.062937f,
 -0.348831f,
 +0.522454f,

 -0.837051f,
 -0.022095f,
 +0.616604f,
 +0.004954f,
 -0.076893f,
 -0.116432f,
 -0.098134f,
 -0.233068f,
 +0.084636f,
 +0.315536f,
 +0.361320f,
 +0.046355f,
 -0.057012f,
 -1.049806f,
 +1.058031f,
 +0.072392f,
 +0.232727f,
 +0.115603f,
 +0.139507f,
 +0.014313f,
 -0.037127f,
 +0.096036f,
 +1.118086f,
 -0.687719f,
 -0.048725f,
 +0.060120f,
 +0.005305f,
 -0.518063f,
 +0.154301f,
 -0.012816f,
 +0.017890f,
 +0.162868f,
 -0.093298f,
 +0.836345f,
 +0.934162f,
 -0.013336f,
 +0.086785f,
 -1.123183f,
 -0.310142f,
 +0.037069f,
 +0.001935f,
 -0.225724f,
 +0.078393f,
 -0.017152f,
 +0.539294f,
 -0.011819f,
 +0.192333f,
 -0.516954f,

 -0.009495f,
 +0.016586f,
 +0.566857f,
 -0.013583f,
 +0.077290f,
 -0.284991f,
 +0.147900f,
 -0.866118f,
 +0.005984f,
 +0.508777f,
 +0.940048f,
 -0.024528f,
 -0.044743f,
 -0.111634f,
 +0.959248f,
 -0.091426f,
 -0.048439f,
 -0.447254f,
 +0.036276f,
 -0.008811f,
 -0.046948f,
 -0.015638f,
 +0.575705f,
 -0.124038f,
 +0.485698f,
 -0.464454f,
 -0.007832f,
 +0.446429f,
 +0.650524f,
 +0.178654f,
 -0.469595f,
 +0.154526f,
 +0.687391f,
 +0.563734f,
 -0.143153f,
 +0.014627f,
 +0.080058f,
 -0.311174f,
 +0.556726f,
 +0.023912f,
 +0.140769f,
 -0.089316f,
 +0.133117f,
 -0.093812f,
 -0.188553f,
 -0.021902f,
 +1.057141f,
 +0.115073f,

 -0.099971f,
 -0.003962f,
 +0.000947f,
 +0.037232f,
 -0.081482f,
 -0.220727f,
 +0.064998f,
 +0.019611f,
 +0.031475f,
 +0.093211f,
 -0.044095f,
 -0.047788f,
 -0.127652f,
 +0.018898f,
 -0.139181f,
 +0.076910f,
 -0.315627f,
 +0.098014f,
 -0.030444f,
 -0.100183f,
 -0.079597f,
 +0.084632f,
 +0.092587f,
 -0.014098f,
 +0.016596f,
 -0.171527f,
 -0.066068f,
 -0.096616f,
 +0.138529f,
 -0.137642f,
 -0.143059f,
 -0.076963f,
 +0.009255f,
 +0.128869f,
 -0.067033f,
 -0.031861f,
 -0.108661f,
 -0.032737f,
 -0.137183f,
 -0.066966f,
 +0.005742f,
 -0.162554f,
 +0.050905f,
 -0.101311f,
 +0.012186f,
 -0.101280f,
 -0.006930f,
 -0.254914f,

 +0.049577f,
 -0.022960f,
 +0.095094f,
 -0.084205f,
 +0.093590f,
 +0.161608f,
 +0.110559f,
 +0.081163f,
 -0.035122f,
 +0.053523f,
 +0.346683f,
 -0.141219f,
 +0.015298f,
 +0.074205f,
 -0.041536f,
 -0.083239f,
 -0.035759f,
 +0.105892f,
 -0.039467f,
 +0.079361f,
 -0.087406f,
 -0.067895f,
 +0.054996f,
 +0.046794f,
 -0.150162f,
 +0.107643f,
 +0.059961f,
 +0.013698f,
 +0.053474f,
 +0.004633f,
 +0.087208f,
 -0.204694f,
 -0.024460f,
 -0.220221f,
 +0.118235f,
 +0.063155f,
 +0.023121f,
 -0.058745f,
 -0.055593f,
 -0.070754f,
 +0.135428f,
 -0.168526f,
 -0.033110f,
 -0.054978f,
 +0.144798f,
 -0.012421f,
 -0.085030f,
 +0.034439f,

 -0.490518f,
 +0.454388f,
 -0.563240f,
 +0.049021f,
 -0.050970f,
 +0.421399f,
 -0.074801f,
 +0.219851f,
 -0.283149f,
 -0.106422f,
 +0.011458f,
 +0.211757f,
 +0.077227f,
 +0.001623f,
 -0.432398f,
 +0.068329f,
 +0.033402f,
 -0.067074f,
 +0.049860f,
 +0.071803f,
 +0.052125f,
 -0.001058f,
 -0.182626f,
 -0.383070f,
 +0.293831f,
 +1.902577f,
 +0.018149f,
 -0.437655f,
 -1.009960f,
 +0.056992f,
 +0.096199f,
 -0.647939f,
 -0.247117f,
 -0.475844f,
 -0.175769f,
 +0.013585f,
 -0.053685f,
 +0.431707f,
 -0.270931f,
 +0.039682f,
 +0.038731f,
 +0.854370f,
 +0.070846f,
 +0.110167f,
 -0.106790f,
 +0.004924f,
 -0.537566f,
 +0.400668f,

 +0.331460f,
 -0.719041f,
 -0.125358f,
 +0.087969f,
 +0.038254f,
 +0.128640f,
 +0.406819f,
 -0.233973f,
 +0.167651f,
 -0.164720f,
 -0.436809f,
 -0.001574f,
 -0.184321f,
 -0.981811f,
 -0.005225f,
 -0.000481f,
 -0.008369f,
 +0.408433f,
 +0.060918f,
 -0.089474f,
 -0.064003f,
 -0.018205f,
 -0.005336f,
 +0.418095f,
 -0.353497f,
 +0.026306f,
 +0.014326f,
 -0.003930f,
 -0.202884f,
 +0.150841f,
 +0.361797f,
 +0.783252f,
 -0.092254f,
 +0.123275f,
 +0.802583f,
 +0.061048f,
 -0.207532f,
 -0.699916f,
 -0.600464f,
 +0.054833f,
 -0.025500f,
 -0.768158f,
 -0.051010f,
 +0.066344f,
 +0.229397f,
 +0.129601f,
 -0.447573f,
 -0.008388f,

 +0.151741f,
 +0.015326f,
 +0.008102f,
 +0.012449f,
 +0.037006f,
 +0.005719f,
 -0.001210f,
 -0.081801f,
 -0.093470f,
 +0.038831f,
 +0.038951f,
 +0.032970f,
 -0.028244f,
 -0.080060f,
 +0.007299f,
 -0.021162f,
 +0.118787f,
 +0.006257f,
 +0.027600f,
 +0.105986f,
 -0.060833f,
 +0.061081f,
 +0.015361f,
 +0.027815f,
 +0.002961f,
 +0.026896f,
 +0.004886f,
 +0.020868f,
 -0.013497f,
 -0.063194f,
 +0.144906f,
 -0.037939f,
 +0.004636f,
 -0.027955f,
 -0.029032f,
 -0.041451f,
 -0.078278f,
 -0.033481f,
 -0.013510f,
 +0.006232f,
 -0.020478f,
 +0.011303f,
 +0.022519f,
 +0.024809f,
 -0.009291f,
 +0.081976f,
 -0.034796f,
 +0.013404f,

 -0.002764f,
 +0.026157f,
 -0.051469f,
 -0.010106f,
 -0.008158f,
 +0.115513f,
 -0.032811f,
 +0.018231f,
 -0.098925f,
 -0.020126f,
 -0.036136f,
 +0.028773f,
 +0.042484f,
 -0.023120f,
 +0.119283f,
 +0.007584f,
 -0.015116f,
 +0.058302f,
 +0.098637f,
 +0.099281f,
 +0.038150f,
 -0.066948f,
 +0.040989f,
 -0.008881f,
 +0.045555f,
 +0.176737f,
 -0.001336f,
 +0.032021f,
 +0.014180f,
 +0.122474f,
 -0.033307f,
 +0.004723f,
 -0.029238f,
 +0.145291f,
 +0.046058f,
 -0.001977f,
 +0.082252f,
 -0.001585f,
 -0.063251f,
 -0.044953f,
 +0.039445f,
 +0.156742f,
 -0.011399f,
 +0.001635f,
 +0.013828f,
 -0.023067f,
 -0.002938f,
 +0.012602f,

 +0.110988f,
 -0.091020f,
 +0.184835f,
 +0.117570f,
 -0.087053f,
 -0.241872f,
 -0.137139f,
 -0.291292f,
 +0.138926f,
 -0.496308f,
 +0.230037f,
 -0.147394f,
 -0.099539f,
 +0.539997f,
 -0.821396f,
 -0.074318f,
 +0.136560f,
 -0.457143f,
 -0.061609f,
 -0.067570f,
 -0.052100f,
 -0.068978f,
 +0.111712f,
 +0.424842f,
 +0.057125f,
 -0.269540f,
 -0.031572f,
 +0.049957f,
 +0.599896f,
 -0.199719f,
 +0.693955f,
 -0.278786f,
 +0.818617f,
 -0.171167f,
 -0.368108f,
 -0.057154f,
 -0.018043f,
 -0.307966f,
 +0.435825f,
 -0.047832f,
 -0.066934f,
 -0.355271f,
 +0.006878f,
 -0.226292f,
 -0.373286f,
 -0.096181f,
 +0.143830f,
 -0.136126f,

 -0.080595f,
 -0.044326f,
 +0.139917f,
 -0.010197f,
 +0.044722f,
 -0.067820f,
 -0.127738f,
 -0.041593f,
 +0.107337f,
 -0.098615f,
 -0.173633f,
 -0.114088f,
 -0.021059f,
 -0.017501f,
 -0.032801f,
 -0.074501f,
 +0.065136f,
 +0.108213f,
 -0.047614f,
 -0.010470f,
 +0.064829f,
 +0.003220f,
 +0.012633f,
 -0.108470f,
 -0.064839f,
 +0.072382f,
 -0.042817f,
 -0.079441f,
 -0.010527f,
 -0.054585f,
 -0.028424f,
 -0.139961f,
 -0.006945f,
 +0.223452f,
 -0.048622f,
 -0.112223f,
 +0.098393f,
 -0.095306f,
 +0.000709f,
 +0.033589f,
 -0.066905f,
 +0.123381f,
 +0.025216f,
 -0.004895f,
 +0.040343f,
 -0.033902f,
 -0.054725f,
 +0.026869f,

 +0.019928f,
 -0.143335f,
 +0.001656f,
 +0.085860f,
 -0.147418f,
 -0.071532f,
 -0.227377f,
 -0.091685f,
 -0.227314f,
 +0.020263f,
 -0.087620f,
 -0.115297f,
 -0.157849f,
 +0.590032f,
 -0.125816f,
 -0.060192f,
 -0.031693f,
 +0.544992f,
 +0.121846f,
 -0.143195f,
 +0.116267f,
 -0.045342f,
 +0.133257f,
 +0.294254f,
 -0.102560f,
 -0.117159f,
 +0.070840f,
 +0.377173f,
 -0.370028f,
 -0.076558f,
 +0.546619f,
 +0.252547f,
 +0.371079f,
 +0.558191f,
 +0.231728f,
 -0.027675f,
 -0.017425f,
 +0.407066f,
 +0.436959f,
 +0.035562f,
 -0.052775f,
 +0.203644f,
 +0.139893f,
 -0.022193f,
 -0.255859f,
 -0.136425f,
 -0.249047f,
 +0.108656f,

 -0.084824f,
 -0.006101f,
 -0.213626f,
 +0.185958f,
 +0.148045f,
 +0.861847f,
 +0.128745f,
 -0.203628f,
 -0.098210f,
 +0.060231f,
 -0.250547f,
 -0.030141f,
 -0.154125f,
 -0.211984f,
 +0.013260f,
 -0.084780f,
 -0.097502f,
 -0.137457f,
 +0.065447f,
 -0.099236f,
 -0.079269f,
 -0.104301f,
 -0.106083f,
 -0.154944f,
 +0.073430f,
 -0.239660f,
 -0.113712f,
 -0.013169f,
 +0.294069f,
 +0.173438f,
 -0.030557f,
 +0.191308f,
 -0.051115f,
 -0.086209f,
 -0.117331f,
 -0.020591f,
 +0.300420f,
 -0.249452f,
 -0.145562f,
 +0.020015f,
 +0.000028f,
 -0.172370f,
 -0.139616f,
 -0.083937f,
 -0.113781f,
 -0.149670f,
 +0.084901f,
 -0.038717f,

 +0.107299f,
 +0.012399f,
 +0.019482f,
 +0.011715f,
 +0.024826f,
 +0.018572f,
 -0.018367f,
 -0.033250f,
 +0.072438f,
 +0.058355f,
 -0.111287f,
 +0.141446f,
 -0.108738f,
 +0.012722f,
 +0.068924f,
 +0.013187f,
 +0.138483f,
 +0.059667f,
 +0.059609f,
 +0.067402f,
 -0.025591f,
 +0.082128f,
 +0.068377f,
 -0.033029f,
 -0.025345f,
 +0.127417f,
 +0.020734f,
 +0.015223f,
 -0.021159f,
 +0.009722f,
 +0.020291f,
 -0.000877f,
 +0.058437f,
 +0.025918f,
 +0.029410f,
 +0.018537f,
 -0.027068f,
 -0.015780f,
 +0.003341f,
 +0.044018f,
 +0.001980f,
 -0.118633f,
 -0.099493f,
 +0.111302f,
 -0.030019f,
 -0.139165f,
 -0.031332f,
 +0.141511f,

 +0.503385f,
 -0.042634f,
 -0.324899f,
 -0.077534f,
 +0.019374f,
 +0.238680f,
 -0.008130f,
 +0.352045f,
 +0.394623f,
 -0.266122f,
 +0.346475f,
 -0.069425f,
 +0.144022f,
 +0.129627f,
 +0.370118f,
 -0.025744f,
 -0.032156f,
 +0.012827f,
 +0.173020f,
 -0.031544f,
 +0.054002f,
 +0.149288f,
 -0.720297f,
 +0.853421f,
 -0.457026f,
 +0.529009f,
 +0.012969f,
 +0.089017f,
 -0.431623f,
 -0.032264f,
 +1.706245f,
 +0.129911f,
 -0.066079f,
 -0.201932f,
 +0.427653f,
 -0.051435f,
 +0.179761f,
 -0.295629f,
 +0.031811f,
 -0.012301f,
 +0.005760f,
 +0.172342f,
 +0.083700f,
 +0.634519f,
 +1.288473f,
 +0.032371f,
 -0.227836f,
 -0.269280f,

 -0.315573f,
 +0.170326f,
 -0.106605f,
 +0.037322f,
 +0.006456f,
 +0.570647f,
 +0.378138f,
 +0.141621f,
 +0.386211f,
 +0.317099f,
 -0.441857f,
 -0.015649f,
 +0.105323f,
 +0.032505f,
 -0.142370f,
 -0.000710f,
 -0.010618f,
 -0.075081f,
 -0.051054f,
 +0.018727f,
 -0.008050f,
 -0.066960f,
 +0.072318f,
 +0.371371f,
 +0.000698f,
 -0.749336f,
 -0.003249f,
 +0.307497f,
 -0.259641f,
 +0.136871f,
 +0.006822f,
 +0.088993f,
 -0.231697f,
 +0.190380f,
 +0.628541f,
 +0.100161f,
 +0.198253f,
 +0.051136f,
 +0.091629f,
 +0.008249f,
 -0.007505f,
 -0.306495f,
 +0.024429f,
 -0.018908f,
 +0.262165f,
 +0.007254f,
 +0.342101f,
 +0.487668f,

 +0.075861f,
 -0.067630f,
 -0.039098f,
 -0.085625f,
 +0.031484f,
 +0.013515f,
 -0.075056f,
 +0.082547f,
 +0.013325f,
 +0.027418f,
 -0.020880f,
 +0.080404f,
 +0.108100f,
 +0.049816f,
 +0.094091f,
 -0.046632f,
 +0.023676f,
 -0.002501f,
 +0.009522f,
 +0.080847f,
 +0.085767f,
 +0.083538f,
 -0.022010f,
 +0.151648f,
 -0.047683f,
 -0.029260f,
 -0.045370f,
 +0.097041f,
 +0.042187f,
 +0.025785f,
 +0.021872f,
 +0.025626f,
 +0.017519f,
 -0.059503f,
 +0.034905f,
 +0.017942f,
 -0.060301f,
 +0.188656f,
 +0.066660f,
 -0.016830f,
 -0.017503f,
 -0.104951f,
 -0.105751f,
 -0.065396f,
 -0.079172f,
 +0.075185f,
 -0.026371f,
 +0.118972f,

 +0.044484f,
 -0.292529f,
 -0.011230f,
 -0.013621f,
 +0.007560f,
 +0.766715f,
 -0.152846f,
 -0.036174f,
 +1.019176f,
 -0.398444f,
 +0.480140f,
 -0.055386f,
 -0.025650f,
 +0.579900f,
 -0.087314f,
 -0.076236f,
 -0.062765f,
 -0.476156f,
 +0.304543f,
 +0.109439f,
 -0.082552f,
 -0.015585f,
 -0.329517f,
 +1.136640f,
 -0.135995f,
 -0.166741f,
 +0.051494f,
 +0.485553f,
 -0.083225f,
 +0.157201f,
 +0.461887f,
 +0.274577f,
 +0.360855f,
 +0.588271f,
 +0.235410f,
 -0.062547f,
 -0.004992f,
 -0.099967f,
 -0.237406f,
 +0.043274f,
 +0.067969f,
 -0.572518f,
 -0.083536f,
 +0.029264f,
 +0.153011f,
 -0.042108f,
 +0.283202f,
 +0.024597f,

 +0.391889f,
 +0.437532f,
 +0.094398f,
 +0.029660f,
 -0.093198f,
 -0.716874f,
 +0.105561f,
 -0.211316f,
 -0.082972f,
 +0.013384f,
 -0.986429f,
 -0.092074f,
 -0.102305f,
 +0.502024f,
 +1.070274f,
 -0.129363f,
 -0.175651f,
 +0.563565f,
 +0.380983f,
 +0.108103f,
 +0.168331f,
 +0.055997f,
 +0.668247f,
 -0.581153f,
 +0.258313f,
 -0.642493f,
 +0.021511f,
 +0.111352f,
 -0.011772f,
 +0.048809f,
 -0.088286f,
 -0.127702f,
 +0.874073f,
 +0.376938f,
 -0.020297f,
 -0.000360f,
 +0.072659f,
 +0.110218f,
 +0.077461f,
 -0.042044f,
 +0.076537f,
 +0.247910f,
 -0.000011f,
 +0.117052f,
 +0.651762f,
 -0.093677f,
 +0.216883f,
 -0.096556f,

 +0.098583f,
 -0.003524f,
 -0.048150f,
 +0.015210f,
 -0.074505f,
 -0.018089f,
 +0.011455f,
 +0.074122f,
 -0.059844f,
 -0.009301f,
 -0.042755f,
 +0.093941f,
 -0.058672f,
 +0.034868f,
 +0.044458f,
 +0.109329f,
 +0.065270f,
 +0.008661f,
 -0.064027f,
 +0.097162f,
 -0.027801f,
 +0.106511f,
 +0.053282f,
 +0.014643f,
 -0.002800f,
 +0.065541f,
 +0.086375f,
 +0.074406f,
 +0.000578f,
 -0.071458f,
 +0.092073f,
 +0.024616f,
 -0.035783f,
 +0.018176f,
 +0.148769f,
 -0.061301f,
 +0.023674f,
 -0.040536f,
 +0.069942f,
 +0.027194f,
 +0.015250f,
 +0.191694f,
 +0.048154f,
 +0.050574f,
 +0.042175f,
 -0.008142f,
 +0.012062f,
 +0.086009f,

 -0.091896f,
 +0.146914f,
 -0.315683f,
 +0.054984f,
 +0.046027f,
 -0.055673f,
 +0.008029f,
 +0.019709f,
 -0.090131f,
 +0.223677f,
 +0.417357f,
 +0.048149f,
 -0.109275f,
 -0.267082f,
 +0.470057f,
 -0.170846f,
 +0.181584f,
 +0.042815f,
 +0.030227f,
 -0.044826f,
 -0.039173f,
 -0.002658f,
 +0.002433f,
 -0.465206f,
 +0.089674f,
 +0.121651f,
 -0.005055f,
 -0.214660f,
 -0.556862f,
 -0.020601f,
 -0.210248f,
 -0.053881f,
 -0.048998f,
 +0.146232f,
 +0.392461f,
 -0.029941f,
 -0.041093f,
 -0.101432f,
 -0.260762f,
 -0.052280f,
 -0.030264f,
 -0.026113f,
 +0.018809f,
 +0.033589f,
 +0.037384f,
 -0.038225f,
 -0.077525f,
 -0.024236f,

 +0.364056f,
 +0.345071f,
 +0.590429f,
 -0.035814f,
 +0.028669f,
 +0.011397f,
 -0.040727f,
 -0.007833f,
 -0.055449f,
 -0.331502f,
 +0.526649f,
 +0.111931f,
 -0.026360f,
 +0.388143f,
 -0.083850f,
 -0.050742f,
 +0.072030f,
 +0.080159f,
 -0.197676f,
 -0.025355f,
 +0.003929f,
 -0.001579f,
 +0.008609f,
 +0.274055f,
 +0.161960f,
 +0.523937f,
 -0.031220f,
 -0.109044f,
 -0.073002f,
 +0.089856f,
 -0.123839f,
 +0.009708f,
 +0.044127f,
 +0.447322f,
 -0.033543f,
 -0.027386f,
 +0.066745f,
 +0.350862f,
 +0.111769f,
 +0.043177f,
 -0.034040f,
 +0.294494f,
 -0.036565f,
 +0.336434f,
 -0.121708f,
 -0.113430f,
 -0.102950f,
 +0.162260f,

 +0.220102f,
 +0.401490f,
 +0.190124f,
 +0.034192f,
 +0.035470f,
 +0.006887f,
 -0.172098f,
 +0.684807f,
 +0.024236f,
 -0.165316f,
 +0.384226f,
 +0.039894f,
 +0.013732f,
 +0.659636f,
 +0.299268f,
 -0.021131f,
 -0.043785f,
 -0.335624f,
 +0.065472f,
 -0.038046f,
 +0.138534f,
 -0.053281f,
 +0.090333f,
 +0.560877f,
 +0.211666f,
 +0.581401f,
 +0.046216f,
 +0.385697f,
 +0.753405f,
 +0.171906f,
 -0.073893f,
 -0.333664f,
 -0.343621f,
 -0.108374f,
 +0.200776f,
 -0.014381f,
 +0.138584f,
 +0.634762f,
 +0.639702f,
 -0.033492f,
 +0.053789f,
 +0.512386f,
 +0.061533f,
 +0.305993f,
 +0.139295f,
 +0.096867f,
 +0.324435f,
 -0.390359f,

 +0.615974f,
 -0.218780f,
 -0.915806f,
 +0.035215f,
 +0.091978f,
 +0.153007f,
 -0.560806f,
 -0.258181f,
 +0.011697f,
 +0.099678f,
 -0.023671f,
 -0.009099f,
 +0.008041f,
 -0.040087f,
 -0.282786f,
 -0.119305f,
 +0.052007f,
 +0.523156f,
 +0.266901f,
 -0.006751f,
 -0.007572f,
 +0.086233f,
 +0.028175f,
 +0.497518f,
 +0.069664f,
 -0.371273f,
 -0.031431f,
 +0.777022f,
 +1.007268f,
 +0.019003f,
 +0.645788f,
 +0.127335f,
 -0.214734f,
 -0.064880f,
 -0.378514f,
 +0.100812f,
 -0.058608f,
 +0.555767f,
 +0.721666f,
 +0.024460f,
 -0.055621f,
 +0.455251f,
 -0.147384f,
 +0.050478f,
 +0.118714f,
 +0.218935f,
 +0.688613f,
 -0.805009f,

 -0.054693f,
 -0.001392f,
 -0.066872f,
 -0.007629f,
 +0.070001f,
 +0.037442f,
 -0.054975f,
 -0.188668f,
 -0.084266f,
 -0.075975f,
 +0.158480f,
 -0.100375f,
 -0.010637f,
 -0.064089f,
 -0.060495f,
 -0.050181f,
 +0.001047f,
 -0.025433f,
 +0.016504f,
 -0.077681f,
 +0.009304f,
 -0.162053f,
 +0.036618f,
 -0.110265f,
 -0.003303f,
 -0.031629f,
 -0.075852f,
 -0.067614f,
 +0.016130f,
 -0.043347f,
 -0.047458f,
 -0.067211f,
 +0.051904f,
 +0.051544f,
 -0.074106f,
 -0.071278f,
 -0.125754f,
 -0.012041f,
 -0.026647f,
 -0.033706f,
 -0.023572f,
 -0.025996f,
 -0.055321f,
 +0.061580f,
 +0.047751f,
 -0.073097f,
 +0.066880f,
 -0.052839f,

 +0.304685f,
 +0.851637f,
 +0.305113f,
 -0.029931f,
 -0.043630f,
 +0.187406f,
 +0.403532f,
 +0.066369f,
 -0.013072f,
 +0.413584f,
 +0.140130f,
 +0.047797f,
 +0.061529f,
 +0.167055f,
 -0.131079f,
 -0.001412f,
 +0.138760f,
 +0.144009f,
 -0.288579f,
 -0.015353f,
 +0.037147f,
 -0.004770f,
 -0.217462f,
 +0.457351f,
 +0.156067f,
 +0.827603f,
 -0.056092f,
 +0.362755f,
 +0.971656f,
 +0.062511f,
 +0.169272f,
 -0.102911f,
 +0.024667f,
 -0.724666f,
 +0.069267f,
 +0.095974f,
 -0.058495f,
 +0.299029f,
 -0.137802f,
 +0.134186f,
 -0.032527f,
 +0.812795f,
 -0.030469f,
 +0.204558f,
 +0.486016f,
 +0.126162f,
 +0.177639f,
 +0.487337f,

 +0.724952f,
 -0.641149f,
 +0.002155f,
 +0.028782f,
 +0.002801f,
 +0.723627f,
 +0.333217f,
 +1.099172f,
 +0.286759f,
 -0.498613f,
 +0.428516f,
 +0.025421f,
 +0.101203f,
 +0.114258f,
 -0.616040f,
 +0.063061f,
 +0.088733f,
 -0.688125f,
 +0.400993f,
 +0.141660f,
 +0.046783f,
 +0.070675f,
 -0.352841f,
 +0.882930f,
 +0.607367f,
 +0.905096f,
 +0.035710f,
 +0.367589f,
 -1.046050f,
 -0.055783f,
 +0.662819f,
 +0.033031f,
 -0.734055f,
 -0.106236f,
 -0.400710f,
 -0.037335f,
 +0.006565f,
 +1.163880f,
 +0.374557f,
 +0.016551f,
 +0.042535f,
 +0.870643f,
 +0.073103f,
 +0.552921f,
 +0.066533f,
 -0.015347f,
 -0.462258f,
 -0.167025f,

 +0.258533f,
 +0.046786f,
 +0.338387f,
 -0.019351f,
 -0.008377f,
 +0.036166f,
 -0.091858f,
 +0.168620f,
 -0.108689f,
 -0.476290f,
 -0.296879f,
 -0.033991f,
 +0.034571f,
 -0.681520f,
 +0.210047f,
 -0.046263f,
 +0.118389f,
 +0.056360f,
 +0.187067f,
 +0.098080f,
 +0.014864f,
 +0.014623f,
 +0.280927f,
 +0.023606f,
 -0.190334f,
 +0.527094f,
 -0.018800f,
 -0.349314f,
 -0.008311f,
 -0.136242f,
 +0.477064f,
 +0.163463f,
 -0.105005f,
 +0.180365f,
 +0.125875f,
 +0.000644f,
 +0.089093f,
 -0.414073f,
 -0.304071f,
 +0.011852f,
 -0.042200f,
 +0.030226f,
 +0.085532f,
 +0.212761f,
 -0.006012f,
 +0.045884f,
 -0.369521f,
 -0.202430f,

 -0.014916f,
 -0.077838f,
 -0.038699f,
 -0.025780f,
 -0.011505f,
 +0.108921f,
 +0.014026f,
 +0.136734f,
 -0.169001f,
 -0.210207f,
 +0.032989f,
 -0.074503f,
 +0.003808f,
 +0.014704f,
 -0.028724f,
 -0.043912f,
 -0.114509f,
 +0.017581f,
 +0.029438f,
 -0.085422f,
 +0.165926f,
 -0.087849f,
 +0.052009f,
 +0.058550f,
 -0.039206f,
 -0.041058f,
 +0.092602f,
 +0.020378f,
 -0.041140f,
 +0.006157f,
 +0.100463f,
 +0.052260f,
 -0.004464f,
 -0.035079f,
 -0.056437f,
 -0.040505f,
 -0.117424f,
 +0.080311f,
 +0.015195f,
 +0.060271f,
 -0.056731f,
 -0.101105f,
 -0.073286f,
 -0.045706f,
 +0.012112f,
 +0.148966f,
 +0.011772f,
 +0.018629f,

 -0.943506f,
 +0.038385f,
 +0.813185f,
 +0.032422f,
 +0.004271f,
 -0.455480f,
 +0.125724f,
 -0.276335f,
 +0.482915f,
 -0.074747f,
 +0.829321f,
 -0.017651f,
 -0.005852f,
 -0.635731f,
 -0.370732f,
 +0.118124f,
 -0.068241f,
 -0.509300f,
 +0.270273f,
 +0.072676f,
 -0.022244f,
 -0.149742f,
 +0.642570f,
 +0.139032f,
 +0.018705f,
 -0.269463f,
 +0.037294f,
 -0.567092f,
 -0.317909f,
 -0.209598f,
 +0.153025f,
 +0.058319f,
 +0.130833f,
 +1.350774f,
 -0.004190f,
 -0.031912f,
 -0.257248f,
 -0.448480f,
 -0.405823f,
 +0.014397f,
 +0.059637f,
 -0.194034f,
 -0.034504f,
 +0.033346f,
 +0.173453f,
 +0.040786f,
 +0.206744f,
 +0.264991f,

 -0.328547f,
 -0.148994f,
 -0.000671f,
