const float CONV1_CONV1_WEIGHT[] = 
{
//    3, 1, 3, 3
 +0.006426f, +0.000459f, +0.025087f, -0.003117f, -0.004895f, +0.025493f, -0.000919f, -0.000843f, +0.028909f,

 -0.575556f, -1.108434f, -0.117316f, -0.695861f, -0.611653f, +0.118432f, -0.426287f, -0.494713f, +0.054042f,

 +0.205094f, +0.539738f, +0.331937f, +0.139655f, +0.342980f, +0.129048f, +0.102127f, +0.436208f, +0.275498f,

};

const float CONV1_BN1_WEIGHT[] = 
{
//    (3,),
 -1.728634f, +0.887562f, +0.781534f,
};

const float CONV1_BN1_BIAS[] = 
{
//    3,
 -0.015841f, +3.386114f, +0.292425f,
};

const float CONV1_CONV2_WEIGHT[] = 
{
//    16, 3, 1, 1
 -0.022110f,
 +0.013675f,
 -0.016185f,

 +0.015641f,
 +0.260688f,
 +0.024194f,

 +0.017645f,
 +0.048481f,
 +0.089762f,

 +0.007975f,
 +0.009112f,
 +0.000278f,

 -0.021837f,
 +0.014435f,
 -0.006988f,

 +0.001710f,
 -0.011680f,
 -0.052225f,

 +0.000201f,
 -0.211283f,
 +0.044317f,

 -0.003400f,
 +0.005386f,
 +0.014178f,

 +0.019259f,
 +0.092465f,
 -0.054057f,

 -0.013862f,
 +0.008559f,
 +0.010098f,

 +0.014066f,
 -0.013939f,
 +0.026317f,

 -0.059819f,
 -0.004964f,
 -0.035100f,

 +0.046380f,
 -0.019247f,
 +0.046832f,

 +0.039606f,
 -0.026434f,
 +0.012354f,

 -0.056086f,
 +1.393239f,
 -0.617595f,

 +0.021898f,
 +0.010166f,
 -0.016104f,

};

const float CONV1_BN2_WEIGHT[] = 
{
//    (16,),
 +0.257757f, -0.996757f, +0.102378f, +0.011822f, +0.526456f, +0.373340f, -0.131087f, +1.046912f, -0.096485f, +1.293807f, +0.115666f, +1.464859f, +0.068665f, +0.192324f, +0.486794f, +0.287328f,
};

const float CONV1_BN2_BIAS[] = 
{
//    16,
 -0.027057f, +0.586442f, -0.025262f, -0.014221f, -0.027098f, +0.054264f, -0.192995f, -0.034555f, +0.109766f, -0.037370f, -0.023321f, +0.121779f, +0.005950f, +0.014411f, +0.691289f, -0.025674f,
};

const float CONV2_CONV1_WEIGHT[] = 
{
//    16, 1, 3, 3
 +0.011377f, +0.016756f, +0.009429f, -0.008387f, +0.021407f, +0.004726f, +0.007142f, +0.010394f, +0.021977f,

 +0.146383f, +0.134986f, +0.134412f, +0.089313f, +0.064875f, +0.022341f, +0.001527f, +0.087802f, +0.121161f,

 -0.002306f, +0.003982f, -0.038747f, -0.001432f, -0.003716f, -0.025943f, -0.006648f, +0.027964f, -0.003342f,

 -0.005194f, -0.001994f, -0.002076f, +0.008294f, +0.010222f, +0.008715f, +0.000613f, +0.001820f, -0.002663f,

 -0.020743f, -0.032212f, -0.018007f, +0.013999f, -0.041932f, -0.048597f, +0.004074f, -0.021710f, -0.039791f,

 +0.017077f, -0.005332f, -0.012414f, +0.005735f, -0.009299f, -0.025243f, +0.002461f, -0.008008f, -0.026449f,

 -0.064502f, -0.025693f, -0.050937f, -0.029527f, +0.030452f, +0.011233f, -0.036412f, +0.007757f, +0.001655f,

 +0.006902f, -0.000504f, -0.002195f, -0.000706f, -0.009182f, +0.002097f, -0.001170f, -0.001444f, +0.003851f,

 -0.074310f, -0.002957f, -0.023641f, -0.059183f, +0.023901f, +0.047652f, -0.042290f, -0.017454f, -0.032564f,

 +0.027691f, -0.024096f, -0.000785f, -0.004444f, -0.012219f, -0.005987f, -0.012936f, -0.019183f, -0.001677f,

 +0.001373f, +0.005913f, +0.000312f, +0.003725f, +0.006125f, +0.002060f, -0.003762f, -0.003987f, +0.007121f,

 -0.009871f, -0.011085f, -0.003248f, -0.016900f, +0.002117f, -0.006559f, -0.026358f, -0.001010f, -0.049855f,

 -0.001429f, +0.005992f, -0.000042f, +0.016369f, +0.009161f, +0.002307f, +0.002448f, +0.011035f, +0.002634f,

 +0.017075f, +0.004675f, +0.001311f, +0.020018f, +0.001260f, +0.011159f, +0.017921f, -0.001337f, +0.010329f,

 -2.116738f, -0.096909f, +1.255847f, -1.091505f, +0.647507f, +2.570220f, -0.814991f, +0.382034f, +1.810831f,

 -0.076780f, -0.108449f, -0.068637f, -0.106568f, -0.112912f, -0.135803f, -0.087043f, -0.120816f, -0.088707f,

};

const float CONV2_BN1_WEIGHT[] = 
{
//    (16,),
 -122.872984f, -1.669608f, +18.687053f, +1757.073296f, +600.908663f, -6.020869f, +180.041346f, +599.303802f, -14.655759f, -3.118708f, -519.181115f, -1.304788f, +15.808747f, +14.337556f, +0.917533f, +120.051885f,
};

const float CONV2_BN1_BIAS[] = 
{
//    16,
 -0.013568f, -0.166680f, -0.004593f, +0.002884f, -0.034342f, -0.082190f, -0.014530f, -0.004832f, -0.433846f, -0.010167f, +0.009775f, -0.037987f, -0.012168f, -0.017084f, -2.026692f, -0.052565f,
};

const float CONV2_CONV2_WEIGHT[] = 
{
//    16, 16, 1, 1
 -0.060573f,
 +0.008235f,
 +0.007087f,
 -0.002390f,
 +0.023496f,
 +0.008889f,
 +0.012812f,
 +0.006006f,
 +0.028503f,
 +0.007908f,
 +0.001903f,
 -0.067289f,
 -0.001340f,
 +0.007682f,
 +0.019146f,
 +0.059555f,

 +0.015161f,
 -0.004293f,
 -0.012048f,
 -0.000333f,
 +0.003272f,
 +0.002010f,
 -0.010934f,
 -0.005863f,
 -0.007408f,
 -0.010175f,
 -0.008211f,
 +0.020331f,
 +0.003843f,
 -0.005019f,
 +0.005850f,
 +0.006176f,

 -0.007019f,
 -0.005572f,
 -0.005207f,
 -0.003021f,
 -0.005645f,
 +0.003730f,
 +0.001154f,
 -0.002611f,
 +0.000440f,
 -0.005825f,
 +0.012912f,
 +0.004454f,
 +0.002277f,
 +0.000504f,
 -0.001504f,
 +0.014701f,

 +0.015279f,
 -0.014136f,
 +0.006913f,
 -0.002781f,
 +0.004879f,
 +0.012161f,
 -0.007485f,
 -0.000131f,
 -0.008281f,
 -0.004736f,
 -0.011517f,
 +0.006525f,
 -0.001345f,
 +0.000882f,
 +0.006300f,
 -0.004654f,

 -0.004989f,
 -0.013044f,
 -0.000221f,
 -0.001338f,
 -0.003762f,
 +0.014956f,
 +0.002207f,
 +0.005298f,
 +0.033488f,
 +0.002850f,
 +0.000263f,
 -0.003927f,
 -0.006825f,
 +0.011662f,
 -0.003242f,
 -0.025496f,

 -0.016318f,
 +0.012203f,
 +0.010602f,
 +0.008292f,
 -0.013877f,
 -0.006023f,
 +0.015404f,
 +0.002941f,
 -0.038627f,
 -0.002094f,
 +0.001093f,
 +0.014334f,
 -0.016065f,
 -0.003900f,
 +0.115611f,
 +0.016294f,

 +0.009663f,
 -0.341296f,
 -0.021705f,
 +0.004182f,
 -0.013097f,
 +0.029951f,
 +0.007961f,
 +0.012128f,
 -0.023377f,
 +0.003466f,
 +0.014223f,
 +0.006452f,
 +0.000553f,
 -0.001151f,
 +0.331367f,
 +0.003330f,

 +0.011594f,
 +0.034598f,
 -0.010787f,
 +0.005919f,
 -0.013173f,
 +0.054835f,
 -0.013097f,
 -0.004317f,
 -0.040075f,
 +0.009394f,
 -0.072830f,
 -0.008412f,
 -0.012011f,
 +0.002322f,
 -0.046324f,
 +0.009914f,

 +0.009448f,
 -0.032831f,
 +0.008583f,
 -0.003051f,
 +0.027895f,
 +0.012208f,
 -0.006037f,
 -0.004340f,
 -0.017353f,
 +0.002375f,
 -0.010666f,
 -0.024021f,
 -0.005751f,
 -0.013300f,
 -0.007365f,
 -0.023181f,

 +0.003096f,
 -0.044836f,
 -0.003053f,
 -0.004294f,
 -0.003297f,
 -0.014660f,
 +0.003018f,
 -0.005626f,
 -0.007648f,
 +0.004119f,
 +0.026746f,
 +0.070237f,
 -0.003305f,
 +0.002550f,
 +0.043609f,
 +0.023875f,

 -0.016888f,
 +0.138744f,
 +0.008633f,
 -0.015307f,
 -0.010393f,
 +0.017709f,
 -0.003828f,
 -0.002060f,
 -0.063769f,
 -0.002257f,
 -0.002009f,
 +0.014017f,
 -0.002130f,
 -0.019307f,
 +0.143757f,
 -0.003250f,

 -0.006386f,
 -0.009890f,
 +0.003581f,
 +0.001457f,
 +0.009432f,
 -0.005554f,
 +0.006156f,
 -0.008658f,
 +0.001247f,
 -0.006492f,
 +0.010658f,
 -0.000736f,
 -0.000169f,
 -0.011070f,
 +0.011156f,
 +0.001372f,

 -0.012069f,
 -0.006119f,
 +0.001178f,
 +0.000057f,
 -0.002820f,
 +0.002889f,
 +0.006834f,
 -0.002973f,
 +0.010526f,
 +0.001920f,
 -0.004135f,
 -0.034588f,
 -0.005127f,
 -0.004173f,
 +0.017834f,
 +0.014162f,

 +0.012626f,
 +0.004689f,
 +0.000842f,
 -0.002768f,
 +0.009686f,
 +0.013903f,
 -0.025443f,
 +0.001050f,
 +0.031268f,
 +0.004347f,
 -0.009422f,
 -0.018624f,
 -0.008227f,
 +0.003655f,
 -0.015412f,
 +0.009517f,

 +0.004216f,
 -0.003536f,
 -0.002433f,
 +0.004217f,
 -0.003346f,
 -0.010788f,
 -0.011840f,
 -0.001271f,
 -0.015958f,
 -0.006877f,
 +0.016603f,
 -0.002328f,
 +0.002285f,
 -0.004876f,
 -0.016760f,
 -0.022415f,

 +0.035950f,
 -0.000038f,
 +0.027132f,
 -0.000270f,
 -0.001086f,
 +0.007426f,
 +0.009583f,
 -0.006186f,
 -0.000294f,
 +0.001861f,
 -0.005051f,
 -0.008675f,
 +0.004931f,
 +0.005417f,
 +0.037908f,
 -0.004711f,

};

const float CONV2_BN2_WEIGHT[] = 
{
//    (16,),
 +0.163392f, +0.504015f, +1.869202f, +0.355084f, +5.738256f, +2.144382f, +1.074919f, -0.746358f, +0.272831f, +0.066169f, +1.961340f, +0.400403f, -1.070550f, +0.691707f, -0.489907f, +0.553699f,
};

const float CONV2_BN2_BIAS[] = 
{
//    16,
 -0.002832f, +0.000789f, +0.013936f, +0.006004f, +0.030515f, -1.022732f, +0.084624f, -0.042256f, +0.020033f, +0.002565f, +0.366290f, -0.008915f, +0.024221f, -0.062612f, +0.017307f, -0.027869f,
};

const float CONV3_CONV1_WEIGHT[] = 
{
//    16, 1, 3, 3
 -0.008959f, -0.003294f, +0.001099f, -0.009528f, -0.001568f, -0.012951f, -0.016309f, +0.018385f, -0.020769f,

 +0.014084f, +0.007486f, +0.003686f, +0.023161f, -0.002840f, +0.001960f, +0.003304f, -0.006858f, +0.000218f,

 +0.007861f, -0.002172f, -0.006393f, +0.012251f, -0.003778f, -0.004282f, +0.008868f, +0.001115f, -0.003681f,

 +0.005217f, +0.002683f, -0.002339f, +0.000127f, +0.000270f, -0.005869f, -0.004457f, +0.003041f, -0.008616f,

 +0.009852f, -0.000752f, -0.011955f, -0.002670f, -0.008116f, -0.017104f, -0.000817f, -0.006239f, -0.007513f,

 -0.061946f, +0.113868f, +0.000376f, -0.002527f, +0.206815f, +0.281002f, +0.057768f, +0.173486f, +0.215916f,

 +0.885633f, -0.561813f, -0.656053f, +0.502662f, -0.747317f, -1.458577f, +0.339087f, -0.135242f, -1.173417f,

 -0.017859f, -0.032057f, +0.001970f, -0.023138f, -0.025229f, -0.007319f, -0.018851f, -0.012374f, -0.023113f,

 -0.002030f, +0.022314f, +0.010879f, +0.000137f, +0.015279f, +0.000590f, +0.021930f, +0.022371f, +0.033735f,

 -0.012706f, -0.014319f, +0.006071f, -0.027616f, -0.019002f, +0.001668f, -0.001662f, -0.007891f, -0.022816f,

 -0.030681f, +0.559609f, +1.239097f, +0.555222f, +0.214511f, +0.223968f, +0.827848f, -0.576547f, -1.454948f,

 +0.009104f, +0.010841f, +0.006859f, +0.004868f, -0.000997f, -0.009259f, -0.002787f, -0.000246f, -0.003076f,

 -0.014869f, -0.014560f, -0.021644f, -0.023719f, -0.019858f, -0.007751f, -0.000750f, +0.004756f, -0.007961f,

 -0.020073f, -0.025939f, +0.002526f, -0.009048f, +0.003422f, +0.039245f, -0.016510f, +0.022323f, +0.042936f,

 -0.007372f, -0.015844f, +0.017685f, -0.015612f, -0.005421f, -0.000923f, -0.009437f, -0.019527f, -0.010445f,

 -0.081235f, -0.047813f, -0.038734f, -0.043860f, -0.036240f, -0.038102f, -0.037885f, -0.043160f, -0.043858f,

};

const float CONV3_BN1_WEIGHT[] = 
{
//    (16,),
 -2.878470f, -2.961435f, +0.638058f, +6.798202f, +8.269993f, -3.606362f, -0.878174f, +5.030051f, +14.067716f, -17.967545f, -0.851350f, -47.760521f, +15.956073f, +2135.126167f, +13.036900f, -0.430331f,
};

const float CONV3_BN1_BIAS[] = 
{
//    16,
 -0.003257f, -0.005299f, -0.002630f, -0.001609f, -0.003878f, +0.543554f, -1.503525f, -0.006081f, -0.045419f, -0.039022f, +2.307340f, -0.006626f, +0.006845f, +0.094406f, -0.001083f, -0.052942f,
};

const float CONV3_CONV2_WEIGHT[] = 
{
//    16, 16, 1, 1
 +0.008857f,
 +0.001847f,
 -0.000386f,
 -0.003329f,
 +0.008157f,
 +0.006946f,
 +0.004601f,
 +0.002308f,
 -0.001294f,
 +0.013327f,
 -0.005419f,
 +0.013592f,
 -0.015031f,
 -0.004790f,
 +0.007335f,
 -0.002807f,

 -0.026176f,
 +0.002521f,
 -0.004060f,
 +0.001024f,
 -0.000611f,
 -0.009576f,
 -0.815178f,
 +0.038591f,
 +0.006432f,
 -0.000473f,
 -0.063385f,
 -0.000596f,
 -0.000135f,
 +0.014947f,
 +0.015857f,
 -0.033328f,

 -0.007530f,
 +0.001631f,
 -0.000970f,
 +0.000381f,
 +0.010505f,
 -0.007726f,
 -0.001061f,
 +0.005945f,
 +0.005603f,
 -0.001992f,
 -0.006154f,
 +0.009328f,
 -0.002841f,
 +0.000608f,
 -0.003774f,
 +0.002032f,

 +0.003046f,
 +0.001619f,
 +0.001276f,
 -0.000407f,
 +0.021042f,
 -0.565008f,
 +1.195281f,
 -0.005232f,
 -0.004196f,
 -0.006667f,
 -0.215219f,
 +0.028776f,
 -0.000768f,
 -0.048636f,
 -0.006694f,
 +0.002853f,

 +0.009434f,
 +0.006050f,
 +0.001442f,
 +0.000738f,
 +0.001873f,
 -0.030809f,
 -0.015496f,
 -0.005569f,
 +0.013394f,
 -0.000058f,
 +0.074825f,
 -0.003699f,
 +0.001169f,
 +0.019421f,
 -0.005210f,
 +0.006167f,

 -0.017534f,
 +0.003002f,
 +0.003438f,
 +0.003956f,
 +0.011682f,
 +0.000177f,
 +0.011638f,
 -0.003118f,
 +0.001813f,
 +0.009116f,
 -0.013941f,
 +0.007634f,
 -0.010628f,
 -0.012638f,
 +0.008825f,
 +0.029725f,

 -0.017588f,
 -0.001932f,
 -0.001467f,
 +0.011271f,
 -0.008710f,
 -0.005618f,
 -0.001735f,
 -0.021372f,
 +0.006771f,
 -0.010858f,
 +0.008714f,
 +0.008622f,
 +0.000540f,
 +0.005529f,
 -0.000703f,
 +0.011184f,

 -0.000171f,
 -0.007729f,
 -0.000690f,
 +0.000540f,
 -0.006133f,
 +0.034380f,
 -0.044298f,
 +0.031462f,
 +0.023566f,
 +0.016063f,
 +0.000534f,
 -0.011368f,
 +0.002812f,
 +0.004429f,
 +0.014291f,
 +0.014571f,

 -0.003963f,
 -0.000623f,
 -0.002533f,
 +0.004541f,
 +0.003094f,
 -0.030447f,
 -0.007408f,
 +0.008151f,
 -0.008915f,
 +0.012507f,
 +0.004520f,
 +0.006613f,
 +0.008510f,
 +0.005972f,
 +0.010719f,
 -0.003248f,

 +0.022352f,
 -0.004447f,
 -0.004665f,
 +0.001765f,
 +0.001065f,
 -0.036581f,
 +0.019166f,
 -0.001982f,
 +0.013180f,
 -0.018202f,
 +0.013478f,
 +0.009906f,
 +0.006356f,
 +0.001866f,
 +0.008719f,
 -0.006925f,

 +0.001419f,
 +0.009097f,
 -0.004571f,
 -0.003371f,
 +0.006080f,
 +0.027299f,
 +0.009554f,
 +0.026324f,
 +0.021410f,
 -0.002495f,
 +0.006034f,
 +0.001287f,
 -0.001857f,
 +0.003004f,
 +0.017729f,
 +0.012496f,

 -0.001235f,
 +0.009798f,
 +0.001254f,
 +0.004022f,
 +0.001240f,
 -0.018837f,
 -0.001646f,
 -0.009579f,
 +0.002953f,
 -0.004348f,
 -0.008127f,
 +0.015868f,
 +0.023722f,
 +0.019659f,
 -0.001655f,
 -0.002870f,

 -0.000579f,
 -0.002233f,
 -0.000779f,
 -0.001341f,
 +0.000096f,
 +0.017646f,
 -0.003405f,
 +0.006246f,
 -0.004243f,
 -0.003933f,
 -0.010783f,
 -0.009754f,
 -0.001913f,
 -0.008816f,
 -0.004664f,
 +0.001583f,

 -0.015988f,
 +0.003052f,
 +0.003881f,
 +0.006130f,
 -0.006003f,
 -0.006283f,
 -0.002526f,
 +0.018716f,
 +0.001322f,
 -0.007525f,
 -0.005845f,
 -0.011024f,
 +0.002272f,
 +0.004973f,
 -0.015923f,
 -0.010353f,

 -0.007608f,
 +0.004433f,
 -0.002185f,
 -0.001788f,
 +0.002198f,
 +0.013638f,
 -0.011639f,
 +0.003976f,
 +0.011119f,
 +0.003819f,
 -0.003267f,
 +0.000181f,
 +0.004842f,
 +0.005919f,
 -0.012981f,
 -0.002971f,

 -0.005217f,
 +0.007575f,
 +0.003454f,
 +0.002084f,
 +0.001230f,
 +0.020080f,
 -0.457050f,
 +0.012406f,
 -0.003870f,
 -0.013838f,
 +1.225515f,
 -0.009416f,
 -0.017746f,
 +0.000069f,
 +0.052350f,
 +0.001780f,

};

const float CONV3_BN2_WEIGHT[] = 
{
//    (16,),
 +0.897745f, -0.583896f, +1.398649f, +0.266249f, +0.721783f, +0.886667f, +1.067030f, +0.045228f, +1.887023f, +0.190015f, +0.448009f, +0.680574f, +1.112936f, +1.479910f, +0.563226f, +0.879741f,
};

const float CONV3_BN2_BIAS[] = 
{
//    16,
 -0.004438f, -0.755157f, +0.020629f, +0.862948f, -0.078432f, +0.009950f, -0.005350f, +0.017739f, +0.022827f, -0.049566f, -0.003492f, -0.018907f, +0.015001f, +0.024444f, -0.006361f, -0.522303f,
};

const float CONV4_CONV1_WEIGHT[] = 
{
//    16, 1, 3, 3
 -0.009011f, -0.009612f, +0.009395f, -0.010993f, -0.013198f, +0.017264f, -0.006679f, -0.000662f, +0.003566f,

 +0.883791f, +0.805162f, -0.023507f, +0.152942f, +0.203108f, -0.124211f, -0.383215f, +0.051995f, -0.208548f,

 -0.010200f, +0.001644f, -0.008546f, +0.008382f, +0.000428f, -0.014767f, +0.006268f, +0.002947f, -0.004648f,

 -0.010164f, -0.374617f, -0.811804f, +0.077383f, +0.528718f, +0.121016f, +1.037993f, +1.669236f, +1.386200f,

 -0.012815f, -0.002115f, +0.023381f, +0.009079f, +0.029119f, +0.045302f, -0.005648f, +0.003914f, +0.019643f,

 -0.024024f, -0.008761f, -0.000662f, -0.009951f, -0.001642f, -0.001768f, +0.006191f, +0.006618f, +0.006641f,

 +0.004206f, +0.003818f, -0.000955f, -0.012344f, -0.006269f, -0.001010f, -0.018416f, -0.004729f, -0.004234f,

 +0.004892f, +0.024439f, -0.005818f, +0.013632f, +0.021270f, +0.018994f, +0.004163f, -0.002587f, -0.002040f,

 -0.001958f, +0.000534f, +0.006037f, -0.013210f, +0.013934f, +0.014610f, +0.003016f, +0.012380f, +0.018944f,

 -0.003007f, -0.012603f, -0.014222f, -0.010125f, -0.012267f, +0.000538f, -0.009681f, -0.001653f, -0.000919f,

 -0.013119f, -0.007357f, -0.014102f, +0.002197f, -0.008423f, -0.001110f, -0.003381f, +0.002600f, -0.003058f,

 +0.007354f, +0.011172f, -0.015431f, -0.009542f, -0.000187f, -0.016363f, +0.013775f, -0.001551f, +0.007418f,

 +0.005406f, +0.015765f, +0.010241f, +0.010711f, +0.012950f, +0.001003f, +0.000187f, -0.003311f, -0.002554f,

 +0.005351f, -0.018624f, -0.021440f, +0.005004f, -0.019375f, +0.004308f, +0.013435f, +0.010603f, +0.003371f,

 +0.002001f, +0.012197f, +0.003633f, -0.004069f, +0.002104f, +0.009407f, +0.003649f, -0.003757f, +0.008758f,

 -0.849216f, -1.098241f, -1.020010f, -0.200743f, -0.145443f, +0.011413f, -0.034826f, +0.544364f, +0.733835f,

};

const float CONV4_BN1_WEIGHT[] = 
{
//    (16,),
 -4.602727f, +1.152331f, +25.184919f, +1.280623f, +1.073796f, +17.441518f, -1.062719f, +36.971173f, -5.911004f, -905.297291f, +17.727779f, -1385.006333f, +8.718870f, +4.515777f, +0.486790f, -0.661682f,
};

const float CONV4_BN1_BIAS[] = 
{
//    16,
 -0.005874f, -0.375560f, -0.003849f, -4.245324f, -0.018924f, -0.014043f, -0.002733f, -0.070770f, -0.016021f, +0.069268f, -0.000114f, +0.025658f, -0.014555f, -0.003235f, -0.002853f, -0.308480f,
};

const float CONV4_CONV2_WEIGHT[] = 
{
//    32, 16, 1, 1
 -0.001756f,
 -0.220547f,
 -0.004739f,
 -0.242448f,
 -0.004233f,
 +0.004034f,
 +0.002802f,
 +0.016252f,
 +0.001727f,
 -0.001524f,
 -0.006187f,
 +0.001627f,
 +0.007280f,
 -0.012671f,
 +0.004663f,
 -0.103039f,

 -0.005299f,
 -0.254171f,
 +0.001397f,
 +0.182749f,
 +0.017879f,
 +0.006330f,
 -0.000122f,
 -0.004059f,
 +0.004773f,
 -0.010788f,
 -0.001055f,
 -0.014171f,
 -0.001534f,
 +0.000900f,
 -0.004097f,
 -0.602191f,

 -0.007094f,
 +0.011326f,
 -0.004420f,
 +0.012734f,
 -0.004759f,
 +0.003004f,
 -0.001011f,
 +0.006413f,
 -0.002640f,
 +0.007618f,
 -0.006160f,
 +0.000758f,
 +0.000967f,
 -0.000673f,
 -0.000808f,
 -0.001856f,

 -0.004993f,
 -0.090071f,
 -0.009847f,
 -0.829678f,
 +0.010992f,
 -0.007534f,
 -0.001308f,
 +0.027785f,
 +0.016214f,
 +0.011220f,
 -0.005224f,
 -0.011504f,
 +0.006720f,
 -0.005404f,
 -0.003870f,
 -0.281205f,

 -0.002200f,
 +0.010898f,
 -0.015831f,
 -0.005266f,
 -0.003972f,
 -0.010340f,
 +0.005065f,
 +0.003717f,
 -0.001044f,
 +0.004481f,
 -0.006209f,
 +0.002016f,
 +0.006394f,
 +0.008815f,
 +0.003130f,
 +0.005776f,

 -0.002652f,
 +0.000227f,
 -0.004088f,
 -0.003328f,
 +0.004577f,
 +0.006528f,
 -0.004434f,
 -0.002728f,
 -0.002543f,
 +0.002540f,
 -0.004286f,
 -0.005089f,
 -0.002978f,
 +0.003832f,
 +0.000637f,
 -0.001396f,

 -0.006939f,
 -0.000851f,
 -0.000935f,
 -0.000818f,
 +0.035599f,
 -0.003053f,
 +0.001420f,
 -0.003081f,
 +0.003006f,
 -0.006063f,
 -0.001530f,
 +0.001433f,
 +0.001736f,
 -0.005806f,
 +0.005689f,
 -0.007672f,

 +0.002346f,
 -0.054890f,
 +0.003367f,
 -0.920430f,
 +0.006726f,
 -0.009960f,
 -0.000834f,
 +0.013690f,
 -0.003738f,
 +0.028315f,
 +0.002838f,
 +0.013600f,
 +0.004485f,
 -0.001498f,
 -0.001651f,
 +0.530763f,

 -0.003538f,
 +0.114141f,
 +0.001967f,
 -0.841474f,
 -0.015409f,
 -0.003988f,
 +0.000818f,
 +0.013405f,
 +0.008349f,
 +0.017433f,
 +0.007719f,
 -0.004490f,
 +0.004061f,
 +0.001446f,
 -0.006134f,
 -0.393055f,

 +0.001053f,
 +0.008813f,
 +0.001700f,
 +0.004021f,
 -0.001230f,
 +0.004929f,
 +0.003345f,
 +0.000515f,
 +0.007848f,
 -0.000889f,
 -0.009117f,
 +0.003402f,
 -0.003370f,
 +0.002949f,
 +0.000397f,
 +0.000508f,

 +0.001039f,
 -0.001254f,
 -0.000791f,
 -0.003728f,
 -0.002830f,
 -0.004136f,
 +0.006991f,
 +0.009652f,
 +0.010757f,
 +0.011348f,
 -0.000662f,
 -0.010727f,
 +0.012347f,
 -0.015943f,
 -0.000470f,
 +0.004036f,

 +0.004191f,
 -0.003230f,
 +0.000472f,
 -0.000358f,
 +0.001767f,
 +0.001164f,
 -0.004847f,
 -0.003693f,
 -0.000501f,
 +0.000930f,
 -0.003027f,
 -0.000588f,
 -0.001596f,
 -0.005533f,
 -0.002223f,
 -0.005825f,

 -0.002392f,
 +0.005329f,
 +0.010823f,
 +0.009152f,
 -0.007312f,
 +0.001987f,
 -0.001796f,
 +0.006945f,
 -0.006086f,
 -0.000294f,
 -0.001303f,
 -0.013307f,
 +0.007494f,
 -0.005200f,
 -0.001521f,
 +0.005839f,

 -0.000621f,
 -0.002055f,
 -0.000653f,
 +0.002346f,
 +0.000656f,
 +0.001815f,
 -0.000702f,
 +0.000233f,
 +0.002279f,
 +0.000262f,
 +0.010063f,
 -0.005583f,
 +0.001881f,
 -0.002164f,
 -0.001130f,
 +0.001848f,

 -0.003674f,
 +0.524270f,
 -0.000445f,
 -0.338840f,
 -0.009643f,
 -0.013030f,
 +0.001104f,
 +0.007946f,
 +0.002135f,
 +0.019336f,
 +0.006122f,
 -0.001975f,
 +0.004155f,
 -0.003272f,
 +0.000720f,
 +0.071969f,

 -0.013902f,
 -0.468416f,
 +0.002794f,
 -0.349538f,
 -0.010908f,
 +0.005020f,
 +0.006449f,
 +0.010052f,
 -0.001540f,
 +0.000901f,
 +0.001788f,
 -0.009386f,
 +0.004349f,
 -0.002727f,
 -0.000413f,
 +0.165405f,

 +0.002629f,
 -0.026034f,
 -0.002896f,
 -0.503959f,
 +0.008048f,
 +0.003502f,
 +0.003402f,
 -0.000268f,
 +0.004995f,
 -0.008884f,
 +0.002611f,
 +0.004185f,
 -0.009407f,
 +0.000122f,
 +0.008958f,
 +0.880415f,

 -0.000317f,
 +0.004140f,
 +0.001292f,
 -0.012742f,
 -0.000669f,
 +0.002522f,
 -0.000752f,
 -0.004973f,
 +0.000515f,
 +0.013503f,
 +0.004538f,
 +0.000182f,
 +0.013676f,
 +0.002602f,
 +0.003539f,
 +0.012969f,

 -0.001248f,
 +0.014710f,
 +0.003273f,
 +0.006175f,
 +0.003512f,
 +0.001812f,
 +0.001241f,
 +0.003422f,
 +0.001410f,
 +0.000626f,
 -0.003077f,
 -0.000322f,
 -0.002275f,
 -0.006352f,
 +0.006380f,
 +0.000325f,

 +0.000330f,
 -0.232265f,
 +0.001193f,
 -0.517446f,
 +0.009854f,
 -0.001392f,
 -0.001099f,
 -0.008833f,
 +0.009105f,
 -0.002473f,
 +0.002288f,
 -0.009688f,
 +0.000679f,
 +0.000165f,
 -0.003228f,
 -0.324227f,

 -0.009718f,
 +0.010643f,
 -0.009658f,
 -0.009610f,
 -0.006857f,
 +0.001154f,
 +0.007437f,
 +0.008786f,
 +0.008456f,
 +0.000363f,
 +0.002801f,
 -0.001419f,
 +0.000953f,
 -0.006190f,
 -0.001819f,
 +0.003863f,

 -0.015035f,
 +0.163312f,
 -0.018246f,
 -1.251173f,
 -0.013940f,
 -0.009708f,
 -0.001949f,
 -0.008164f,
 +0.001185f,
 +0.011975f,
 -0.003763f,
 -0.001343f,
 -0.002641f,
 -0.010218f,
 -0.001750f,
 -1.007541f,

 -0.000127f,
 -0.000004f,
 +0.008344f,
 -0.000434f,
 -0.001524f,
 +0.001295f,
 +0.001073f,
 +0.001950f,
 -0.000019f,
 -0.000063f,
 -0.005830f,
 -0.000073f,
 +0.001029f,
 -0.000274f,
 +0.003062f,
 -0.003133f,

 -0.001990f,
 -0.001869f,
 +0.001889f,
 -0.004615f,
 +0.002063f,
 +0.004597f,
 +0.000198f,
 +0.009553f,
 +0.002058f,
 +0.002337f,
 +0.009260f,
 -0.000846f,
 +0.013639f,
 +0.008404f,
 +0.001854f,
 +0.005459f,

 +0.004498f,
 +0.014194f,
 +0.001921f,
 +0.001708f,
 +0.004159f,
 -0.004008f,
 +0.008102f,
 -0.000563f,
 +0.009956f,
 +0.000948f,
 -0.003935f,
 -0.009373f,
 -0.001107f,
 -0.005285f,
 +0.000780f,
 +0.011045f,

 -0.000522f,
 +0.004896f,
 +0.000461f,
 -0.009514f,
 +0.020420f,
 -0.003061f,
 -0.008222f,
 -0.002431f,
 -0.004942f,
 -0.001705f,
 -0.005598f,
 -0.001250f,
 +0.003220f,
 +0.001950f,
 -0.008737f,
 -0.004325f,

 -0.008828f,
 +0.005496f,
 -0.002596f,
 -0.012234f,
 -0.003470f,
 +0.001307f,
 -0.002111f,
 -0.000084f,
 +0.000519f,
 +0.021576f,
 -0.003027f,
 +0.013913f,
 +0.001618f,
 -0.010718f,
 -0.000498f,
 +0.013119f,

 +0.001411f,
 +0.776712f,
 +0.003607f,
 +0.005238f,
 -0.016171f,
 -0.011299f,
 +0.002996f,
 +0.015995f,
 -0.005192f,
 +0.007755f,
 -0.004464f,
 -0.019854f,
 +0.000621f,
 -0.003703f,
 -0.002376f,
 -0.256908f,

 +0.002655f,
 +0.002182f,
 +0.000280f,
 +0.004477f,
 +0.002080f,
 -0.001189f,
 +0.001890f,
 -0.010634f,
 +0.003073f,
 -0.003675f,
 +0.002838f,
 +0.002336f,
 -0.001624f,
 +0.002123f,
 +0.003979f,
 +0.003181f,

 -0.001015f,
 -0.005333f,
 -0.003315f,
 +0.022211f,
 -0.012522f,
 +0.000517f,
 -0.003102f,
 +0.006112f,
 -0.004339f,
 +0.006761f,
 -0.008695f,
 -0.008374f,
 +0.002663f,
 +0.001433f,
 +0.001622f,
 +0.004901f,

 -0.002043f,
 -0.000237f,
 +0.004225f,
 -0.011236f,
 +0.000804f,
 -0.002983f,
 -0.001127f,
 +0.006056f,
 +0.007620f,
 -0.001025f,
 -0.003293f,
 +0.014692f,
 +0.001273f,
 -0.006267f,
 +0.014906f,
 -0.008717f,

 +0.001291f,
 -0.521485f,
 -0.004706f,
 -0.161695f,
 -0.038867f,
 -0.006695f,
 -0.002888f,
 +0.013171f,
 -0.005181f,
 +0.003648f,
 -0.007153f,
 +0.014690f,
 -0.001806f,
 -0.000202f,
 +0.000617f,
 +0.251522f,

};

const float CONV4_BN2_WEIGHT[] = 
{
//    (32,),
 +0.318277f, +0.905687f, +0.002774f, +0.638004f, +0.590548f, +0.994844f, -0.408429f, -0.381991f, +0.664647f, +0.555303f, +0.390493f, +1.155753f, +0.887426f, +1.702693f, +1.073773f, -0.448504f, +0.636201f, +0.709734f, +0.309007f, +0.487335f, +0.395396f, -0.221735f, +2.117281f, +0.081938f, +0.125911f, +0.414177f, +0.359175f, +0.864217f, -0.029224f, +0.207190f, +0.305584f, -0.454840f,
};

const float CONV4_BN2_BIAS[] = 
{
//    32,
 +0.290225f, +0.503309f, -0.010100f, +1.109157f, -0.011960f, +0.001133f, -0.028773f, +0.677971f, +1.092815f, -0.003681f, +0.005411f, +0.007430f, -0.009760f, -0.006460f, +0.140338f, +0.262187f, +0.132724f, -0.000532f, -0.004645f, +0.943441f, +0.001462f, +0.566062f, +0.005782f, -0.011195f, -0.012730f, +0.005915f, +0.010159f, -0.043706f, -0.006534f, +0.011700f, +0.007711f, +0.227354f,
};

const float CONV5_CONV1_WEIGHT[] = 
{
//    32, 1, 3, 3
 -0.191528f, +0.053117f, -0.360376f, -0.001422f, -0.023646f, -0.059427f, +0.099233f, +0.105003f, -0.166129f,

 -0.335842f, -0.254364f, -0.499723f, +0.134187f, -0.182034f, -0.107980f, -0.235542f, +0.057809f, -0.002700f,

 +0.002979f, -0.002709f, +0.001378f, +0.000011f, +0.003168f, -0.003473f, +0.003490f, +0.002313f, +0.010595f,

 -1.128641f, +0.257963f, -0.620588f, -0.594768f, -0.250530f, -0.241144f, -0.443925f, +0.433376f, +0.069947f,

 +0.000121f, +0.006204f, +0.004546f, +0.005361f, +0.001120f, -0.008483f, +0.005508f, +0.009659f, -0.006271f,

 +0.000515f, -0.001164f, -0.001817f, -0.002621f, +0.002153f, +0.001265f, -0.002335f, +0.004344f, -0.001596f,

 +0.001416f, -0.015860f, -0.001638f, +0.006843f, -0.007322f, +0.005945f, -0.004311f, -0.010773f, +0.008200f,

 -0.038447f, +0.979419f, -1.272654f, -0.249784f, -0.837446f, -0.500784f, +0.390025f, -0.610685f, -0.682757f,

 +0.110963f, -0.491349f, +0.253583f, -0.341524f, -0.762994f, -0.073042f, +0.181874f, -0.141202f, +0.067426f,

 -0.000020f, -0.000213f, +0.003006f, +0.000675f, +0.009410f, +0.002780f, +0.003974f, +0.005382f, +0.006000f,

 +0.012774f, +0.022132f, +0.001962f, -0.005819f, -0.000845f, +0.003659f, -0.004519f, -0.006813f, +0.010565f,

 -0.008924f, -0.004410f, -0.006729f, -0.009491f, -0.001340f, -0.001821f, -0.001693f, -0.007119f, -0.000112f,

 +0.011227f, +0.015252f, +0.004020f, +0.008995f, +0.008986f, -0.004302f, +0.002396f, -0.000171f, -0.007823f,

 +0.003163f, -0.000762f, -0.004065f, +0.009560f, -0.001173f, -0.003511f, +0.000210f, +0.001430f, +0.002378f,

 +0.431054f, +0.520867f, +0.141493f, -0.022436f, +0.253414f, +0.108175f, -0.164035f, -0.095547f, -0.029199f,

 +0.430822f, +0.139351f, +0.394553f, +0.234230f, -0.208601f, -0.073431f, +0.836858f, +0.106465f, -0.118981f,

 +0.283877f, -0.924518f, -0.443926f, +0.074059f, -0.447278f, -0.840863f, -0.674763f, +0.079352f, +0.090617f,

 -0.008704f, +0.005990f, +0.005017f, -0.004371f, +0.015916f, -0.000043f, +0.008243f, +0.012804f, -0.009489f,

 -0.000940f, -0.003171f, +0.000655f, -0.000136f, +0.006361f, -0.002003f, +0.003655f, +0.003971f, +0.001499f,

 -0.127214f, -0.084930f, +0.338066f, -0.521746f, -0.706026f, +0.370774f, +0.292484f, -0.219370f, +0.115580f,

 +0.006082f, -0.005498f, -0.001064f, +0.011639f, -0.002220f, +0.001561f, -0.000818f, -0.001113f, +0.004184f,

 +0.162767f, +0.998439f, -1.220770f, +1.756120f, +0.121724f, -1.335689f, -0.689789f, -0.187368f, +0.091163f,

 -0.003053f, -0.002849f, +0.003583f, -0.002256f, -0.002153f, -0.002900f, -0.003933f, +0.000282f, -0.001695f,

 +0.005283f, -0.010605f, -0.005522f, -0.006449f, +0.002511f, -0.012232f, -0.005364f, -0.001429f, -0.000886f,

 -0.009726f, -0.007332f, -0.004565f, +0.001802f, +0.000935f, +0.000658f, -0.002183f, -0.004365f, -0.004634f,

 -0.001326f, +0.005857f, -0.006386f, -0.006178f, +0.003717f, -0.003674f, -0.000436f, -0.004951f, -0.003013f,

 +0.002401f, -0.024009f, -0.008774f, -0.006666f, -0.016630f, +0.009766f, -0.005583f, -0.018914f, +0.010491f,

 -0.269851f, -0.158616f, +0.484567f, -0.336593f, -0.283254f, +0.667325f, -0.030238f, +0.005473f, -0.241894f,

 -0.004752f, -0.001003f, -0.000050f, +0.000660f, +0.004441f, +0.000927f, +0.005379f, +0.005420f, -0.000935f,

 -0.006260f, +0.001230f, -0.002617f, -0.008644f, -0.000101f, -0.004441f, -0.003437f, -0.002424f, -0.010631f,

 -0.005058f, +0.008918f, +0.002289f, +0.000290f, +0.003841f, +0.009111f, +0.007292f, -0.002069f, -0.004030f,

 -0.185458f, -0.448396f, -0.355234f, +0.492814f, -0.044305f, -0.457841f, +0.132180f, +0.160120f, -0.608132f,

};

const float CONV5_BN1_WEIGHT[] = 
{
//    (32,),
 -5.525324f, +0.524590f, +975.671613f, +1.008533f, -601.666391f, +23.462649f, +851.713113f, +0.665371f, +1.849106f, +2.619437f, +17.100296f, +3.493873f, +0.341118f, -16.412173f, +0.039484f, +0.659367f, -0.473613f, +0.940758f, -0.141998f, +3.204719f, -21.899004f, -1.318781f, +45.177447f, +202.057371f, +323.352744f, +31.031249f, +2.378646f, +1.498921f, +816.136298f, +27.318952f, -3.828754f, +1.144514f,
};

const float CONV5_BN1_BIAS[] = 
{
//    32,
 -0.426374f, +0.520761f, -0.000001f, +1.456776f, -0.009696f, -0.003424f, +0.015549f, +3.078409f, +1.539011f, -0.005382f, -0.019228f, -0.001839f, -0.008747f, -0.003641f, +0.236515f, -0.571871f, +0.054977f, -0.002844f, -0.002079f, +0.915692f, -0.003211f, +0.585702f, -0.002184f, +0.001880f, +0.000260f, -0.003058f, -0.007383f, -0.288306f, -0.000753f, +0.004182f, -0.003236f, -0.138006f,
};

const float CONV5_CONV2_WEIGHT[] = 
{
//    32, 32, 1, 1
 -0.005528f,
 +0.000969f,
 +0.005841f,
 +0.003812f,
 +0.000077f,
 -0.002170f,
 -0.012932f,
 -0.006034f,
 +0.010225f,
 -0.000268f,
 +0.001087f,
 -0.000074f,
 -0.002366f,
 +0.004539f,
 +0.000586f,
 +0.004224f,
 -0.000368f,
 +0.003357f,
 +0.008623f,
 -0.000729f,
 +0.004005f,
 -0.001837f,
 +0.003629f,
 -0.006266f,
 -0.007454f,
 -0.007671f,
 +0.000997f,
 +0.001503f,
 -0.003008f,
 -0.004407f,
 -0.001807f,
 -0.006769f,

 +0.026042f,
 +0.300530f,
 -0.004084f,
 +0.670186f,
 +0.010476f,
 -0.000616f,
 -0.012873f,
 -0.615961f,
 +0.189129f,
 -0.001307f,
 -0.002241f,
 +0.001746f,
 -0.002292f,
 -0.004725f,
 +0.107304f,
 +0.264741f,
 -0.454450f,
 +0.006717f,
 -0.001949f,
 -0.430571f,
 +0.006094f,
 -0.149114f,
 +0.003574f,
 -0.007293f,
 -0.002488f,
 +0.002422f,
 -0.011936f,
 +0.208556f,
 -0.009360f,
 -0.003930f,
 +0.005370f,
 -0.294600f,

 +0.039903f,
 -0.067356f,
 +0.005607f,
 +0.657762f,
 +0.001463f,
 +0.001888f,
 +0.011495f,
 -0.280161f,
 +0.039135f,
 -0.005069f,
 -0.003252f,
 -0.002993f,
 -0.000289f,
 +0.004576f,
 -0.002469f,
 -0.226262f,
 +0.074532f,
 -0.008616f,
 +0.001565f,
 -0.170207f,
 -0.000159f,
 -0.248665f,
 -0.006152f,
 -0.004803f,
 +0.003191f,
 -0.005468f,
 -0.003477f,
 -0.215100f,
 +0.005143f,
 -0.000336f,
 -0.003759f,
 -0.139555f,

 +0.000556f,
 +0.003148f,
 -0.005004f,
 -0.005025f,
 -0.004065f,
 -0.000070f,
 -0.006750f,
 -0.001670f,
 -0.004886f,
 -0.000469f,
 +0.004456f,
 -0.000830f,
 +0.000806f,
 -0.004874f,
 +0.000464f,
 -0.001069f,
 -0.001530f,
 +0.000974f,
 -0.001082f,
 -0.003535f,
 +0.003031f,
 -0.000861f,
 +0.000847f,
 +0.001627f,
 +0.002655f,
 -0.002446f,
 -0.000464f,
 +0.000416f,
 -0.003640f,
 -0.004040f,
 -0.001620f,
 -0.003689f,

 -0.063161f,
 +0.333760f,
 -0.004419f,
 -0.207577f,
 +0.001168f,
 -0.002709f,
 -0.007049f,
 +0.505620f,
 -0.327227f,
 +0.001230f,
 +0.007727f,
 -0.001760f,
 +0.001256f,
 -0.000806f,
 -0.178410f,
 -0.163453f,
 +0.782583f,
 +0.002710f,
 -0.001612f,
 -0.033657f,
 +0.001007f,
 +0.250978f,
 +0.001205f,
 +0.002319f,
 +0.004718f,
 +0.000442f,
 +0.000840f,
 -0.321213f,
 +0.000596f,
 +0.000977f,
 -0.002340f,
 +0.129081f,

 +0.116662f,
 -0.399436f,
 +0.004341f,
 +0.114816f,
 +0.001850f,
 -0.000313f,
 +0.004489f,
 -0.117674f,
 +0.562219f,
 +0.004277f,
 +0.005466f,
 +0.001857f,
 -0.002836f,
 -0.001586f,
 -0.123254f,
 +0.117482f,
 -0.856333f,
 -0.003050f,
 +0.002884f,
 -0.029823f,
 +0.000038f,
 -0.397860f,
 -0.003776f,
 -0.001942f,
 -0.000128f,
 +0.002980f,
 +0.008619f,
 +0.260334f,
 -0.003100f,
 -0.003828f,
 +0.000057f,
 -0.029521f,

 +0.155368f,
 +0.009515f,
 +0.000285f,
 -0.079117f,
 -0.003608f,
 +0.001278f,
 -0.006365f,
 +0.484185f,
 -0.315026f,
 +0.003482f,
 +0.001003f,
 +0.003165f,
 +0.002509f,
 +0.005234f,
 +0.426729f,
 -0.194775f,
 +0.061081f,
 -0.006295f,
 +0.000590f,
 -0.062066f,
 -0.003381f,
 -0.613830f,
 -0.000911f,
 -0.002335f,
 -0.001548f,
 -0.001154f,
 -0.003383f,
 -0.243761f,
 -0.004853f,
 +0.002043f,
 +0.001846f,
 +0.105262f,

 +0.003044f,
 +0.000098f,
 -0.001331f,
 -0.001109f,
 +0.002045f,
 +0.003036f,
 +0.003284f,
 +0.001522f,
 +0.003749f,
 -0.001968f,
 +0.003853f,
 +0.001486f,
 +0.000106f,
 -0.001658f,
 +0.000359f,
 -0.002193f,
 +0.007653f,
 -0.000197f,
 +0.000665f,
 -0.002072f,
 -0.000333f,
 +0.000549f,
 +0.002595f,
 -0.004052f,
 -0.002274f,
 -0.000991f,
 -0.000202f,
 -0.001742f,
 +0.001116f,
 -0.003237f,
 -0.000184f,
 -0.004659f,

 -0.151134f,
 -0.015859f,
 +0.000328f,
 +0.696139f,
 +0.004331f,
 +0.000541f,
 -0.008309f,
 -0.860593f,
 +0.382142f,
 -0.004567f,
 -0.002679f,
 -0.007007f,
 -0.001101f,
 +0.002255f,
 -0.014342f,
 -0.245084f,
 -0.379438f,
 -0.003777f,
 -0.000041f,
 +0.186082f,
 +0.000401f,
 -0.072426f,
 +0.004323f,
 -0.001849f,
 -0.000629f,
 -0.002846f,
 -0.001287f,
 +0.099177f,
 -0.003529f,
 +0.000994f,
 +0.002491f,
 -0.028007f,

 +0.240879f,
 +0.090700f,
 +0.002595f,
 -0.007296f,
 -0.004326f,
 +0.001340f,
 +0.014755f,
 +0.093551f,
 +0.331182f,
 +0.001380f,
 -0.003202f,
 +0.001939f,
 +0.006886f,
 -0.003629f,
 -0.014890f,
 -0.177582f,
 +0.083771f,
 -0.004419f,
 +0.001288f,
 +0.590840f,
 +0.002793f,
 -1.615635f,
 +0.002270f,
 +0.001623f,
 -0.003289f,
 -0.000173f,
 -0.001317f,
 -0.434197f,
 +0.001272f,
 -0.002302f,
 +0.000668f,
 +0.145166f,

 -0.005966f,
 +0.029445f,
 +0.002211f,
 -0.022934f,
 +0.000184f,
 +0.000807f,
 -0.001161f,
 -0.042678f,
 -0.040526f,
 -0.003029f,
 -0.007420f,
 -0.000418f,
 +0.003043f,
 +0.003626f,
 +0.030733f,
 +0.008952f,
 +0.026209f,
 -0.001918f,
 -0.001275f,
 -0.007470f,
 +0.000530f,
 +0.102429f,
 +0.002362f,
 -0.001911f,
 -0.001080f,
 +0.006863f,
 +0.002323f,
 +0.084597f,
 -0.002560f,
 +0.001202f,
 +0.003925f,
 +0.072063f,

 -0.098454f,
 +0.413133f,
 +0.002087f,
 -0.429144f,
 +0.006908f,
 +0.000978f,
 +0.005018f,
 +0.853766f,
 -0.095570f,
 -0.000593f,
 -0.003201f,
 +0.005423f,
 -0.002520f,
 -0.000044f,
 -0.155986f,
 +0.227527f,
 +0.434786f,
 -0.009062f,
 +0.001709f,
 -0.185662f,
 +0.003615f,
 -0.074923f,
 +0.003028f,
 +0.009603f,
 +0.004245f,
 -0.004040f,
 +0.003825f,
 -0.157285f,
 +0.003552f,
 +0.003716f,
 +0.009306f,
 +0.036874f,

 +0.238785f,
 +0.183680f,
 -0.005649f,
 +0.083824f,
 -0.001655f,
 -0.004361f,
 -0.002377f,
 -0.216489f,
 +0.015876f,
 +0.001819f,
 -0.006187f,
 -0.002159f,
 -0.006014f,
 -0.001408f,
 +0.197430f,
 -0.290351f,
 +0.404380f,
 -0.002793f,
 -0.000898f,
 -0.002207f,
 +0.005048f,
 -0.553659f,
 -0.001558f,
 -0.015140f,
 -0.001615f,
 +0.008218f,
 -0.007101f,
 -0.193418f,
 -0.000779f,
 +0.013420f,
 -0.001674f,
 -0.111591f,

 +0.013606f,
 -0.204626f,
 +0.006231f,
 -0.108445f,
 +0.003785f,
 +0.000451f,
 +0.005605f,
 +0.220901f,
 -0.450560f,
 -0.001796f,
 +0.006195f,
 -0.000153f,
 +0.000590f,
 -0.001272f,
 -0.158556f,
 -0.377665f,
 -0.248065f,
 -0.000557f,
 -0.000532f,
 -0.100446f,
 -0.001491f,
 +0.184251f,
 +0.001202f,
 -0.005763f,
 -0.002261f,
 -0.001499f,
 +0.004039f,
 -0.058364f,
 +0.001135f,
 -0.000280f,
 +0.000781f,
 +0.221232f,

 +0.001371f,
 +0.021383f,
 +0.003419f,
 -0.006034f,
 +0.002483f,
 -0.001376f,
 +0.001843f,
 +0.026483f,
 -0.004676f,
 -0.000883f,
 +0.003005f,
 -0.002991f,
 -0.001924f,
 -0.000904f,
 +0.022117f,
 +0.005150f,
 +0.007693f,
 +0.010674f,
 -0.001543f,
 -0.000452f,
 -0.002758f,
 +0.052509f,
 -0.002759f,
 +0.002648f,
 -0.003738f,
 -0.002516f,
 -0.003267f,
 +0.037205f,
 -0.001718f,
 -0.000903f,
 -0.001917f,
 +0.019941f,

 +0.085740f,
 +0.041753f,
 -0.000084f,
 -0.067371f,
 -0.007154f,
 +0.001227f,
 +0.002413f,
 +0.258002f,
 +0.142698f,
 +0.001540f,
 +0.014897f,
 -0.002063f,
 +0.000093f,
 -0.005330f,
 -0.014426f,
 -0.306208f,
 -0.039310f,
 +0.000985f,
 +0.000836f,
 -0.124457f,
 +0.000504f,
 -0.594942f,
 +0.004360f,
 +0.002963f,
 +0.001238f,
 +0.001156f,
 -0.001506f,
 +0.519109f,
 -0.000438f,
 -0.000508f,
 +0.000959f,
 -0.525132f,

 +0.007718f,
 -0.002256f,
 +0.002584f,
 +0.006043f,
 -0.001419f,
 -0.001457f,
 +0.002156f,
 -0.002716f,
 -0.002299f,
 -0.004650f,
 -0.004875f,
 -0.001568f,
 +0.008170f,
 +0.000296f,
 +0.004465f,
 +0.001218f,
 +0.009776f,
 +0.000167f,
 -0.003120f,
 +0.000184f,
 -0.006156f,
 -0.002484f,
 -0.003982f,
 +0.000859f,
 -0.003911f,
 -0.004858f,
 -0.002415f,
 -0.001736f,
 -0.004236f,
 +0.003480f,
 -0.006404f,
 -0.002485f,

 +0.092100f,
 -0.042663f,
 -0.002601f,
 -0.632424f,
 -0.007969f,
 -0.001454f,
 +0.009205f,
 -1.462065f,
 +0.277848f,
 +0.002219f,
 -0.004180f,
 +0.001750f,
 +0.012926f,
 +0.003191f,
 -0.020643f,
 -0.463101f,
 -0.094710f,
 -0.009954f,
 +0.000870f,
 -0.366644f,
 -0.000287f,
 +0.927855f,
 -0.004829f,
 +0.008693f,
 +0.006870f,
 +0.002101f,
 +0.015552f,
 -0.043610f,
 +0.001905f,
 -0.002409f,
 +0.000639f,
 -0.348370f,

 -0.001014f,
 +0.002963f,
 +0.001221f,
 +0.007713f,
 -0.000520f,
 -0.000687f,
 +0.003802f,
 +0.001552f,
 +0.002085f,
 -0.006552f,
 -0.004339f,
 +0.000333f,
 -0.002521f,
 +0.002671f,
 +0.005611f,
 +0.001704f,
 -0.001367f,
 -0.000791f,
 -0.003395f,
 +0.001841f,
 -0.001608f,
 +0.000979f,
 -0.005096f,
 +0.000651f,
 -0.001646f,
 -0.001917f,
 +0.004158f,
 -0.000833f,
 -0.004819f,
 +0.002075f,
 +0.000569f,
 +0.000215f,

 -0.001456f,
 -0.011588f,
 -0.005500f,
 +0.002601f,
 -0.001921f,
 -0.005375f,
 +0.003973f,
 +0.018242f,
 +0.013679f,
 -0.004883f,
 -0.001149f,
 -0.000477f,
 -0.007007f,
 +0.003391f,
 -0.012691f,
 +0.009846f,
 -0.010408f,
 -0.007159f,
 +0.000292f,
 -0.007236f,
 +0.001730f,
 +0.005034f,
 +0.001502f,
 +0.002018f,
 -0.000458f,
 +0.002086f,
 +0.001217f,
 +0.002380f,
 +0.000253f,
 +0.005978f,
 -0.004807f,
 -0.005454f,

 +0.003960f,
 +0.001241f,
 -0.001383f,
 +0.005087f,
 -0.009121f,
 +0.000011f,
 -0.003687f,
 +0.009423f,
 +0.005457f,
 -0.006677f,
 +0.006032f,
 +0.002603f,
 +0.003010f,
 +0.003732f,
 -0.007418f,
 +0.010498f,
 -0.010328f,
 -0.001539f,
 -0.003882f,
 +0.011113f,
 -0.002689f,
 +0.003067f,
 -0.010251f,
 +0.000517f,
 -0.007024f,
 +0.002746f,
 -0.002579f,
 -0.003838f,
 -0.002029f,
 -0.004026f,
 -0.002279f,
 -0.008644f,

 +0.000742f,
 +0.007443f,
 -0.000662f,
 -0.004450f,
 +0.007935f,
 +0.007420f,
 -0.003685f,
 +0.002004f,
 -0.004809f,
 +0.004870f,
 +0.000232f,
 -0.006011f,
 -0.007593f,
 -0.003248f,
 -0.009519f,
 +0.003579f,
 -0.011885f,
 +0.003170f,
 -0.002420f,
 -0.011429f,
 +0.000397f,
 +0.001123f,
 -0.002949f,
 -0.011393f,
 +0.003600f,
 -0.003301f,
 -0.002044f,
 -0.002538f,
 +0.001277f,
 -0.006442f,
 -0.002334f,
 -0.005015f,

 +0.003664f,
 -0.002392f,
 -0.001759f,
 +0.002094f,
 +0.003418f,
 +0.001121f,
 -0.005180f,
 +0.007915f,
 -0.000707f,
 -0.001107f,
 -0.001029f,
 -0.000875f,
 -0.005178f,
 +0.003749f,
 +0.001205f,
 +0.000161f,
 +0.004354f,
 +0.000315f,
 +0.001467f,
 +0.000672f,
 -0.006132f,
 +0.000006f,
 +0.003069f,
 -0.000638f,
 +0.003529f,
 -0.004474f,
 +0.001169f,
 +0.000110f,
 +0.003766f,
 +0.002162f,
 +0.007488f,
 -0.001686f,

 +0.080669f,
 -0.165683f,
 -0.000120f,
 -0.244062f,
 +0.003542f,
 +0.000724f,
 +0.001887f,
 +0.362189f,
 -0.457326f,
 +0.001178f,
 +0.003462f,
 +0.001877f,
 -0.002191f,
 +0.001045f,
 -0.296014f,
 -0.042534f,
 -0.094149f,
 +0.006844f,
 +0.002154f,
 -0.080229f,
 +0.000040f,
 +0.466899f,
 +0.000087f,
 -0.000650f,
 -0.000530f,
 -0.001594f,
 -0.003632f,
 +0.021904f,
 -0.001778f,
 -0.004116f,
 -0.001079f,
 +0.285004f,

 -0.013661f,
 -0.207132f,
 -0.001552f,
 -0.189139f,
 +0.003354f,
 -0.000783f,
 +0.009980f,
 +0.353544f,
 -0.206713f,
 -0.003457f,
 +0.003560f,
 +0.000612f,
 -0.002279f,
 +0.003836f,
 -0.253671f,
 -0.126496f,
 -0.322826f,
 -0.003509f,
 +0.004641f,
 -0.091727f,
 -0.001282f,
 +0.160199f,
 +0.005563f,
 -0.000483f,
 +0.003890f,
 +0.000092f,
 +0.009173f,
 -0.112773f,
 +0.007404f,
 -0.005405f,
 -0.008338f,
 -0.228674f,

 +0.048517f,
 +0.025455f,
 -0.005281f,
 +0.072013f,
 -0.006209f,
 -0.001808f,
 -0.010837f,
 -0.400717f,
 -0.076991f,
 -0.000321f,
 +0.004472f,
 -0.003984f,
 +0.000252f,
 -0.005538f,
 +0.229394f,
 +0.111827f,
 -0.075411f,
 -0.005351f,
 +0.000206f,
 -0.155970f,
 +0.002971f,
 +0.081165f,
 +0.000502f,
 +0.000752f,
 -0.000023f,
 -0.004352f,
 -0.001621f,
 +0.296862f,
 -0.008419f,
 +0.000475f,
 +0.005662f,
 +0.245275f,

 -0.001742f,
 +0.003144f,
 -0.004346f,
 -0.005860f,
 +0.001316f,
 +0.001064f,
 +0.006127f,
 -0.019886f,
 -0.008435f,
 -0.001010f,
 +0.004382f,
 +0.000814f,
 -0.000503f,
 +0.001868f,
 +0.014465f,
 +0.000153f,
 -0.000233f,
 +0.004544f,
 -0.003691f,
 +0.000015f,
 +0.002321f,
 +0.004754f,
 -0.001106f,
 -0.003044f,
 -0.004422f,
 +0.000659f,
 -0.007859f,
 +0.003787f,
 +0.005823f,
 -0.003747f,
 +0.003847f,
 +0.001091f,

 -0.068683f,
 +0.137734f,
 -0.003063f,
 +0.064760f,
 +0.009242f,
 -0.003080f,
 -0.003165f,
 +0.142873f,
 -0.524220f,
 -0.002216f,
 +0.000878f,
 -0.002312f,
 -0.001031f,
 -0.003323f,
 +0.176839f,
 -0.018010f,
 -0.310938f,
 +0.005625f,
 +0.003560f,
 -0.143830f,
 +0.009395f,
 -0.036835f,
 -0.005432f,
 -0.002998f,
 -0.002965f,
 +0.002468f,
 -0.004645f,
 +0.354047f,
 -0.007998f,
 -0.014869f,
 +0.010026f,
 +0.081229f,

 -0.067677f,
 -0.058950f,
 +0.007990f,
 -0.180539f,
 -0.005299f,
 -0.004775f,
 -0.009919f,
 +0.394065f,
 -0.135223f,
 -0.000511f,
 +0.000835f,
 -0.001558f,
 +0.005452f,
 -0.004143f,
 -0.031954f,
 -0.195589f,
 -0.090712f,
 -0.001724f,
 -0.004572f,
 -0.352720f,
 +0.005226f,
 +0.236544f,
 +0.000478f,
 -0.005991f,
 +0.000927f,
 +0.002444f,
 +0.001975f,
 -0.176358f,
 -0.003760f,
 +0.002495f,
 -0.000765f,
 +0.232448f,

 -0.005181f,
 -0.001996f,
 -0.008201f,
 -0.004647f,
 +0.000259f,
 +0.001813f,
 -0.005622f,
 -0.001685f,
 -0.008095f,
 -0.004632f,
 -0.001889f,
 -0.001659f,
 -0.004284f,
 -0.003897f,
 -0.007849f,
 -0.001897f,
 -0.000301f,
 +0.000425f,
 +0.001881f,
 -0.001114f,
 -0.001474f,
 -0.003599f,
 +0.000536f,
 -0.001160f,
 +0.000362f,
 -0.000882f,
 -0.006548f,
 +0.000193f,
 -0.005163f,
 -0.001270f,
 -0.004219f,
 +0.003804f,

 +0.044893f,
 +0.022636f,
 -0.004383f,
 -0.139994f,
 +0.001559f,
 +0.001115f,
 -0.007932f,
 -0.256344f,
 +0.405740f,
 +0.004935f,
 +0.008093f,
 +0.000990f,
 -0.002085f,
 -0.001908f,
 -0.256382f,
 -0.033796f,
 -0.003258f,
 -0.002196f,
 +0.000632f,
 -0.017802f,
 -0.003841f,
 +0.197492f,
 -0.003527f,
 +0.001878f,
 -0.003772f,
 -0.001873f,
 -0.000132f,
 +0.047369f,
 -0.000925f,
 +0.008977f,
 -0.004105f,
 -0.117276f,

 +0.110495f,
 +0.156470f,
 -0.001918f,
 +0.070083f,
 -0.006456f,
 -0.002523f,
 +0.005722f,
 -0.377101f,
 +0.609022f,
 -0.000532f,
 +0.011510f,
 +0.000180f,
 +0.003407f,
 +0.000723f,
 +0.198844f,
 -0.044396f,
 +0.173761f,
 +0.009191f,
 -0.001280f,
 +0.201757f,
 +0.001076f,
 +0.055741f,
 -0.001782f,
 -0.004542f,
 +0.000482f,
 -0.001948f,
 +0.000366f,
 -0.307177f,
 -0.001657f,
 -0.009735f,
 +0.004631f,
 -0.285901f,

};

const float CONV5_BN2_WEIGHT[] = 
{
//    (32,),
 +0.477462f, +0.326180f, +1.105196f, +0.955624f, +0.484294f, -0.603386f, +0.471934f, +0.963145f, +0.570114f, +0.514717f, +0.748170f, -0.264217f, +0.732687f, +0.791217f, +0.005352f, +0.728249f, +1.111353f, +0.645051f, +1.378094f, -0.083950f, -0.206198f, +0.140950f, +0.609108f, +0.464371f, +0.177092f, -0.766411f, +0.752730f, +1.486465f, -0.250934f, +0.825843f, +0.213923f, -0.499733f,
};

const float CONV5_BN2_BIAS[] = 
{
//    32,
 +0.003611f, +0.914815f, +0.600041f, +0.006838f, -0.482190f, -0.818938f, +0.109996f, -0.011738f, +0.794144f, +1.349436f, -0.159146f, +1.137437f, +0.591296f, +0.287392f, -0.069758f, +0.901153f, -0.003774f, +0.776278f, -0.012549f, -0.037454f, -0.016835f, -0.006410f, -0.009670f, +0.084984f, +0.268979f, -0.328158f, +0.013696f, +0.592919f, +0.614112f, +0.014869f, +0.279625f, +0.412859f,
};

const float CONV6_CONV1_WEIGHT[] = 
{
//    32, 1, 3, 3
 -0.002423f, -0.000421f, +0.001281f, -0.004044f, -0.004084f, -0.003907f, +0.000036f, -0.005361f, +0.005625f,

 -0.435931f, +0.642438f, +0.368800f, -0.768110f, +0.508812f, +0.206930f, -0.761257f, -0.381489f, +0.473099f,

 -0.738317f, +0.025699f, -0.146067f, +0.395157f, -0.200832f, -0.445932f, -0.281893f, -0.314627f, +0.088722f,

 -0.005806f, -0.000218f, +0.000292f, -0.000780f, -0.001110f, -0.002875f, +0.000717f, +0.000193f, +0.001647f,

 +0.119989f, +0.631176f, +0.334465f, +0.177146f, -0.366818f, -0.032197f, +0.579755f, +0.640582f, +0.297583f,

 +0.254635f, +0.375051f, -0.146287f, +0.054739f, +0.828885f, +0.324482f, -0.276436f, +0.049810f, +0.198926f,

 -0.170511f, -0.513127f, -0.458198f, +0.285309f, -0.095875f, -0.246708f, +0.572800f, +0.294607f, +0.141596f,

 +0.001571f, +0.005634f, +0.000244f, +0.000320f, +0.005011f, +0.002017f, +0.001377f, +0.001301f, +0.003010f,

 +0.111856f, -0.846212f, -0.241827f, +0.787194f, -0.313707f, -0.929401f, +0.330041f, +0.875384f, -0.587426f,

 -1.031747f, +1.436396f, -0.731621f, +0.360669f, -0.014611f, -0.218785f, -0.208812f, -1.268188f, +1.613638f,

 -0.040999f, -0.012800f, -0.052524f, +0.037686f, -0.065073f, +0.032414f, +0.115056f, -0.036244f, +0.112799f,

 -0.168396f, -0.664986f, -0.485097f, -0.841295f, +0.139340f, +0.189925f, +0.540804f, -0.362038f, -0.310262f,

 +0.289763f, -0.300623f, -0.133920f, -0.237589f, -0.304633f, -0.282206f, -0.219636f, +0.154565f, +0.621723f,

 +0.271945f, +0.005521f, -0.153717f, +0.168519f, +0.227102f, +0.024581f, +0.216761f, +0.244813f, +0.233029f,

 +0.004480f, -0.004722f, -0.001293f, +0.016458f, -0.007150f, -0.005230f, +0.037145f, +0.014921f, -0.001733f,

 +0.016683f, +0.033646f, -0.106632f, +0.278967f, +0.856093f, -1.078246f, +0.217573f, -0.017351f, -0.314700f,

 -0.001352f, +0.002509f, -0.000458f, +0.006092f, +0.000189f, +0.002311f, -0.001750f, -0.005433f, -0.001536f,

 -0.829025f, +0.149724f, +0.155333f, +1.506158f, +0.875898f, -0.499108f, +0.527937f, -0.369287f, -0.716194f,

 -0.002190f, -0.005224f, -0.001367f, +0.004567f, +0.000124f, +0.001049f, -0.002508f, -0.003214f, -0.006798f,

 -0.002483f, -0.004447f, -0.004808f, -0.011807f, +0.001756f, +0.008725f, +0.002624f, +0.010354f, +0.020496f,

 +0.006573f, -0.003275f, +0.007593f, +0.004177f, +0.004364f, +0.005006f, +0.006222f, -0.003781f, +0.002649f,

 +0.000166f, +0.004826f, +0.000100f, -0.001494f, -0.005327f, -0.002158f, -0.007445f, -0.001874f, +0.000777f,

 -0.002625f, -0.000226f, +0.000676f, -0.000277f, -0.000618f, -0.000859f, -0.001309f, -0.007181f, -0.000558f,

 +0.032449f, -0.105955f, -0.721893f, +0.435814f, +0.263074f, +0.696898f, -0.170763f, +0.163189f, +0.148616f,

 +0.279196f, +0.097100f, +0.159304f, +0.328501f, +0.034420f, +0.244653f, -0.096189f, +0.054058f, -0.120934f,

 -0.093292f, +0.044378f, +0.316270f, -0.090856f, +0.013129f, +0.217153f, +0.088315f, -0.410670f, +0.198886f,

 +0.004077f, +0.007684f, +0.005656f, +0.002231f, +0.008649f, -0.009131f, +0.002597f, +0.004868f, -0.006679f,

 -0.052180f, -0.109257f, -0.034042f, -0.152846f, -0.191350f, -0.398427f, -0.047522f, -0.084217f, -0.170619f,

 -0.005614f, +0.029550f, -0.219778f, +0.248219f, +0.020684f, -0.473388f, +0.032567f, -0.263599f, -0.275918f,

 -0.005754f, -0.002095f, +0.002923f, +0.003726f, +0.000177f, +0.000004f, -0.003657f, -0.001846f, -0.003194f,

 +0.017800f, -0.145177f, +0.123988f, +0.214761f, +0.226814f, +0.093478f, +0.309166f, +0.107043f, -0.111924f,

 +0.541110f, +0.374998f, +0.130859f, +0.330400f, -0.018797f, -0.214746f, -0.301631f, -0.288522f, -0.211132f,

};

const float CONV6_BN1_WEIGHT[] = 
{
//    (32,),
 +27.161923f, -2.032254f, +1.266623f, +56.539475f, +1.252648f, +1.909125f, +2.134127f, +10.080510f, +1.411154f, +1.282126f, +18.556566f, +1.778725f, +3.223056f, -2.348957f, +1442.173994f, +1.558698f, +5.665238f, +0.773163f, +43.582239f, +1890.493307f, +1065.857952f, +441.741764f, +22.999569f, -2.990594f, +4.053003f, +2.730682f, +4.681739f, -1.026974f, +2.427493f, +19.229030f, +4.642799f, +2.422716f,
};

const float CONV6_BN1_BIAS[] = 
{
//    32,
 -0.003141f, -0.167617f, +0.594644f, -0.001367f, -1.691518f, -0.645944f, +0.677622f, -0.004810f, -0.086810f, +0.059860f, +0.145248f, +3.096088f, +0.442695f, +0.841646f, +0.027127f, +0.173917f, -0.002655f, +0.018761f, -0.002197f, +0.016191f, +0.000119f, +0.006289f, -0.001554f, +0.879607f, -1.594033f, +0.182214f, -0.007657f, -0.245425f, +0.791894f, -0.002583f, -0.826974f, -0.427181f,
};

const float CONV6_CONV2_WEIGHT[] = 
{
//    32, 32, 1, 1
 +0.001188f,
 +0.124700f,
 +0.075783f,
 +0.000512f,
 -0.144891f,
 +0.087752f,
 +0.106634f,
 -0.000696f,
 +0.224317f,
 +1.155752f,
 -0.012230f,
 -0.214367f,
 +0.272610f,
 +0.059943f,
 +0.011124f,
 +0.808920f,
 +0.001063f,
 +0.483243f,
 -0.000312f,
 -0.009731f,
 +0.001558f,
 -0.003516f,
 -0.002954f,
 -0.004792f,
 +0.174646f,
 +0.051109f,
 +0.005026f,
 -0.145969f,
 +0.240366f,
 -0.000911f,
 +0.030661f,
 +0.037434f,

 +0.003316f,
 -0.537656f,
 +0.389019f,
 +0.001145f,
 +0.086238f,
 +0.168451f,
 +0.190162f,
 -0.003343f,
 -0.354325f,
 +0.299165f,
 +0.015887f,
 +0.284564f,
 +0.246023f,
 -0.508858f,
 -0.016437f,
 -0.144105f,
 -0.000165f,
 +0.325366f,
 -0.004185f,
 -0.010369f,
 +0.000071f,
 -0.002989f,
 -0.003829f,
 -0.188946f,
 +0.088684f,
 +0.030793f,
 +0.003433f,
 +0.326609f,
 +0.064220f,
 -0.000138f,
 -0.128746f,
 -0.330846f,

 +0.000792f,
 -0.084591f,
 +0.410651f,
 -0.001142f,
 +0.312095f,
 -0.074956f,
 -0.252868f,
 -0.003379f,
 -0.025500f,
 -0.397211f,
 +0.016366f,
 +1.008351f,
 -0.265405f,
 -0.222100f,
 -0.001601f,
 +0.131233f,
 -0.006082f,
 +0.117758f,
 +0.004026f,
 -0.002872f,
 +0.006128f,
 -0.006273f,
 +0.002084f,
 -0.342923f,
 -0.054670f,
 -0.257507f,
 -0.002434f,
 -0.077934f,
 +0.332893f,
 -0.000312f,
 +0.063771f,
 +0.216694f,

 +0.002890f,
 +0.014336f,
 +0.001289f,
 -0.002992f,
 -0.004668f,
 -0.001007f,
 +0.006952f,
 +0.003433f,
 +0.001914f,
 -0.006438f,
 -0.000497f,
 +0.004232f,
 -0.000854f,
 +0.001753f,
 -0.003366f,
 -0.003773f,
 -0.001312f,
 -0.007844f,
 +0.005092f,
 -0.007410f,
 -0.004188f,
 -0.004198f,
 +0.000417f,
 -0.001299f,
 -0.004195f,
 +0.013948f,
 +0.002871f,
 +0.001237f,
 -0.001918f,
 +0.001620f,
 -0.007157f,
 -0.004202f,

 -0.003679f,
 -0.193861f,
 -0.163540f,
 +0.002318f,
 -0.134384f,
 -0.273379f,
 -0.010378f,
 +0.001090f,
 -0.072950f,
 -0.202787f,
 -0.012676f,
 -0.258982f,
 -0.180408f,
 -0.055937f,
 -0.005574f,
 -0.436973f,
 -0.001110f,
 +0.651393f,
 +0.002894f,
 -0.001466f,
 -0.004057f,
 -0.002085f,
 +0.001963f,
 -0.162672f,
 -0.206929f,
 -0.061437f,
 +0.003464f,
 +0.200826f,
 +0.052232f,
 +0.000707f,
 -0.034097f,
 +0.007664f,

 -0.000371f,
 -0.057187f,
 -0.084531f,
 -0.000549f,
 -0.001514f,
 -0.004579f,
 +0.003541f,
 +0.001043f,
 -0.060296f,
 +0.001482f,
 +0.001875f,
 +0.024141f,
 +0.028992f,
 -0.020011f,
 -0.031935f,
 -0.067268f,
 +0.000153f,
 +0.013797f,
 +0.001780f,
 -0.007206f,
 -0.006735f,
 -0.001266f,
 +0.004454f,
 -0.026797f,
 -0.033434f,
 -0.021279f,
 +0.001265f,
 +0.032243f,
 -0.011462f,
 -0.002659f,
 +0.001592f,
 -0.022798f,

 -0.000888f,
 +0.453536f,
 -0.068457f,
 +0.002014f,
 +0.222116f,
 +0.415720f,
 -0.006906f,
 +0.000016f,
 +0.228301f,
 +0.449687f,
 +0.072657f,
 -0.023703f,
 -0.071778f,
 +0.093208f,
 +0.015003f,
 -0.061877f,
 -0.000228f,
 +0.542388f,
 -0.000142f,
 -0.004087f,
 -0.000060f,
 -0.000374f,
 +0.001081f,
 +0.472561f,
 -0.024460f,
 +0.170567f,
 +0.002211f,
 -0.068174f,
 -0.008310f,
 +0.001136f,
 +0.080862f,
 +0.107766f,

 -0.003887f,
 -0.003406f,
 -0.000091f,
 -0.002977f,
 -0.002192f,
 -0.005580f,
 -0.005741f,
 +0.004654f,
 +0.000545f,
 -0.005671f,
 -0.006110f,
 +0.000128f,
 +0.003147f,
 -0.003280f,
 +0.007054f,
 -0.003844f,
 -0.004575f,
 -0.009033f,
 +0.002922f,
 +0.000182f,
 -0.000997f,
 -0.001663f,
 -0.000267f,
 +0.001038f,
 -0.005011f,
 +0.000746f,
 -0.002589f,
 -0.001467f,
 -0.002120f,
 +0.000727f,
 -0.000431f,
 -0.000716f,

 -0.000031f,
 -0.035205f,
 -0.381160f,
 +0.003557f,
 -0.263775f,
 -0.631696f,
 -0.166372f,
 -0.004052f,
 -0.278427f,
 +0.417908f,
 -0.077436f,
 -0.319495f,
 -0.221774f,
 +0.203184f,
 +0.005504f,
 +0.237258f,
 +0.004058f,
 -0.008994f,
 -0.000486f,
 +0.004022f,
 +0.007404f,
 -0.003128f,
 -0.000460f,
 -0.190040f,
 +0.018024f,
 -0.365069f,
 -0.001386f,
 +0.281447f,
 -0.069124f,
 +0.005875f,
 +0.120928f,
 +0.034088f,

 +0.001857f,
 -0.265482f,
 -0.004519f,
 +0.002993f,
 -0.263344f,
 +0.161291f,
 +0.044880f,
 -0.000397f,
 -0.238183f,
 -0.285900f,
 +0.030399f,
 -0.043474f,
 +0.157063f,
 -0.219940f,
 -0.006771f,
 -0.185904f,
 +0.002507f,
 -0.220032f,
 -0.004477f,
 +0.003436f,
 +0.001686f,
 +0.001940f,
 -0.001257f,
 +0.319042f,
 -0.074613f,
 -0.154389f,
 +0.002907f,
 -0.332613f,
 -0.168786f,
 -0.000708f,
 -0.190010f,
 -0.025326f,

 +0.000332f,
 +0.231677f,
 +0.043803f,
 +0.000808f,
 -0.105506f,
 -0.079121f,
 -0.516303f,
 +0.002694f,
 +0.160052f,
 -0.033939f,
 -0.126125f,
 -0.466642f,
 -0.326877f,
 +0.425817f,
 +0.026355f,
 -0.083824f,
 -0.003200f,
 +0.673967f,
 -0.005486f,
 -0.006429f,
 +0.003729f,
 -0.001162f,
 -0.000878f,
 +0.382239f,
 -0.161292f,
 +0.283868f,
 +0.004843f,
 -0.625363f,
 +0.049460f,
 +0.000412f,
 -0.094378f,
 +0.028984f,

 -0.000548f,
 -0.492006f,
 -0.166637f,
 +0.001219f,
 -0.053907f,
 +0.160996f,
 +0.088584f,
 -0.002044f,
 -0.763106f,
 -0.607429f,
 -0.068897f,
 +0.160425f,
 +0.035659f,
 -0.124117f,
 +0.015065f,
 +0.440899f,
 +0.001369f,
 +0.132018f,
 +0.000266f,
 -0.008674f,
 -0.005439f,
 +0.000219f,
 +0.002647f,
 -0.405053f,
 +0.069612f,
 -0.160369f,
 +0.004072f,
 -0.199136f,
 +0.036821f,
 -0.002550f,
 +0.068236f,
 +0.225754f,

 +0.001774f,
 +0.387902f,
 -0.102178f,
 +0.000290f,
 -0.124899f,
 +0.247488f,
 +0.127505f,
 +0.002562f,
 -0.115644f,
 +0.343407f,
 -0.019298f,
 -0.224330f,
 -0.192419f,
 +0.360907f,
 +0.002621f,
 +0.575448f,
 -0.000708f,
 +0.228231f,
 +0.000472f,
 -0.012136f,
 -0.001425f,
 +0.001912f,
 -0.001434f,
 +0.606157f,
 -0.047806f,
 -0.182771f,
 +0.003645f,
 -0.087269f,
 +0.309352f,
 +0.001933f,
 +0.290237f,
 -0.081700f,

 -0.002386f,
 -0.034976f,
 +0.364353f,
 -0.003216f,
 -0.064172f,
 -0.175975f,
 -0.066297f,
 +0.001380f,
 +0.062875f,
 +0.367956f,
 -0.019406f,
 +0.208025f,
 +0.279998f,
 -0.076306f,
 +0.005215f,
 -0.425854f,
 +0.002200f,
 +0.966439f,
 -0.001277f,
 +0.000111f,
 -0.005792f,
 +0.005208f,
 +0.001436f,
 +0.128954f,
 +0.247024f,
 -0.036886f,
 +0.003120f,
 -0.103809f,
 +0.198790f,
 -0.003346f,
 +0.276596f,
 +0.565052f,

 -0.003416f,
 -0.000429f,
 -0.002236f,
 -0.001836f,
 +0.003855f,
 +0.000647f,
 -0.001837f,
 -0.001660f,
 +0.000799f,
 -0.001714f,
 +0.000596f,
 -0.001546f,
 -0.004275f,
 -0.000901f,
 -0.003169f,
 -0.003828f,
 -0.004856f,
 +0.001264f,
 +0.001098f,
 -0.000069f,
 +0.001881f,
 -0.001197f,
 -0.001682f,
 +0.002256f,
 -0.002253f,
 +0.001214f,
 +0.001563f,
 +0.003127f,
 -0.003345f,
 +0.001039f,
 +0.000008f,
 +0.007320f,

 +0.000945f,
 -0.141658f,
 +0.130955f,
 -0.000827f,
 -0.414903f,
 -0.833411f,
 -0.085430f,
 -0.001665f,
 -0.469644f,
 +0.617669f,
 -0.042174f,
 -0.102185f,
 -0.085604f,
 -0.008375f,
 +0.008007f,
 +0.422732f,
 +0.002343f,
 +0.738330f,
 -0.001046f,
 -0.008495f,
 +0.006696f,
 -0.003297f,
 -0.000945f,
 -0.151809f,
 -0.240122f,
 +0.029149f,
 +0.000670f,
 +0.189586f,
 +0.322338f,
 -0.001171f,
 +0.232271f,
 +0.220940f,

 +0.002174f,
 +0.447918f,
 -0.231349f,
 -0.001919f,
 +0.176352f,
 +0.336322f,
 -0.286350f,
 -0.001498f,
 +0.442161f,
 +0.126424f,
 +0.010634f,
 -0.239582f,
 -0.344624f,
 -0.008450f,
 +0.003340f,
 -0.161975f,
 -0.005732f,
 -0.764334f,
 -0.003437f,
 -0.006910f,
 +0.000875f,
 -0.004046f,
 +0.000833f,
 -0.403424f,
 -0.228476f,
 -0.005686f,
 +0.000563f,
 +0.081167f,
 +0.430510f,
 +0.000760f,
 -0.069362f,
 -0.448856f,

 +0.005797f,
 +0.015731f,
 -0.001453f,
 +0.000733f,
 -0.004330f,
 +0.004198f,
 +0.001024f,
 +0.001545f,
 -0.002753f,
 +0.004905f,
 -0.000413f,
 +0.001757f,
 +0.000655f,
 -0.001773f,
 -0.006407f,
 -0.003310f,
 +0.000439f,
 -0.006410f,
 +0.001385f,
 +0.002963f,
 +0.004611f,
 +0.001288f,
 +0.002484f,
 -0.012810f,
 +0.017933f,
 +0.005746f,
 +0.003573f,
 -0.001107f,
 -0.001046f,
 +0.001645f,
 +0.007492f,
 +0.002047f,

 +0.002228f,
 +0.238486f,
 +0.122165f,
 -0.000854f,
 -0.186175f,
 +0.068256f,
 +0.028785f,
 -0.000224f,
 -0.004473f,
 -0.299445f,
 -0.009370f,
 +0.151407f,
 -0.004685f,
 -0.106168f,
 -0.004503f,
 -0.232466f,
 -0.003502f,
 -0.371128f,
 -0.001083f,
 -0.007614f,
 -0.012344f,
 -0.002119f,
 -0.004528f,
 +0.169923f,
 -0.140681f,
 +0.111517f,
 +0.001198f,
 +0.044599f,
 -0.070146f,
 -0.001141f,
 -0.035874f,
 -0.214699f,

 +0.005159f,
 -0.001324f,
 -0.011634f,
 -0.000604f,
 +0.001581f,
 +0.002444f,
 +0.013450f,
 -0.000534f,
 -0.001504f,
 -0.000941f,
 -0.000946f,
 +0.006986f,
 +0.011986f,
 +0.006583f,
 -0.007913f,
 +0.001063f,
 +0.003314f,
 +0.013242f,
 -0.002358f,
 +0.012269f,
 -0.001307f,
 -0.009590f,
 -0.003529f,
 +0.002160f,
 -0.005972f,
 +0.005672f,
 +0.006981f,
 +0.003319f,
 +0.009842f,
 +0.004800f,
 +0.016571f,
 -0.000853f,

 +0.002626f,
 -0.000441f,
 +0.006420f,
 +0.000556f,
 -0.000808f,
 +0.001874f,
 -0.002218f,
 +0.002276f,
 -0.004649f,
 -0.001195f,
 +0.005478f,
 +0.000924f,
 -0.000246f,
 +0.006541f,
 -0.001697f,
 +0.000179f,
 -0.001209f,
 -0.004617f,
 -0.001334f,
 +0.000894f,
 +0.000551f,
 +0.000553f,
 -0.002160f,
 +0.001633f,
 -0.004585f,
 +0.000178f,
 -0.000804f,
 -0.000303f,
 +0.001971f,
 -0.001623f,
 +0.001034f,
 +0.001228f,

 +0.002300f,
 -0.002469f,
 +0.001878f,
 +0.000485f,
 +0.001635f,
 -0.001521f,
 +0.011447f,
 -0.003384f,
 -0.009775f,
 -0.004805f,
 +0.009996f,
 +0.002750f,
 -0.001367f,
 -0.000695f,
 +0.011192f,
 +0.008518f,
 +0.000487f,
 -0.018681f,
 -0.002311f,
 -0.007160f,
 +0.002991f,
 +0.001248f,
 +0.001916f,
 -0.007418f,
 -0.003407f,
 -0.018512f,
 -0.000516f,
 +0.000022f,
 +0.006168f,
 +0.002487f,
 +0.012169f,
 +0.012779f,

 -0.001819f,
 +0.227433f,
 +0.656921f,
 -0.000343f,
 +0.004662f,
 -0.095166f,
 -0.131223f,
 +0.003212f,
 -0.332079f,
 +0.725649f,
 -0.040642f,
 +0.376074f,
 +0.000287f,
 -0.023536f,
 -0.012046f,
 -0.092284f,
 -0.002432f,
 +0.485396f,
 +0.000417f,
 +0.001912f,
 +0.004347f,
 -0.000250f,
 +0.002229f,
 +0.012501f,
 -0.114144f,
 +0.264886f,
 -0.002498f,
 -0.136660f,
 +0.030843f,
 +0.000863f,
 -0.139452f,
 +0.163625f,

 +0.005963f,
 -0.069867f,
 +0.256929f,
 +0.002321f,
 +1.123175f,
 +0.306647f,
 -0.162177f,
 -0.004622f,
 +0.086275f,
 -0.509247f,
 +0.045700f,
 +0.610681f,
 -0.368607f,
 -0.252319f,
 +0.015024f,
 -0.368346f,
 +0.000966f,
 -0.087125f,
 -0.005517f,
 +0.016114f,
 +0.000677f,
 -0.002085f,
 -0.004773f,
 -0.144625f,
 -0.132641f,
 +0.018673f,
 +0.004096f,
 -0.340890f,
 -0.142756f,
 +0.001853f,
 -0.226560f,
 -0.396854f,

 +0.000661f,
 -0.215021f,
 +0.193004f,
 +0.008923f,
 -0.328948f,
 -0.229560f,
 +0.553214f,
 -0.000129f,
 -0.911634f,
 -0.584199f,
 +0.221202f,
 -0.893361f,
 +0.230519f,
 -0.358562f,
 -0.013476f,
 +0.099488f,
 -0.002144f,
 -0.210174f,
 +0.002720f,
 +0.010276f,
 -0.002844f,
 -0.001027f,
 -0.002548f,
 -0.101329f,
 +0.377768f,
 -0.148411f,
 -0.004146f,
 +0.037846f,
 -0.068456f,
 +0.000818f,
 -0.363388f,
 -0.005928f,

 -0.000725f,
 -0.000766f,
 -0.003040f,
 -0.001567f,
 +0.000761f,
 -0.000953f,
 -0.009554f,
 -0.002403f,
 -0.006879f,
 -0.000524f,
 -0.004963f,
 -0.000569f,
 +0.001485f,
 -0.004656f,
 -0.002851f,
 -0.005749f,
 +0.000494f,
 +0.001754f,
 +0.000305f,
 -0.000435f,
 +0.002566f,
 +0.005442f,
 -0.001484f,
 +0.005050f,
 +0.003092f,
 +0.003006f,
 -0.000625f,
 +0.000415f,
 -0.000014f,
 -0.001594f,
 -0.003728f,
 -0.009747f,

 -0.001442f,
 -0.002900f,
 -0.005653f,
 -0.003164f,
 -0.000671f,
 +0.000522f,
 +0.000518f,
 -0.000146f,
 -0.000318f,
 +0.001568f,
 +0.000920f,
 -0.003714f,
 +0.006469f,
 -0.003890f,
 -0.002656f,
 -0.002552f,
 +0.000189f,
 +0.004637f,
 -0.001483f,
 +0.004230f,
 -0.001399f,
 +0.000637f,
 -0.000245f,
 +0.002277f,
 +0.002677f,
 +0.002315f,
 +0.003697f,
 +0.000080f,
 -0.003544f,
 -0.006033f,
 +0.002472f,
 -0.003064f,

 +0.000383f,
 -0.389266f,
 +0.190981f,
 -0.001892f,
 +0.179824f,
 +0.280981f,
 +0.103954f,
 -0.000262f,
 -0.425278f,
 +0.384517f,
 +0.012720f,
 +0.655271f,
 +0.018374f,
 -0.056229f,
 -0.002169f,
 +0.025683f,
 +0.004037f,
 +0.237704f,
 -0.001006f,
 -0.002507f,
 -0.001195f,
 -0.001461f,
 +0.000223f,
 -0.142558f,
 -0.005492f,
 +0.075254f,
 +0.000711f,
 -0.061570f,
 +0.060143f,
 -0.001946f,
 +0.011556f,
 +0.064906f,

 -0.001424f,
 +0.026431f,
 +0.047656f,
 +0.001397f,
 -0.094548f,
 +0.092428f,
 -0.183358f,
 -0.001639f,
 -0.312104f,
 -0.168077f,
 -0.028060f,
 +0.224627f,
 +0.347951f,
 -0.057250f,
 +0.019237f,
 -0.228334f,
 -0.006901f,
 +0.305743f,
 -0.002272f,
 -0.000748f,
 +0.004201f,
 +0.001387f,
 +0.002783f,
 +0.092498f,
 +0.077307f,
 -0.021062f,
 -0.001220f,
 +0.007785f,
 +0.158233f,
 -0.000756f,
 -0.071411f,
 +0.164701f,

 +0.003105f,
 +0.005190f,
 +0.005329f,
 +0.000866f,
 +0.002933f,
 +0.003744f,
 +0.002136f,
 +0.005121f,
 -0.005793f,
 +0.010569f,
 +0.001374f,
 +0.004002f,
 -0.000507f,
 -0.007315f,
 -0.009928f,
 -0.001388f,
 -0.003151f,
 +0.014048f,
 -0.000669f,
 -0.004437f,
 +0.002615f,
 -0.002741f,
 +0.000184f,
 -0.002477f,
 -0.001236f,
 -0.007572f,
 +0.005413f,
 -0.002954f,
 -0.000658f,
 +0.000443f,
 -0.013417f,
 -0.004278f,

 +0.008513f,
 +0.003898f,
 +0.001500f,
 -0.000029f,
 -0.001311f,
 -0.000632f,
 +0.000880f,
 +0.001513f,
 +0.000346f,
 -0.000939f,
 +0.003803f,
 -0.000834f,
 -0.000299f,
 +0.007151f,
 -0.000794f,
 +0.001840f,
 +0.003501f,
 -0.002485f,
 -0.002091f,
 -0.004708f,
 -0.002608f,
 +0.001075f,
 +0.002546f,
 +0.001625f,
 +0.007381f,
 -0.001624f,
 +0.000074f,
 -0.004122f,
 +0.002599f,
 +0.000206f,
 -0.002248f,
 +0.002607f,

 -0.003221f,
 +0.112525f,
 -0.309411f,
 +0.000890f,
 -0.290063f,
 +0.128424f,
 +0.094594f,
 -0.002712f,
 +0.000455f,
 +0.309198f,
 -0.001758f,
 -0.115556f,
 -0.243332f,
 +0.044140f,
 -0.013062f,
 +0.051877f,
 -0.004113f,
 -0.067729f,
 -0.001860f,
 +0.007142f,
 -0.001645f,
 +0.003531f,
 +0.000721f,
 +0.274286f,
 +0.042158f,
 +0.005087f,
 -0.003363f,
 +0.010695f,
 +0.019291f,
 -0.002851f,
 -0.056826f,
 +0.199308f,

};

const float CONV6_BN2_WEIGHT[] = 
{
//    (32,),
 +0.263647f, +0.748077f, -0.211316f, +0.626339f, +0.692752f, +0.129315f, +0.120779f, -0.158172f, +0.179490f, +0.810542f, +0.233302f, -0.819633f, +0.105573f, +0.415209f, +1.153553f, +0.277442f, -0.471069f, -0.454604f, -0.235425f, +0.602757f, +0.079765f, -0.004345f, +0.694811f, +0.542401f, +0.982280f, -0.293435f, +0.521492f, +0.224641f, +0.742652f, +0.760441f, +0.136698f, +0.688847f,
};

const float CONV6_BN2_BIAS[] = 
{
//    32,
 +0.195350f, -0.391773f, +0.901703f, -0.009422f, -0.002356f, -0.104304f, +0.239938f, -0.016934f, +0.533566f, +0.421742f, +0.557084f, -0.623281f, +0.363524f, -0.446764f, +0.004919f, +0.357665f, -0.223854f, -0.014910f, +0.220678f, -0.010896f, -0.006465f, -0.037366f, -0.651974f, -0.051644f, +1.330220f, -0.024522f, +0.001407f, +0.301401f, -0.188645f, -0.007400f, -0.007380f, +0.220780f,
};

const float CONV7_CONV1_WEIGHT[] = 
{
//    32, 1, 3, 3
 -0.191735f, -0.338248f, +0.125177f, -0.701493f, -0.293049f, -0.449543f, -0.344088f, -0.095145f, -0.194229f,

 -0.269901f, -0.186965f, +0.078253f, -0.274994f, -0.399553f, -0.137635f, -0.101795f, -0.367749f, -0.330943f,

 -0.524772f, +0.182144f, -0.427453f, +0.328043f, -0.438918f, -0.817823f, +0.728347f, -0.038989f, -0.253923f,

 +0.003329f, -0.005979f, -0.004348f, -0.003628f, -0.006560f, +0.006477f, -0.008225f, -0.004211f, +0.005520f,

 +0.104535f, +0.159703f, +0.640810f, +0.349333f, +0.433926f, -0.033615f, +0.216771f, -0.080447f, +0.003655f,

 -0.032247f, -0.049271f, +0.007319f, +0.058349f, +0.000929f, -0.041993f, +0.067534f, +0.086450f, +0.007777f,

 +0.408542f, +0.216003f, -0.180683f, +0.107915f, +0.579620f, +0.340279f, -0.405219f, +0.100636f, -0.259550f,

 -0.006370f, +0.000613f, +0.009889f, -0.006250f, +0.002948f, +0.007793f, +0.004134f, -0.001468f, +0.000768f,

 +0.625136f, +0.206237f, +0.160512f, -0.055493f, +0.159728f, +0.041549f, +0.111761f, +0.302793f, +0.317865f,

 -0.284994f, -0.158872f, -0.256091f, -0.179919f, -0.251296f, -0.094451f, -0.065027f, +0.003490f, -0.095255f,

 -0.238879f, -0.150015f, +0.303016f, -0.346555f, -0.192398f, -0.537561f, -0.093952f, -0.455371f, -0.280885f,

 +0.123065f, +0.442625f, -0.100750f, +0.074759f, +0.513142f, +0.260534f, +0.210331f, +0.249364f, +0.716792f,

 +0.144278f, +0.293769f, +0.181013f, +0.212695f, +0.307006f, -0.068057f, +0.030963f, +0.572477f, +0.404153f,

 +0.048258f, -0.114427f, +0.165578f, +0.896980f, +0.687032f, +0.160472f, -0.172760f, -0.027471f, -0.697559f,

 -0.003698f, -0.004834f, -0.001988f, -0.002022f, +0.000372f, +0.001200f, +0.000445f, +0.001289f, +0.003023f,

 -0.007345f, -0.119259f, +0.475457f, +0.229287f, +0.375437f, +0.620453f, +0.555889f, +0.174567f, +0.069026f,

 +0.265729f, +0.529286f, +0.086462f, +0.014523f, +0.065190f, -0.642684f, -0.219750f, -0.617347f, -0.345101f,

 -0.006016f, -0.004829f, -0.004875f, -0.001272f, +0.009851f, -0.000642f, +0.002150f, +0.014987f, +0.006217f,

 -0.214515f, +0.280106f, -0.229638f, +0.403043f, +0.155108f, -0.160337f, -0.253268f, +0.087275f, -0.021375f,

 +0.019963f, +0.005669f, -0.001165f, +0.008950f, -0.005185f, +0.007118f, +0.016320f, +0.006193f, +0.009534f,

 -0.003576f, +0.000526f, +0.005583f, +0.002533f, -0.002418f, -0.000120f, +0.000212f, +0.003173f, +0.006356f,

 -0.014124f, +0.008364f, -0.016244f, -0.000611f, +0.029006f, -0.000883f, -0.012036f, +0.003715f, +0.007067f,

 +0.317113f, +0.685387f, -0.041916f, +0.228785f, +0.303836f, +0.391679f, -0.192525f, +0.262713f, -0.060528f,

 +0.088747f, -0.132191f, +0.192185f, -0.628368f, -0.707180f, -0.142360f, -0.584095f, -0.373049f, -0.133610f,

 -0.027314f, +0.811295f, +0.309195f, -0.039504f, +0.750876f, -0.142326f, -0.086163f, -0.155502f, +0.357103f,

 -0.001279f, +0.003375f, +0.006757f, -0.002322f, -0.001470f, +0.005136f, +0.006986f, +0.003674f, +0.004794f,

 -0.000086f, +0.001342f, -0.002474f, -0.004955f, +0.000764f, -0.002147f, -0.002606f, -0.000135f, -0.003788f,

 +0.039122f, -0.267821f, +0.113530f, -0.157420f, -0.398655f, +0.057862f, -0.225211f, -0.481406f, -0.057444f,

 -0.122039f, +0.344907f, -0.033842f, -0.181883f, +0.049323f, -0.167284f, -0.255077f, -0.196428f, +0.192658f,

 -0.000550f, -0.013581f, -0.011555f, +0.011670f, -0.010188f, -0.013166f, +0.006135f, -0.005603f, -0.005238f,

 +0.002661f, +0.004763f, +0.004340f, +0.001608f, -0.003285f, -0.000400f, +0.002286f, +0.002620f, -0.000604f,

 -0.075273f, -0.239709f, -0.174849f, -0.220651f, +0.042650f, +0.010768f, +0.322514f, -0.153182f, -0.344761f,

};

const float CONV7_BN1_WEIGHT[] = 
{
//    (32,),
 +1.428583f, +1.935566f, +2.784336f, +1.756292f, +1.059719f, +2733.931582f, +5.150885f, +539.653438f, +3.080901f, -2.593455f, +0.628474f, +0.827099f, +3.312169f, +1.182201f, +16.165568f, +0.972953f, -1.364360f, -11.266211f, +2.290518f, +3.357715f, +434.114303f, +2358.588291f, -1.188628f, -0.966739f, +0.774063f, +320.956995f, +35.050098f, +2.302441f, +3.114964f, +6.513998f, +810.406416f, +1.149203f,
};

const float CONV7_BN1_BIAS[] = 
{
//    32,
 +2.042808f, +1.228057f, +2.786425f, -0.010471f, +0.236049f, +0.259733f, -1.104570f, +0.006116f, -2.014646f, -0.139279f, +1.474068f, +0.056804f, -2.114554f, +0.055440f, -0.002465f, -0.806237f, -0.066677f, -0.008385f, +0.284219f, -0.013415f, -0.002472f, -0.001610f, +1.079626f, -0.744660f, -0.265094f, -0.001835f, -0.002447f, +2.184998f, +0.072803f, -0.008480f, +0.001003f, +0.033276f,
};

const float CONV7_CONV2_WEIGHT[] = 
{
//    48, 32, 1, 1
 -0.229505f,
 -0.073081f,
 +0.143165f,
 -0.002067f,
 +0.128067f,
 +0.047019f,
 +0.312220f,
 +0.002679f,
 -0.199399f,
 -0.292823f,
 -0.326855f,
 +0.379782f,
 +0.242361f,
 +0.489949f,
 +0.001974f,
 -0.113796f,
 -0.062535f,
 +0.006461f,
 -0.037427f,
 -0.003176f,
 -0.000516f,
 -0.006911f,
 -0.286745f,
 -0.091658f,
 -0.625466f,
 -0.002682f,
 -0.000692f,
 -0.016846f,
 -0.190083f,
 +0.006230f,
 -0.001433f,
 -0.081219f,

 -0.002715f,
 +0.000511f,
 -0.001370f,
 -0.002459f,
 -0.002307f,
 -0.000080f,
 -0.001061f,
 +0.000287f,
 -0.003018f,
 -0.003092f,
 -0.002582f,
 -0.003378f,
 -0.000360f,
 -0.003008f,
 -0.003717f,
 -0.004276f,
 -0.001339f,
 -0.000400f,
 -0.002264f,
 +0.000904f,
 -0.001125f,
 -0.001083f,
 -0.002389f,
 -0.000371f,
 +0.004063f,
 +0.002286f,
 +0.000750f,
 +0.001225f,
 -0.001184f,
 +0.001037f,
 +0.005392f,
 +0.001679f,

 -0.002747f,
 +0.022971f,
 +0.006527f,
 +0.000358f,
 -0.001743f,
 +0.007968f,
 +0.007221f,
 +0.003877f,
 +0.009707f,
 +0.000309f,
 -0.006214f,
 -0.006318f,
 +0.002471f,
 -0.000912f,
 -0.005355f,
 -0.002736f,
 +0.001999f,
 -0.000444f,
 +0.005769f,
 -0.000236f,
 -0.001263f,
 +0.005039f,
 -0.004841f,
 -0.004942f,
 +0.002193f,
 -0.002555f,
 -0.000100f,
 -0.002103f,
 +0.000107f,
 -0.003636f,
 +0.003509f,
 +0.003744f,

 +0.000096f,
 +0.006038f,
 -0.000767f,
 -0.002178f,
 -0.000700f,
 -0.001978f,
 +0.001795f,
 +0.002503f,
 +0.001319f,
 -0.002583f,
 +0.000387f,
 -0.003159f,
 -0.001253f,
 +0.003051f,
 +0.000643f,
 -0.000406f,
 +0.000399f,
 -0.000848f,
 -0.001037f,
 -0.001175f,
 -0.002713f,
 +0.004008f,
 -0.000192f,
 +0.000915f,
 +0.000203f,
 -0.001829f,
 -0.000741f,
 +0.000032f,
 -0.000692f,
 -0.000024f,
 +0.000830f,
 -0.000898f,

 -0.099768f,
 -0.006953f,
 +0.042328f,
 -0.003762f,
 +0.033341f,
 +0.019443f,
 +0.025395f,
 +0.003817f,
 +0.001734f,
 +0.007164f,
 -0.015842f,
 -0.017550f,
 +0.051031f,
 +0.046440f,
 -0.000373f,
 -0.026583f,
 +0.040780f,
 -0.000973f,
 +0.010990f,
 +0.003947f,
 +0.000060f,
 +0.003254f,
 -0.057405f,
 -0.030386f,
 -0.068585f,
 +0.001486f,
 +0.001596f,
 -0.050049f,
 +0.019381f,
 -0.001107f,
 -0.001893f,
 +0.008701f,

 +0.002925f,
 -0.000871f,
 +0.016675f,
 -0.000475f,
 -0.002217f,
 -0.010763f,
 -0.012863f,
 +0.001184f,
 -0.009169f,
 -0.006275f,
 +0.003443f,
 -0.008742f,
 -0.004311f,
 +0.005808f,
 +0.003496f,
 -0.011233f,
 +0.010362f,
 +0.004368f,
 +0.033337f,
 -0.004740f,
 -0.001046f,
 -0.017513f,
 +0.001272f,
 -0.003523f,
 -0.000822f,
 +0.000280f,
 +0.001840f,
 -0.004402f,
 +0.001224f,
 +0.010944f,
 +0.004284f,
 +0.012450f,

 -0.224046f,
 -0.519606f,
 +0.269569f,
 +0.004424f,
 +0.057882f,
 +0.031033f,
 -0.223864f,
 -0.001907f,
 +0.097123f,
 +0.149826f,
 -0.003444f,
 +0.205680f,
 +0.266811f,
 +0.025929f,
 -0.005044f,
 -0.085921f,
 +0.176968f,
 -0.012942f,
 +0.038774f,
 -0.004666f,
 +0.003551f,
 +0.005324f,
 -0.502415f,
 -0.084272f,
 -0.128009f,
 -0.000657f,
 +0.000863f,
 -0.323682f,
 +0.070594f,
 -0.004305f,
 -0.000296f,
 +0.083897f,

 +0.000904f,
 -0.003121f,
 -0.000222f,
 -0.001596f,
 -0.000875f,
 +0.001882f,
 -0.003171f,
 -0.000114f,
 -0.001556f,
 -0.000634f,
 -0.001230f,
 +0.003645f,
 -0.002214f,
 -0.004409f,
 -0.001995f,
 +0.003751f,
 -0.001407f,
 +0.000276f,
 -0.000454f,
 +0.000069f,
 +0.002889f,
 +0.002269f,
 +0.001216f,
 +0.000448f,
 -0.000611f,
 -0.000634f,
 +0.000717f,
 -0.001984f,
 +0.003627f,
 -0.002412f,
 +0.000324f,
 -0.001325f,

 +0.495061f,
 +0.228479f,
 -0.037186f,
 +0.002144f,
 -0.306096f,
 +0.016727f,
 +0.108155f,
 +0.003282f,
 -0.067023f,
 +0.019545f,
 +0.103794f,
 -0.049219f,
 -0.533737f,
 -0.235228f,
 +0.003616f,
 -0.355685f,
 -0.256451f,
 -0.000439f,
 -0.019874f,
 -0.006822f,
 +0.000100f,
 -0.001011f,
 +0.228133f,
 +0.379170f,
 +0.047275f,
 -0.001140f,
 +0.001341f,
 -0.020824f,
 +0.131231f,
 +0.004417f,
 -0.000510f,
 -0.075861f,

 +0.003861f,
 -0.324173f,
 -0.164935f,
 -0.006735f,
 +0.331399f,
 -0.010960f,
 +0.401713f,
 -0.002893f,
 +0.043543f,
 +0.127967f,
 +0.065360f,
 +0.812549f,
 +0.309877f,
 +0.315762f,
 +0.000366f,
 +0.144232f,
 -0.127541f,
 -0.000732f,
 -0.003439f,
 -0.004425f,
 +0.001198f,
 +0.000910f,
 -0.222108f,
 +0.627439f,
 -0.231279f,
 -0.000502f,
 -0.000968f,
 -0.697054f,
 +0.062669f,
 +0.004568f,
 -0.000285f,
 -0.157126f,

 +0.432691f,
 +0.670796f,
 -0.160376f,
 -0.001787f,
 -0.033559f,
 -0.049756f,
 +0.042344f,
 +0.000008f,
 +0.456980f,
 -0.282751f,
 +0.153051f,
 +0.072399f,
 +0.579368f,
 -0.396787f,
 +0.001749f,
 +0.030539f,
 -0.093563f,
 -0.001918f,
 -0.337546f,
 +0.001056f,
 -0.000737f,
 -0.002839f,
 +0.103858f,
 -0.405819f,
 -0.056080f,
 -0.002659f,
 -0.000157f,
 +0.391127f,
 +0.251413f,
 -0.002103f,
 -0.002492f,
 -0.198683f,

 -0.007339f,
 -0.005323f,
 +0.000064f,
 +0.005702f,
 +0.002995f,
 -0.005045f,
 +0.011590f,
 -0.001881f,
 -0.007767f,
 -0.007307f,
 -0.003196f,
 -0.005962f,
 +0.010705f,
 +0.027756f,
 +0.000591f,
 +0.019627f,
 +0.005495f,
 +0.006021f,
 -0.017403f,
 +0.002701f,
 -0.002216f,
 -0.001637f,
 +0.002920f,
 +0.001129f,
 +0.001660f,
 -0.003537f,
 -0.000335f,
 -0.007381f,
 -0.006018f,
 -0.004657f,
 -0.000806f,
 +0.000543f,

 -0.501126f,
 +0.399226f,
 -0.140657f,
 -0.002264f,
 +0.068429f,
 -0.042472f,
 +0.334883f,
 -0.001000f,
 +0.395044f,
 +0.135434f,
 -0.899378f,
 +0.037934f,
 +0.402763f,
 +0.190811f,
 -0.000937f,
 +0.415721f,
 -0.103347f,
 -0.004170f,
 +0.044053f,
 -0.012696f,
 -0.000083f,
 -0.010807f,
 -0.286345f,
 -0.290963f,
 -0.324274f,
 +0.002798f,
 -0.001494f,
 +0.460254f,
 -0.031420f,
 +0.002118f,
 +0.000454f,
 -0.262892f,

 -0.295140f,
 -0.101799f,
 +0.156937f,
 -0.005212f,
 +0.180604f,
 +0.008517f,
 +0.202775f,
 -0.004303f,
 -0.185258f,
 -0.094587f,
 -0.098569f,
 -0.026817f,
 +0.313395f,
 +0.034732f,
 +0.000400f,
 +0.051235f,
 +0.165215f,
 -0.003645f,
 -0.111565f,
 +0.002051f,
 +0.002571f,
 -0.012165f,
 -0.139259f,
 -0.321645f,
 +0.348707f,
 -0.000210f,
 -0.002229f,
 +0.209168f,
 -0.092572f,
 +0.002875f,
 -0.001644f,
 -0.026016f,

 +0.011260f,
 +0.003789f,
 -0.002783f,
 +0.008035f,
 +0.002362f,
 -0.003550f,
 -0.004291f,
 +0.000244f,
 +0.000348f,
 -0.007202f,
 +0.008077f,
 +0.005900f,
 +0.003330f,
 -0.005783f,
 +0.001848f,
 -0.004770f,
 +0.007892f,
 +0.000518f,
 -0.002186f,
 +0.005843f,
 +0.004997f,
 +0.014328f,
 +0.003341f,
 -0.000968f,
 +0.014677f,
 -0.001455f,
 +0.000591f,
 -0.001681f,
 -0.002440f,
 +0.002593f,
 -0.001092f,
 -0.000733f,

 +0.002546f,
 +0.015948f,
 -0.003111f,
 -0.003605f,
 +0.001173f,
 +0.002935f,
 +0.000464f,
 -0.000766f,
 +0.000021f,
 +0.008119f,
 -0.000582f,
 +0.003762f,
 -0.001703f,
 -0.005002f,
 +0.001363f,
 -0.003963f,
 +0.004271f,
 +0.000124f,
 -0.004248f,
 -0.007934f,
 -0.001005f,
 -0.014241f,
 -0.006256f,
 +0.005653f,
 -0.010558f,
 +0.002631f,
 +0.001233f,
 -0.000744f,
 -0.001739f,
 -0.005238f,
 -0.000774f,
 +0.007282f,

 +0.000149f,
 -0.012049f,
 -0.000443f,
 +0.000496f,
 +0.003756f,
 -0.004318f,
 -0.001574f,
 -0.000681f,
 -0.000864f,
 -0.003950f,
 +0.000617f,
 +0.012453f,
 +0.012350f,
 +0.012998f,
 -0.001375f,
 +0.006496f,
 -0.002593f,
 +0.005826f,
 -0.008283f,
 -0.003534f,
 -0.000048f,
 -0.000383f,
 -0.002036f,
 -0.003293f,
 +0.010322f,
 -0.000332f,
 -0.000812f,
 -0.003878f,
 +0.006067f,
 -0.006715f,
 +0.000877f,
 -0.005187f,

 +0.007069f,
 -0.002548f,
 +0.003171f,
 +0.003753f,
 +0.017554f,
 +0.003699f,
 -0.016399f,
 +0.000320f,
 -0.000489f,
 +0.009243f,
 +0.006032f,
 -0.018042f,
 -0.006517f,
 -0.001081f,
 +0.001891f,
 +0.004922f,
 -0.002342f,
 -0.002252f,
 +0.013644f,
 -0.000197f,
 +0.001185f,
 -0.004946f,
 -0.000572f,
 -0.003535f,
 +0.011886f,
 +0.000076f,
 +0.000764f,
 -0.007915f,
 +0.010266f,
 -0.002223f,
 +0.001340f,
 -0.005958f,

 +0.751453f,
 -0.139806f,
 +0.455213f,
 -0.001682f,
 +0.143899f,
 +0.000196f,
 +0.073307f,
 -0.000848f,
 -0.148780f,
 -0.025984f,
 -0.197188f,
 -0.260478f,
 -0.664887f,
 -0.067364f,
 -0.001721f,
 -0.134234f,
 +0.040674f,
 -0.005316f,
 -0.103333f,
 -0.002033f,
 -0.002102f,
 -0.004871f,
 +0.281589f,
 +0.285320f,
 +0.205949f,
 -0.005716f,
 -0.001580f,
 +0.006661f,
 +0.126742f,
 +0.001291f,
 -0.001955f,
 -0.156901f,

 +0.350180f,
 -0.016775f,
 -0.346335f,
 -0.000829f,
 -0.079230f,
 -0.010023f,
 -0.406324f,
 -0.001948f,
 +0.223284f,
 +0.075167f,
 +0.503826f,
 -0.147918f,
 -0.329735f,
 +0.008242f,
 -0.001262f,
 -0.237429f,
 -0.263437f,
 -0.003308f,
 +0.195071f,
 +0.000560f,
 -0.000510f,
 +0.005419f,
 +0.425966f,
 +0.310421f,
 +0.429631f,
 +0.000696f,
 +0.000121f,
 +0.176970f,
 -0.040443f,
 -0.000805f,
 -0.000836f,
 -0.075853f,

 +0.005386f,
 -0.013831f,
 +0.000884f,
 -0.000783f,
 +0.059676f,
 +0.019525f,
 -0.083168f,
 -0.001326f,
 +0.017751f,
 -0.014458f,
 +0.035453f,
 +0.058016f,
 +0.040436f,
 -0.036495f,
 -0.000935f,
 +0.052171f,
 +0.053896f,
 +0.009172f,
 -0.025541f,
 -0.010025f,
 +0.001123f,
 -0.004200f,
 +0.016185f,
 -0.031121f,
 +0.065207f,
 +0.002150f,
 -0.000141f,
 -0.009247f,
 -0.009752f,
 +0.012734f,
 -0.001255f,
 -0.028229f,

 -0.523014f,
 +0.039238f,
 +0.320614f,
 +0.003111f,
 +0.305792f,
 +0.047513f,
 +0.209089f,
 +0.000259f,
 +0.011135f,
 +0.080877f,
 -0.026949f,
 +0.064443f,
 +0.367395f,
 +0.176897f,
 +0.000951f,
 +0.032557f,
 -0.109755f,
 +0.006672f,
 +0.249445f,
 -0.007031f,
 -0.002610f,
 -0.002867f,
 -0.216758f,
 +0.030408f,
 -0.285827f,
 -0.001892f,
 +0.001177f,
 -0.262124f,
 -0.118824f,
 -0.000555f,
 +0.002067f,
 -0.053113f,

 -0.229804f,
 -0.108406f,
 -0.757167f,
 +0.000211f,
 +0.361778f,
 -0.029077f,
 -0.252638f,
 +0.001587f,
 +0.589641f,
 -0.036346f,
 +0.296714f,
 -0.135569f,
 +0.247806f,
 +0.073379f,
 +0.001093f,
 +0.851617f,
 +0.311089f,
 -0.003190f,
 -0.074336f,
 +0.010044f,
 +0.002952f,
 +0.017903f,
 +0.026498f,
 -0.529036f,
 +0.384158f,
 +0.001096f,
 +0.001395f,
 +0.134180f,
 +0.062865f,
 -0.002725f,
 +0.001668f,
 -0.012644f,

 +0.000662f,
 -0.000030f,
 +0.005123f,
 -0.000397f,
 +0.004042f,
 +0.002139f,
 -0.000153f,
 -0.000882f,
 +0.005258f,
 -0.000618f,
 +0.003325f,
 -0.001559f,
 +0.000375f,
 +0.001796f,
 +0.001305f,
 -0.000502f,
 -0.002099f,
 -0.000606f,
 -0.000481f,
 +0.001405f,
 +0.000667f,
 +0.001105f,
 +0.001064f,
 +0.000805f,
 -0.000028f,
 -0.001899f,
 -0.000519f,
 -0.000762f,
 +0.000506f,
 +0.000636f,
 -0.001386f,
 +0.003799f,

 -0.134957f,
 +0.004795f,
 +0.438866f,
 -0.001459f,
 -0.338989f,
 +0.010196f,
 -0.027165f,
 -0.004169f,
 -0.464743f,
 -0.049619f,
 -0.053543f,
 +0.488143f,
 +0.084130f,
 -0.083769f,
 -0.000172f,
 +0.097463f,
 -0.108331f,
 +0.007620f,
 -0.146342f,
 +0.005244f,
 +0.000279f,
 -0.017038f,
 -0.233487f,
 +0.463598f,
 -0.369326f,
 -0.000639f,
 -0.002963f,
 -0.353331f,
 -0.035054f,
 -0.000503f,
 +0.004608f,
 +0.284361f,

 -0.000776f,
 -0.001578f,
 +0.005299f,
 -0.000913f,
 +0.003522f,
 -0.019922f,
 +0.011204f,
 +0.001525f,
 -0.002278f,
 +0.000732f,
 +0.006980f,
 -0.020103f,
 +0.005893f,
 +0.006116f,
 +0.000765f,
 +0.007734f,
 +0.004241f,
 -0.003237f,
 -0.018401f,
 -0.009739f,
 -0.000678f,
 -0.013727f,
 -0.000621f,
 +0.008213f,
 -0.005588f,
 -0.000790f,
 +0.000903f,
 +0.003258f,
 -0.001398f,
 -0.017550f,
 +0.003454f,
 -0.004085f,

 +0.054358f,
 -0.324385f,
 +0.424429f,
 +0.008691f,
 +0.672202f,
 +0.016776f,
 +0.090108f,
 +0.007625f,
 -0.411133f,
 -0.079657f,
 +0.007876f,
 -0.505587f,
 -0.006349f,
 +0.413274f,
 -0.000212f,
 +0.078526f,
 +0.618445f,
 -0.003327f,
 +0.043417f,
 +0.001232f,
 +0.000966f,
 +0.006979f,
 -0.345008f,
 -0.055830f,
 -0.060915f,
 +0.000019f,
 -0.000550f,
 -0.200321f,
 -0.294873f,
 +0.010972f,
 +0.001150f,
 +0.012869f,

 +0.597853f,
 +0.160250f,
 -0.024804f,
 -0.002496f,
 -0.138302f,
 +0.019242f,
 -0.074620f,
 +0.000279f,
 +0.245389f,
 +0.042378f,
 -0.026175f,
 +0.205790f,
 -0.336940f,
 -0.048803f,
 -0.002699f,
 -0.305606f,
 +0.086730f,
 -0.006706f,
 +0.061469f,
 +0.011794f,
 -0.000365f,
 -0.002643f,
 +0.202430f,
 +0.899678f,
 -0.072760f,
 -0.002775f,
 -0.000235f,
 -0.039257f,
 -0.111396f,
 -0.004253f,
 -0.000249f,
 +0.083325f,

 +0.007200f,
 -0.003452f,
 -0.003057f,
 -0.000621f,
 +0.001528f,
 +0.001734f,
 -0.004930f,
 +0.000539f,
 -0.003453f,
 -0.001284f,
 -0.001386f,
 +0.003700f,
 +0.002078f,
 -0.003342f,
 -0.002288f,
 -0.002601f,
 +0.000657f,
 -0.000363f,
 -0.001662f,
 -0.003858f,
 +0.000936f,
 -0.003369f,
 +0.000211f,
 -0.001025f,
 -0.004497f,
 -0.000314f,
 +0.001257f,
 +0.001063f,
 +0.001649f,
 +0.006423f,
 +0.003411f,
 -0.003230f,

 -0.215756f,
 -0.072947f,
 -0.168491f,
 -0.009084f,
 -0.227949f,
 -0.017289f,
 +0.429594f,
 -0.003160f,
 +0.068636f,
 -0.358059f,
 -0.196621f,
 -0.153137f,
 -0.233575f,
 +0.290900f,
 -0.000221f,
 +0.088900f,
 -0.349086f,
 -0.004654f,
 +0.181822f,
 +0.008991f,
 -0.000628f,
 -0.002586f,
 -0.193524f,
 -0.545558f,
 -0.260218f,
 -0.001798f,
 -0.003747f,
 +0.331311f,
 -0.121323f,
 -0.006656f,
 +0.000165f,
 -0.020910f,

 +0.256694f,
 -0.047755f,
 +0.313136f,
 +0.002500f,
 -0.009538f,
 -0.013573f,
 -0.214100f,
 +0.000037f,
 -0.386346f,
 +0.009041f,
 +0.271450f,
 -0.083500f,
 -0.263000f,
 +0.134907f,
 +0.001240f,
 -0.209460f,
 -0.133615f,
 -0.007037f,
 -0.078482f,
 +0.005659f,
 +0.001912f,
 +0.011893f,
 -0.167986f,
 +0.509338f,
 -0.113094f,
 +0.000123f,
 -0.000181f,
 -0.261194f,
 +0.093428f,
 -0.004354f,
 -0.001784f,
 -0.017292f,

 -0.618388f,
 +0.128957f,
 +0.364152f,
 -0.003387f,
 +0.503870f,
 -0.008377f,
 +0.096780f,
 +0.004778f,
 +0.451670f,
 -0.013968f,
 -0.125690f,
 +0.068758f,
 +0.282526f,
 +0.749838f,
 -0.001028f,
 -0.180206f,
 -0.635138f,
 -0.007026f,
 +0.275508f,
 -0.000472f,
 -0.001960f,
 +0.001650f,
 -0.406634f,
 -0.140154f,
 -0.707561f,
 -0.002694f,
 -0.000546f,
 -0.053122f,
 -0.202975f,
 +0.002043f,
 -0.000388f,
 +0.037959f,

 -0.292776f,
 +0.190678f,
 +0.167811f,
 +0.001056f,
 +0.092380f,
 +0.035854f,
 -0.070966f,
 -0.000186f,
 -0.265517f,
 +0.049480f,
 -0.302469f,
 +0.173781f,
 +0.132731f,
 +0.290149f,
 -0.000162f,
 +0.803588f,
 +0.034754f,
 -0.005827f,
 -0.136069f,
 -0.005733f,
 +0.001180f,
 +0.017389f,
 -0.126104f,
 -0.216357f,
 -0.057431f,
 +0.003685f,
 +0.000278f,
 -0.031510f,
 -0.008741f,
 +0.007780f,
 +0.002007f,
 +0.008196f,

 +0.068150f,
 +0.121156f,
 -0.279841f,
 -0.004470f,
 -0.166171f,
 -0.005002f,
 +0.136095f,
 +0.010175f,
 +0.033173f,
 -0.033397f,
 +0.014529f,
 +0.202620f,
 +0.097397f,
 +0.076100f,
 -0.001523f,
 -0.154625f,
 -0.069155f,
 -0.000037f,
 -0.245159f,
 -0.006254f,
 -0.000949f,
 -0.010110f,
 +0.073422f,
 +0.069825f,
 +0.219951f,
 +0.003668f,
 -0.000070f,
 +0.107752f,
 +0.033844f,
 -0.001363f,
 -0.000311f,
 -0.110231f,

 +0.285006f,
 -0.136526f,
 -0.260312f,
 +0.002348f,
 -0.074593f,
 -0.025735f,
 -0.085068f,
 -0.010203f,
 -0.334868f,
 -0.062849f,
 +0.010226f,
 -0.248401f,
 -0.235266f,
 -0.219636f,
 +0.001176f,
 -0.190602f,
 -0.005402f,
 +0.012256f,
 -0.062148f,
 +0.000543f,
 +0.002676f,
 +0.003541f,
 -0.013129f,
 -0.348187f,
 +0.635207f,
 -0.001267f,
 -0.001396f,
 +0.080973f,
 +0.009739f,
 +0.007403f,
 -0.000778f,
 -0.218490f,

 +0.210216f,
 -0.274412f,
 -0.262777f,
 +0.004312f,
 +0.359970f,
 +0.006552f,
 -0.027589f,
 +0.001054f,
 +0.300995f,
 -0.085457f,
 -0.033079f,
 -0.090706f,
 -0.408648f,
 +0.243473f,
 -0.000598f,
 +0.387543f,
 +0.714661f,
 +0.003863f,
 -0.135506f,
 +0.005998f,
 +0.002366f,
 -0.012660f,
 -0.697128f,
 -0.056853f,
 +0.142226f,
 +0.001484f,
 -0.001065f,
 +0.099787f,
 -0.066948f,
 -0.000753f,
 -0.003375f,
 +0.073111f,

 +0.001873f,
 -0.000789f,
 +0.000281f,
 +0.002435f,
 -0.004950f,
 +0.018567f,
 +0.002504f,
 -0.000792f,
 -0.001290f,
 -0.003973f,
 +0.011526f,
 -0.009382f,
 +0.006149f,
 -0.037182f,
 +0.001975f,
 +0.008021f,
 +0.024008f,
 +0.004012f,
 +0.008614f,
 +0.006822f,
 -0.000568f,
 -0.004625f,
 -0.008101f,
 -0.000050f,
 -0.007644f,
 -0.001092f,
 +0.000189f,
 -0.004612f,
 +0.009366f,
 -0.007274f,
 -0.000289f,
 -0.009503f,

 +0.418898f,
 -0.017106f,
 -0.238388f,
 -0.005076f,
 -0.279018f,
 -0.000408f,
 -0.123518f,
 -0.000501f,
 -0.004600f,
 -0.113659f,
 -0.395924f,
 +0.213585f,
 -0.162871f,
 -0.338935f,
 +0.001323f,
 -0.330454f,
 -0.126335f,
 +0.000817f,
 -0.139149f,
 +0.005291f,
 -0.003234f,
 +0.012519f,
 +0.288689f,
 +0.015874f,
 -0.588513f,
 +0.002887f,
 -0.001754f,
 +0.139828f,
 +0.026939f,
 +0.000651f,
 -0.005175f,
 +0.053467f,

 +0.218809f,
 +0.326698f,
 +0.245183f,
 -0.006220f,
 -0.199697f,
 -0.042026f,
 -0.031578f,
 +0.001317f,
 +0.190666f,
 -0.068902f,
 -0.164519f,
 +0.329221f,
 +0.151050f,
 -0.171227f,
 +0.001124f,
 -0.156962f,
 -0.473241f,
 +0.005228f,
 +0.019229f,
 +0.006871f,
 -0.000302f,
 +0.010124f,
 +0.113934f,
 +0.368416f,
 -0.406202f,
 +0.001756f,
 -0.002544f,
 +0.129792f,
 +0.032536f,
 -0.004455f,
 +0.000126f,
 +0.085030f,

 -0.034134f,
 -0.356506f,
 -0.130696f,
 -0.004422f,
 +0.232485f,
 +0.005860f,
 -0.423892f,
 +0.001156f,
 -0.013578f,
 -0.036939f,
 +0.175983f,
 -0.186683f,
 -0.337614f,
 -0.023895f,
 +0.001122f,
 -0.054031f,
 +0.171853f,
 +0.008272f,
 -0.023826f,
 +0.001291f,
 +0.002879f,
 +0.013503f,
 -0.196965f,
 +0.055691f,
 +0.348166f,
 -0.000780f,
 -0.000330f,
 -0.133008f,
 -0.237524f,
 +0.001127f,
 +0.003780f,
 +0.006374f,

 +0.024605f,
 -0.251295f,
 +0.320101f,
 +0.001328f,
 +0.203238f,
 +0.022221f,
 -0.396241f,
 -0.000486f,
 -0.127947f,
 +0.295643f,
 +0.290777f,
 +0.021378f,
 -0.072912f,
 -0.245944f,
 +0.000647f,
 +0.249251f,
 -0.118003f,
 +0.000426f,
 -0.191884f,
 -0.003261f,
 +0.004525f,
 +0.002634f,
 +0.104376f,
 +0.811805f,
 -0.536690f,
 -0.002933f,
 -0.000190f,
 -0.385837f,
 -0.188998f,
 -0.006593f,
 +0.001911f,
 +0.161290f,

 +0.216409f,
 -0.362744f,
 -0.139660f,
 +0.000452f,
 +0.298544f,
 -0.033160f,
 +0.063569f,
 -0.002345f,
 +0.036473f,
 +0.197782f,
 -0.067883f,
 -0.000398f,
 -0.227826f,
 +0.275340f,
 +0.000385f,
 +0.466808f,
 +0.352782f,
 +0.001040f,
 +0.056308f,
 +0.004100f,
 -0.000630f,
 -0.002744f,
 -0.198093f,
 -0.224668f,
 +0.331528f,
 +0.002871f,
 -0.000515f,
 -0.013881f,
 +0.078634f,
 +0.001777f,
 +0.003357f,
 +0.087217f,

 -0.000926f,
 +0.000970f,
 +0.000343f,
 +0.001294f,
 +0.000426f,
 +0.000093f,
 -0.001653f,
 -0.000115f,
 +0.001607f,
 -0.000608f,
 -0.005118f,
 -0.002600f,
 -0.000588f,
 -0.002228f,
 -0.003175f,
 -0.002364f,
 -0.003027f,
 -0.001973f,
 -0.001152f,
 +0.000600f,
 -0.000958f,
 -0.000547f,
 +0.005252f,
 -0.001020f,
 -0.001691f,
 +0.000283f,
 -0.000238f,
 +0.002228f,
 -0.002779f,
 -0.000642f,
 -0.000437f,
 +0.003233f,

 -0.218120f,
 -0.219470f,
 -0.225342f,
 +0.004622f,
 +0.310572f,
 +0.120665f,
 +0.422040f,
 +0.003149f,
 +0.215634f,
 -0.200089f,
 -0.477471f,
 +0.092950f,
 +0.423936f,
 +0.942814f,
 -0.001421f,
 -0.185605f,
 +0.593035f,
 -0.007307f,
 +0.280564f,
 +0.000763f,
 -0.000004f,
 -0.004639f,
 -0.273157f,
 -0.096442f,
 -0.090331f,
 -0.002922f,
 +0.002554f,
 -0.043236f,
 +0.167156f,
 +0.004978f,
 -0.000745f,
 +0.133902f,

 +0.136325f,
 +0.153153f,
 +0.219967f,
 +0.001459f,
 +0.189297f,
 -0.005070f,
 -0.600351f,
 -0.004206f,
 +0.089175f,
 -0.154224f,
 +0.092999f,
 -0.573955f,
 -0.002120f,
 -0.122002f,
 +0.003398f,
 +0.162249f,
 +0.193686f,
 +0.005622f,
 -0.055504f,
 -0.001321f,
 +0.000034f,
 +0.000189f,
 +0.115296f,
 +0.151815f,
 -0.087607f,
 +0.000682f,
 -0.002219f,
 -0.021318f,
 -0.200204f,
 -0.004365f,
 +0.001151f,
 -0.051788f,

 -0.358211f,
 +0.121289f,
 +0.899216f,
 -0.004831f,
 -0.089789f,
 +0.018194f,
 +0.073506f,
 +0.003411f,
 -0.226199f,
 -0.100011f,
 -0.055175f,
 +0.133592f,
 +0.055251f,
 -0.032330f,
 -0.000287f,
 -0.400272f,
 -0.148909f,
 -0.007427f,
 +0.220380f,
 +0.000402f,
 -0.001160f,
 +0.006635f,
 -0.134954f,
 -0.248766f,
 -0.078609f,
 -0.003906f,
 -0.002100f,
 +0.116622f,
 -0.060547f,
 -0.006043f,
 +0.001008f,
 +0.012376f,

 -0.213466f,
 -0.080639f,
 -0.127294f,
 -0.000763f,
 -0.033409f,
 +0.027954f,
 -0.045755f,
 -0.001187f,
 -0.178382f,
 -0.118732f,
 -0.276574f,
 +0.704392f,
 -0.079593f,
 +0.316342f,
 -0.000474f,
 -0.022384f,
 -0.117863f,
 -0.003223f,
 -0.062504f,
 -0.004615f,
 -0.000785f,
 -0.005260f,
 -0.124071f,
 +0.231389f,
 +0.157737f,
 +0.000296f,
 -0.003042f,
 +0.265395f,
 -0.024028f,
 -0.003004f,
 -0.001940f,
 +0.087996f,

 +0.509496f,
 -0.218334f,
 -0.155012f,
 -0.000974f,
 -0.106515f,
 +0.030219f,
 -0.137019f,
 +0.001799f,
 -0.057016f,
 -0.056956f,
 -0.300130f,
 +0.114383f,
 -0.166698f,
 -0.046607f,
 +0.002328f,
 -0.134977f,
 -0.179995f,
 -0.001035f,
 -0.007564f,
 -0.000641f,
 -0.000492f,
 -0.010158f,
 -0.130800f,
 +0.200436f,
 +0.172483f,
 +0.001909f,
 +0.002483f,
 -0.238255f,
 +0.084948f,
 +0.002911f,
 -0.000931f,
 +0.184113f,

};

const float CONV7_BN2_WEIGHT[] = 
{
//    (48,),
 +0.400263f, +0.755232f, +0.703844f, +1.708156f, +0.281947f, +0.823073f, +0.801296f, +0.063451f, +0.262648f, +0.586263f, +0.412819f, +0.484118f, +0.410501f, -0.309165f, +1.229973f, +0.006250f, -0.065101f, -0.527316f, -0.469433f, +0.582158f, -0.479647f, +0.419582f, +0.302582f, +1.146794f, -0.497171f, -1.007610f, +0.261414f, +1.170463f, +0.158299f, +0.643902f, +0.366311f, -0.581004f, +0.328902f, -0.526073f, +0.654159f, +0.234084f, +0.793659f, +0.507806f, -0.210570f, +0.440931f, +0.514133f, +0.284524f, +0.313355f, +0.439392f, -0.384965f, +0.827153f, +0.751815f, +0.346855f,
};

const float CONV7_BN2_BIAS[] = 
{
//    48,
 +0.713752f, +0.012458f, -0.007512f, -0.001910f, +0.150870f, -0.007395f, +0.463702f, -0.005000f, +0.185427f, -0.069770f, +0.108367f, -0.001711f, +0.478221f, +0.273874f, -0.021630f, -0.021606f, +0.018936f, +0.027252f, +0.710157f, -0.573025f, +0.167955f, +0.277484f, +0.612130f, -0.012089f, +0.079710f, +0.007263f, +0.524339f, -1.381523f, -0.006769f, +0.935772f, +0.115561f, +0.371453f, +0.434095f, +0.434639f, +0.442005f, +0.477230f, +0.007754f, +0.496853f, +0.554214f, +0.509195f, -0.481323f, +0.270040f, -0.003755f, -0.301467f, +0.331318f, +0.104511f, +0.137391f, -0.364829f,
};

const float CONV8_CONV1_WEIGHT[] = 
{
//    48, 1, 3, 3
 +0.002645f, -0.426978f, -0.543662f, +0.621243f, -0.205741f, -0.514681f, +0.583211f, +0.123567f, -0.056330f,

 +0.003607f, +0.002857f, -0.000318f, -0.000215f, +0.001407f, -0.002483f, +0.002472f, +0.002142f, +0.002479f,

 +0.001242f, -0.007521f, -0.006928f, +0.005090f, +0.007014f, +0.002352f, -0.017013f, -0.011905f, -0.015810f,

 +0.005094f, +0.002038f, +0.001402f, +0.000206f, +0.003022f, +0.003121f, +0.002030f, +0.000243f, +0.000582f,

 -0.046895f, -0.039189f, +0.001349f, +0.035717f, +0.072553f, +0.112631f, +0.096596f, +0.088348f, -0.069925f,

 +0.022100f, +0.007299f, +0.025828f, +0.019296f, +0.012271f, +0.007664f, +0.002977f, +0.002320f, -0.012734f,

 +0.041455f, +0.186802f, -0.326080f, -0.146693f, +0.409765f, -0.447004f, -0.087823f, -0.328071f, -0.268448f,

 +0.001954f, +0.000239f, +0.002231f, +0.003766f, +0.002454f, -0.000281f, +0.000291f, +0.001911f, -0.003548f,

 -0.040461f, -0.168336f, +0.297126f, +0.267751f, +0.088658f, +0.107285f, +0.386711f, +0.266967f, +0.309370f,

 -0.263351f, -0.645820f, -0.058665f, -0.363785f, -0.557993f, -0.060719f, -0.414684f, -0.127935f, +0.057256f,

 +0.649294f, +0.060538f, -0.312976f, +0.794243f, +0.362100f, -0.300640f, +0.213502f, +0.057959f, +0.038985f,

 +0.027349f, -0.017626f, +0.007122f, -0.022688f, +0.021194f, +0.015113f, -0.000052f, -0.008707f, -0.005922f,

 -0.304791f, +0.081366f, -0.896124f, +0.038096f, +0.952815f, +0.073102f, +0.092548f, +0.690612f, +0.215967f,

 +0.599871f, +0.127793f, -0.251812f, +0.250371f, +0.264758f, -0.014519f, +0.233806f, +0.024153f, -0.076969f,

 +0.014588f, +0.004363f, -0.013959f, -0.001149f, +0.000237f, -0.017124f, -0.002273f, -0.011668f, -0.016866f,

 -0.004225f, +0.007763f, +0.006244f, +0.005316f, +0.013093f, +0.009310f, -0.004106f, -0.009578f, -0.002819f,

 -0.008076f, -0.002774f, -0.022226f, +0.005149f, +0.011634f, +0.004973f, -0.007325f, -0.007746f, -0.005418f,

 +0.000342f, +0.025544f, -0.002680f, -0.002437f, +0.028430f, -0.003686f, +0.008295f, +0.012309f, -0.019359f,

 -0.285619f, -0.374340f, +0.016216f, -0.307547f, -0.235803f, -0.289198f, +0.143508f, -0.731564f, -0.115997f,

 -0.119257f, -0.258363f, -0.388592f, +0.124036f, -0.461380f, -0.368393f, +0.215720f, +0.916919f, +0.372570f,

 +0.026875f, +0.034118f, +0.063568f, -0.075786f, -0.082113f, -0.088832f, -0.019493f, +0.021898f, -0.045650f,

 +0.042868f, -0.153966f, +0.465024f, -0.135923f, -0.309506f, +0.646934f, -0.175578f, +0.002322f, +0.355983f,

 +0.273200f, -0.591465f, -0.216959f, +0.394012f, -0.454213f, -0.832700f, +1.042374f, +0.627463f, -0.200618f,

 +0.001139f, +0.006099f, +0.001375f, -0.004094f, +0.002137f, +0.000473f, +0.002488f, +0.001012f, -0.000951f,

 +0.263542f, -0.684917f, -0.377752f, +0.238787f, -0.497975f, +0.008430f, +0.550865f, -0.226888f, +0.139520f,

 -0.013753f, +0.015106f, +0.007204f, -0.019685f, +0.000777f, -0.003163f, -0.004550f, +0.016503f, +0.008519f,

 +0.222891f, -0.245130f, -0.497500f, +0.015707f, -0.395604f, -0.719767f, -0.139025f, -0.366202f, +0.107027f,

 -0.187341f, +0.335406f, -0.055739f, +0.765011f, +0.292810f, -0.180262f, +0.697782f, +0.966550f, +0.097451f,

 -0.002621f, +0.000020f, +0.005323f, -0.003953f, -0.000095f, +0.001274f, +0.002250f, +0.002841f, -0.006576f,

 +0.839910f, +0.117125f, -0.077186f, +0.233405f, -0.264581f, -0.478265f, +0.200845f, -0.130923f, -0.146608f,

 -0.457139f, -0.315089f, -0.458682f, +0.049445f, +0.395863f, +0.147366f, -0.082099f, +0.455242f, -0.221182f,

 -0.612270f, +0.280083f, -0.306245f, +0.406948f, +0.809323f, -0.708557f, +0.171164f, -0.212642f, -1.271906f,

 -0.111760f, +0.507593f, +0.614661f, -0.032230f, -0.057720f, -0.158566f, +0.304213f, +0.027100f, +0.450877f,

 +0.132234f, -0.376390f, -0.112785f, -0.077686f, +0.023277f, -0.076291f, -0.154848f, -0.140907f, -0.049041f,

 +0.245858f, +0.185808f, -0.015510f, +0.443459f, +0.391922f, -0.354996f, -0.379761f, -0.718924f, -0.354193f,

 -0.292160f, -0.217661f, +0.372043f, +0.225336f, +0.710383f, +0.569015f, +0.215970f, +0.135192f, +0.040704f,

 +0.005935f, +0.004665f, +0.016833f, -0.011406f, -0.020410f, -0.006354f, +0.011683f, +0.032870f, +0.022602f,

 +0.446520f, +0.067496f, -0.088388f, -0.106484f, -0.203513f, -0.371369f, -0.419123f, +0.043674f, -0.177889f,

 +0.053579f, -0.135751f, -0.160317f, -0.532011f, -0.268749f, -0.128189f, -0.264773f, -0.325265f, -0.294137f,

 -0.027860f, +0.100612f, -0.225574f, -0.224771f, -0.263800f, -0.073676f, -0.283808f, -0.191143f, -0.370085f,

 -0.690667f, -1.057844f, -0.092306f, -0.525840f, +0.168062f, +0.578772f, +0.094836f, +0.080355f, +0.392832f,

 -0.097800f, -0.263516f, +0.181914f, -0.194320f, -0.392992f, -0.043717f, +0.427586f, -0.332312f, -0.277144f,

 +0.002457f, -0.001564f, +0.000162f, +0.002614f, -0.000236f, +0.001342f, +0.003335f, +0.003964f, -0.002544f,

 -0.008571f, +1.399119f, +0.439997f, +0.180864f, +0.552377f, +0.585219f, -0.113604f, -0.066869f, -0.429884f,

 +0.057802f, -0.090545f, -0.464489f, +0.758116f, -0.014460f, -0.128942f, +0.076472f, +0.494826f, +0.119614f,

 +0.217273f, +0.295431f, +0.726859f, +0.559027f, -0.093318f, +0.038888f, -0.135155f, -0.114157f, +0.022855f,

 -0.225434f, -0.278571f, +0.072006f, -0.063205f, -0.418189f, +0.544001f, -0.376671f, +0.234552f, +0.257342f,

 +0.458845f, +0.039316f, -0.311561f, +0.121217f, -0.088843f, -0.199884f, +0.128670f, +0.201513f, +0.044378f,

};

const float CONV8_BN1_WEIGHT[] = 
{
//    (48,),
 +0.810932f, +40.721896f, +13.259507f, +4.572105f, -2.455221f, -0.322288f, +2.462127f, +269.194937f, +0.362759f, +0.823980f, +1.301136f, +4.762101f, +1.086738f, +1.951092f, +9.634018f, +1600.839204f, +7.336724f, -1.986638f, +1.018667f, +2.023683f, +13.073727f, -0.217643f, +1.244781f, +1.852239f, +1.289681f, -1.490530f, +1.514559f, +0.542431f, +469.099321f, -1.378414f, +2.079502f, +0.798524f, +1.519313f, +3.800223f, +1.991283f, +2.232734f, +2.308723f, +2.572436f, +1.667241f, +2.529972f, +1.992587f, +3.093236f, +258.765137f, +0.769541f, +2.167088f, -1.781872f, +1.208442f, +181.922819f,
};

const float CONV8_BN1_BIAS[] = 
{
//    48,
 +0.830841f, -0.005559f, -0.008860f, -0.002825f, -0.020642f, -0.013806f, +0.566431f, -0.001203f, -0.392731f, +1.705545f, -0.505626f, -0.018504f, +0.368161f, -0.327214f, -0.013301f, -0.000567f, -0.003020f, -0.004480f, +1.278577f, -0.086516f, +0.218579f, +0.118896f, +0.408632f, -0.001483f, +1.141437f, -0.003113f, +2.342055f, -0.231348f, -0.001494f, +0.389387f, +0.170726f, +0.954507f, -0.623643f, +0.901431f, +0.276916f, -1.707856f, -0.009956f, +1.102637f, +2.369692f, +1.371767f, +0.341121f, +1.471143f, -0.002272f, +0.052314f, -0.241121f, +1.121873f, +0.847627f, +0.612005f,
};

const float CONV8_CONV2_WEIGHT[] = 
{
//    48, 48, 1, 1
 -0.348304f,
 +0.000171f,
 +0.003690f,
 +0.000547f,
 -0.045470f,
 -0.011342f,
 +0.182951f,
 -0.000866f,
 +0.220100f,
 +0.217666f,
 +0.573468f,
 -0.007693f,
 +0.238952f,
 -0.087041f,
 +0.006156f,
 +0.007337f,
 +0.000903f,
 -0.002130f,
 -0.269531f,
 +0.207876f,
 -0.024807f,
 -0.062086f,
 -0.119700f,
 -0.001628f,
 +0.124393f,
 -0.002389f,
 +0.701392f,
 -0.052219f,
 -0.000223f,
 +0.030561f,
 -0.392080f,
 -0.220106f,
 +0.041059f,
 +0.136965f,
 -0.254687f,
 -0.170457f,
 -0.004868f,
 -0.033694f,
 -0.182633f,
 +0.006719f,
 +0.139375f,
 +0.097684f,
 +0.003041f,
 -0.005032f,
 +0.102840f,
 -0.198526f,
 +0.158157f,
 -0.080716f,

 +0.441927f,
 -0.001968f,
 +0.006130f,
 -0.001076f,
 -0.038652f,
 +0.001505f,
 -0.073799f,
 -0.003160f,
 +0.128620f,
 -0.489734f,
 +0.030471f,
 -0.002243f,
 +0.087837f,
 +0.036851f,
 -0.001801f,
 +0.005994f,
 -0.002624f,
 -0.001403f,
 -0.176254f,
 -0.009005f,
 +0.042759f,
 -0.169007f,
 -0.183054f,
 -0.000965f,
 +0.076463f,
 -0.006042f,
 +0.013701f,
 +0.106003f,
 +0.000506f,
 +0.155325f,
 +0.379074f,
 -0.060795f,
 +0.082782f,
 -0.032370f,
 +0.180621f,
 -0.253385f,
 -0.004088f,
 -0.153120f,
 +0.173100f,
 -0.001157f,
 +0.218862f,
 +0.145148f,
 +0.000054f,
 +0.380298f,
 -0.000993f,
 +0.004102f,
 -0.022955f,
 -0.110085f,

 +0.038616f,
 -0.000822f,
 +0.003757f,
 -0.000404f,
 -0.022977f,
 +0.019759f,
 -0.116245f,
 +0.000636f,
 +0.139450f,
 -0.673717f,
 -0.131244f,
 -0.001826f,
 -0.390445f,
 +0.322379f,
 -0.004106f,
 -0.005123f,
 +0.009756f,
 +0.017415f,
 -0.270795f,
 +0.002492f,
 -0.015689f,
 -0.051722f,
 -0.012715f,
 +0.001012f,
 +0.242173f,
 -0.010241f,
 -0.193230f,
 +0.464313f,
 +0.000034f,
 -0.073813f,
 +0.196285f,
 -0.011182f,
 -0.273597f,
 -0.022635f,
 -0.033448f,
 -0.105978f,
 +0.010190f,
 -0.119696f,
 +0.269377f,
 -0.104666f,
 +0.435695f,
 +0.313475f,
 +0.000619f,
 -0.128450f,
 -0.123696f,
 +0.136701f,
 -0.166718f,
 -0.126231f,

 -0.049727f,
 -0.000255f,
 -0.000569f,
 -0.000520f,
 -0.027421f,
 -0.001755f,
 -0.091858f,
 +0.001173f,
 +0.013655f,
 -0.174740f,
 -0.017982f,
 -0.002656f,
 +0.667163f,
 -0.010509f,
 +0.005491f,
 -0.000780f,
 +0.001535f,
 +0.003655f,
 -0.066212f,
 -0.023192f,
 -0.030374f,
 +0.340251f,
 +0.076101f,
 +0.001117f,
 +0.057873f,
 -0.002562f,
 +0.334914f,
 +0.371406f,
 +0.001117f,
 +0.179504f,
 -0.026486f,
 +0.066504f,
 +0.109550f,
 -0.072431f,
 +0.167262f,
 -0.463689f,
 -0.003362f,
 +0.042485f,
 +0.275388f,
 -0.014000f,
 +0.438577f,
 +0.156432f,
 -0.002664f,
 -0.099922f,
 -0.085094f,
 -0.068881f,
 +0.144951f,
 -0.093902f,

 -0.052012f,
 +0.003578f,
 +0.002125f,
 +0.001585f,
 +0.016771f,
 +0.001696f,
 +0.380085f,
 +0.000392f,
 -0.130908f,
 -0.202426f,
 -0.323350f,
 -0.005092f,
 +0.274437f,
 -0.005240f,
 +0.005814f,
 -0.002093f,
 -0.002986f,
 +0.013529f,
 -0.371083f,
 -0.033694f,
 -0.017541f,
 +0.245831f,
 +0.491504f,
 -0.001730f,
 +0.019007f,
 +0.015356f,
 -0.155406f,
 -0.079723f,
 +0.000245f,
 +0.065980f,
 -0.240595f,
 -0.016787f,
 +0.245942f,
 -0.181603f,
 -0.325478f,
 -0.458988f,
 +0.006185f,
 +0.487464f,
 -0.365227f,
 +0.109936f,
 -0.271631f,
 -0.180673f,
 +0.001304f,
 +0.166593f,
 -0.461533f,
 -0.578467f,
 -0.331028f,
 +0.074175f,

 -0.041441f,
 -0.001574f,
 -0.003567f,
 -0.001487f,
 -0.061729f,
 +0.006849f,
 +0.005115f,
 +0.001139f,
 +0.151512f,
 -0.395043f,
 +0.207018f,
 -0.005994f,
 +0.134757f,
 -0.046455f,
 -0.001019f,
 -0.006288f,
 +0.005147f,
 +0.001003f,
 +0.320343f,
 -0.505022f,
 -0.016102f,
 -0.333702f,
 +0.383195f,
 -0.000954f,
 +0.214442f,
 +0.003861f,
 +0.154395f,
 +0.456853f,
 -0.000877f,
 +0.126184f,
 +0.131188f,
 -0.205728f,
 -0.010472f,
 -0.049435f,
 -0.260306f,
 -0.105166f,
 +0.006301f,
 -0.170006f,
 +0.242543f,
 -0.074008f,
 -0.504770f,
 +0.117881f,
 -0.001837f,
 -0.004032f,
 -0.063510f,
 +0.068293f,
 -0.218977f,
 -0.103590f,

 +0.046296f,
 +0.002077f,
 -0.003293f,
 -0.002059f,
 -0.056750f,
 +0.006938f,
 -0.033379f,
 -0.002272f,
 +0.257881f,
 -0.199993f,
 +0.019695f,
 +0.004333f,
 +0.313776f,
 -0.081674f,
 -0.008996f,
 -0.006064f,
 -0.001326f,
 +0.004989f,
 +0.125894f,
 +0.312591f,
 -0.022884f,
 +0.001197f,
 +0.043690f,
 -0.000952f,
 -0.098661f,
 -0.002442f,
 -0.007705f,
 -0.107446f,
 -0.003055f,
 +0.078369f,
 -0.083964f,
 -0.135869f,
 +0.062162f,
 +0.130269f,
 -0.331166f,
 -0.173638f,
 -0.007231f,
 -0.142199f,
 +0.093444f,
 +0.235314f,
 -0.379972f,
 -0.092715f,
 +0.004129f,
 +0.137196f,
 -0.062928f,
 -0.175642f,
 -0.025885f,
 -0.069930f,

 -0.003341f,
 -0.000470f,
 -0.001763f,
 -0.001387f,
 -0.005002f,
 -0.001244f,
 -0.005986f,
 -0.000779f,
 +0.004250f,
 -0.005440f,
 +0.020647f,
 -0.006176f,
 -0.012772f,
 +0.005044f,
 +0.011073f,
 -0.002245f,
 +0.005271f,
 +0.005383f,
 -0.011810f,
 -0.007249f,
 +0.001985f,
 -0.016366f,
 +0.005102f,
 -0.001713f,
 -0.005221f,
 -0.003247f,
 -0.001263f,
 +0.005447f,
 +0.005026f,
 +0.009195f,
 +0.000596f,
 -0.004263f,
 -0.002341f,
 +0.006091f,
 +0.002612f,
 -0.001920f,
 -0.004590f,
 +0.001508f,
 +0.011968f,
 +0.002516f,
 -0.004162f,
 +0.009875f,
 +0.000794f,
 -0.001278f,
 -0.005259f,
 -0.000974f,
 +0.004409f,
 -0.003068f,

 +0.209134f,
 +0.001261f,
 -0.005320f,
 -0.001550f,
 +0.004364f,
 +0.012840f,
 -0.447633f,
 -0.000632f,
 -0.036262f,
 -0.026408f,
 -0.255344f,
 -0.004621f,
 -0.123024f,
 -0.154385f,
 -0.003563f,
 +0.002923f,
 +0.002521f,
 -0.006486f,
 +0.071360f,
 +0.040798f,
 +0.001283f,
 -0.263185f,
 +0.013643f,
 -0.001813f,
 +0.170987f,
 -0.004523f,
 -0.198074f,
 +0.648479f,
 -0.001071f,
 -0.001473f,
 +0.166998f,
 +0.303578f,
 +0.023976f,
 -0.027405f,
 +0.229801f,
 +0.305038f,
 +0.005408f,
 +0.022461f,
 +0.069300f,
 -0.157159f,
 +0.343265f,
 +0.444524f,
 -0.000790f,
 +0.535520f,
 +0.023934f,
 +0.201682f,
 -0.077323f,
 -0.047584f,

 -0.150008f,
 -0.003321f,
 +0.001214f,
 +0.000055f,
 +0.040729f,
 -0.004683f,
 +0.176320f,
 -0.001471f,
 -0.058655f,
 +0.189646f,
 +0.417005f,
 +0.011180f,
 +0.805173f,
 -0.302911f,
 +0.001078f,
 -0.003534f,
 -0.003025f,
 -0.003907f,
 -0.699488f,
 -0.232589f,
 -0.038226f,
 -0.085972f,
 +0.011727f,
