const float CONV1_CONV_WEIGHT[] = 
{
//    16, 3, 3, 3
 +0.048208f, -0.053413f, -0.049373f, +0.051996f, -0.008746f, -0.023715f, -0.033337f, +0.046954f, +0.074710f,
 +0.016158f, -0.050437f, -0.089044f, -0.080701f, -0.015575f, -0.029232f, -0.110403f, -0.022955f, -0.094101f,
 +0.068995f, +0.112683f, +0.030125f, +0.062570f, +0.064699f, +0.057297f, +0.060161f, +0.083722f, +0.096337f,

 +0.091268f, +0.089096f, +0.052009f, +0.131405f, +0.061597f, +0.148546f, +0.160091f, +0.155194f, +0.057281f,
 -0.072933f, -0.086512f, -0.086689f, -0.132194f, -0.100168f, -0.109529f, -0.066924f, -0.140404f, -0.065904f,
 -0.004154f, -0.028985f, -0.112808f, +0.031371f, +0.064946f, -0.016938f, -0.010355f, -0.030174f, -0.082625f,

 +0.084992f, +0.094862f, +0.053961f, +0.132200f, +0.073004f, +0.089568f, +0.015561f, -0.027746f, -0.003326f,
 +0.118140f, +0.075926f, +0.104307f, +0.056805f, +0.112155f, +0.113383f, +0.121095f, +0.129862f, +0.033656f,
 -0.125790f, -0.187085f, -0.226693f, -0.244301f, -0.196583f, -0.115288f, -0.147173f, -0.157454f, -0.118728f,

 +0.083629f, +0.011253f, -0.023422f, +0.115227f, +0.056062f, -0.032342f, +0.080316f, +0.100757f, +0.020618f,
 +0.013146f, +0.066789f, +0.010727f, +0.064367f, +0.094684f, +0.067958f, +0.018370f, +0.093637f, +0.048404f,
 -0.080226f, -0.016443f, +0.058334f, -0.007888f, -0.008717f, +0.043996f, -0.062918f, -0.033982f, +0.018936f,

 -0.017336f, +0.145405f, +0.063151f, +0.052686f, +0.084181f, +0.056045f, -0.048512f, +0.055425f, -0.061389f,
 +0.162430f, +0.152449f, +0.161424f, +0.103512f, +0.195620f, +0.152144f, +0.169981f, +0.217871f, +0.277859f,
 -0.135977f, -0.326238f, -0.244780f, -0.161895f, -0.272639f, -0.210044f, -0.086479f, -0.240070f, -0.188775f,

 -0.061705f, -0.055942f, -0.001668f, -0.106758f, -0.114932f, +0.018457f, +0.033904f, -0.073409f, -0.064066f,
 +0.042636f, -0.034519f, -0.040097f, -0.057839f, -0.053894f, -0.026486f, -0.043380f, -0.076677f, -0.070011f,
 -0.001202f, +0.008552f, -0.032360f, +0.019945f, +0.008999f, +0.036265f, -0.092982f, -0.083563f, -0.018510f,

 +0.032160f, -0.004285f, -0.026078f, -0.002958f, -0.038796f, -0.020672f, +0.013463f, +0.020928f, -0.051078f,
 -0.046053f, -0.088435f, -0.106582f, -0.032466f, -0.087292f, -0.167321f, -0.060684f, -0.185597f, -0.114483f,
 +0.038009f, +0.026201f, -0.005763f, -0.038385f, -0.096968f, -0.021017f, +0.000725f, -0.039164f, +0.033704f,

 +0.108253f, -0.069004f, +0.007559f, +0.057134f, -0.055044f, +0.059739f, -0.039834f, +0.079669f, -0.025116f,
 +0.055760f, +0.105148f, +0.041167f, +0.097594f, +0.020616f, -0.045822f, -0.004427f, +0.022933f, -0.006562f,
 +0.133872f, +0.091114f, +0.113622f, +0.209090f, +0.116941f, +0.049366f, +0.198221f, +0.183296f, +0.128336f,

 +0.016507f, -0.039839f, -0.058394f, -0.058754f, +0.024037f, +0.024361f, +0.020882f, +0.049919f, -0.022109f,
 +0.037394f, +0.040604f, -0.022886f, +0.055790f, +0.042121f, -0.054878f, -0.073982f, +0.027914f, +0.081709f,
 +0.106001f, +0.148031f, +0.160943f, +0.103303f, +0.012358f, +0.076517f, +0.068588f, +0.015675f, +0.119307f,

 +0.004051f, +0.049747f, +0.008282f, +0.031359f, -0.021743f, -0.039993f, -0.021913f, +0.060821f, -0.012608f,
 -0.036413f, -0.084640f, +0.000005f, -0.034727f, -0.136559f, -0.020129f, -0.110425f, -0.157699f, -0.153869f,
 +0.050143f, +0.060428f, +0.071963f, +0.009668f, +0.073094f, -0.035160f, +0.029030f, -0.061997f, +0.000543f,

 -0.024495f, -0.053050f, -0.076929f, +0.024877f, -0.006039f, -0.049244f, +0.043878f, +0.040831f, +0.032526f,
 -0.045195f, -0.070361f, +0.032525f, +0.054328f, +0.043465f, +0.003379f, +0.078364f, +0.195656f, +0.144736f,
 -0.028899f, -0.011482f, -0.073758f, +0.015456f, +0.062653f, +0.052065f, -0.033057f, +0.019997f, -0.000316f,

 -0.027724f, +0.070497f, +0.083660f, +0.091675f, +0.121611f, +0.007996f, +0.109117f, -0.007048f, +0.078648f,
 +0.053274f, -0.026776f, +0.054711f, +0.069459f, -0.077014f, +0.045704f, -0.023283f, +0.060426f, -0.052981f,
 -0.049071f, -0.040490f, +0.055498f, +0.002947f, +0.058943f, -0.028366f, +0.051921f, -0.001070f, -0.008408f,

 +0.104815f, -0.005669f, +0.045845f, -0.046061f, +0.001803f, -0.068222f, -0.033584f, -0.034190f, +0.050248f,
 -0.018544f, +0.031495f, +0.000697f, +0.071531f, +0.051292f, +0.049357f, -0.059533f, +0.062956f, +0.026643f,
 +0.033002f, +0.129244f, -0.012752f, +0.159911f, +0.100674f, +0.033154f, +0.093936f, +0.114636f, +0.097507f,

 -0.056909f, +0.029667f, +0.024348f, +0.006253f, -0.024897f, -0.005517f, -0.062851f, -0.024117f, -0.017434f,
 +0.026954f, +0.090609f, +0.025230f, +0.041939f, +0.096891f, +0.079125f, +0.040882f, +0.077861f, -0.018994f,
 +0.075597f, +0.087296f, +0.127730f, +0.004652f, +0.048029f, +0.087987f, +0.003475f, +0.090337f, +0.175441f,

 +0.010494f, +0.029028f, +0.027108f, +0.105767f, +0.135750f, +0.071445f, +0.133477f, +0.143966f, +0.094254f,
 -0.093699f, +0.012074f, -0.017486f, -0.086139f, -0.059788f, -0.026614f, +0.088015f, +0.099292f, +0.105626f,
 -0.058936f, -0.162713f, -0.084242f, -0.055155f, -0.041454f, -0.087444f, -0.018811f, +0.007856f, -0.056369f,

 +0.035866f, -0.050839f, -0.057435f, +0.089573f, +0.029100f, -0.046008f, +0.000492f, -0.078782f, -0.094160f,
 +0.083196f, +0.022279f, +0.026584f, +0.065773f, +0.147793f, +0.030674f, +0.069006f, +0.079618f, +0.050230f,
 +0.091564f, +0.121729f, +0.040978f, +0.066617f, +0.143975f, +0.061973f, +0.124558f, +0.132134f, +0.005821f,

};

const float CONV1_BN_WEIGHT[] = 
{
//    (16,),
 +3.991496f, +3.511923f, +1.402550f, +1.751943f, +0.603601f, +1.550396f, +1.020816f, +0.832728f, +1.107112f, +2.453154f, +3.223383f, +1.460743f, +1.439734f, +1.352276f, +2.668199f, +0.837043f,
};

const float CONV1_BN_BIAS[] = 
{
//    16,
 -0.476409f, +0.226758f, +0.427755f, -0.767722f, +0.442619f, +0.740428f, +0.873647f, -0.658910f, -0.904539f, +0.418160f, -0.456022f, -0.912941f, -0.842310f, -0.835156f, -0.170634f, -0.287221f,
};

const float CONV2_CONV1_WEIGHT[] = 
{
//    16, 1, 3, 3
 -0.070475f, -0.007761f, +0.128213f, +0.028502f, -0.124520f, +0.016783f, -0.016211f, -0.066649f, -0.117962f,

 -0.145639f, -0.096834f, +0.027276f, -0.103905f, -0.046402f, +0.016208f, +0.017040f, +0.017970f, +0.001825f,

 -0.058725f, +0.146368f, -0.008508f, +0.113971f, +0.168453f, +0.091962f, -0.055847f, +0.001833f, -0.120015f,

 -0.037965f, +0.020269f, -0.101916f, +0.126714f, +0.143480f, +0.094466f, -0.064630f, -0.022884f, -0.047935f,

 +0.042887f, +0.251217f, +0.087513f, -0.522157f, -0.389407f, -0.065093f, +0.159637f, +0.172107f, +0.044937f,

 -0.033997f, +0.097245f, -0.017042f, -0.130357f, -0.021411f, -0.095436f, -0.101727f, -0.107118f, -0.067178f,

 +0.316816f, +0.197395f, -0.117885f, +0.200238f, +0.058134f, -0.113065f, -0.077929f, -0.182578f, +0.035756f,

 -0.056344f, -0.087299f, -0.134313f, +0.001105f, +0.072394f, -0.124405f, -0.181781f, +0.036297f, +0.100211f,

 +0.120603f, +0.017721f, +0.076487f, +0.198222f, +0.124736f, +0.016977f, +0.005243f, +0.102145f, -0.039135f,

 -0.047550f, -0.007213f, +0.086486f, -0.005945f, -0.081866f, -0.035387f, -0.024785f, -0.155596f, -0.078520f,

 -0.087842f, -0.166861f, -0.072083f, -0.083985f, -0.061600f, -0.037643f, +0.056989f, +0.093066f, +0.074501f,

 -0.012306f, +0.173418f, +0.067462f, +0.119871f, +0.057657f, +0.081424f, +0.087275f, +0.024228f, +0.091781f,

 +0.018887f, -0.019861f, +0.017448f, +0.057123f, +0.028152f, +0.179908f, +0.171794f, +0.236253f, -0.025463f,

 -0.045667f, +0.039820f, +0.175986f, -0.040791f, -0.001038f, +0.179056f, -0.093439f, -0.075268f, +0.074544f,

 +0.159610f, +0.143497f, +0.059696f, +0.002948f, +0.113645f, -0.041260f, -0.021669f, -0.094081f, -0.110367f,

 +0.144864f, +0.303458f, -0.020203f, +0.049627f, -0.119082f, -0.041729f, +0.054027f, -0.213438f, -0.161094f,

};

const float CONV2_BN1_WEIGHT[] = 
{
//    (16,),
 +5.668586f, +3.236507f, +5.085179f, +12.451388f, +12.745956f, +3.375825f, +4.260320f, +3.634851f, +14.202317f, +3.144010f, +3.976908f, +21.488274f, +2.674868f, +6.101336f, +5.845292f, +8.439353f,
};

const float CONV2_BN1_BIAS[] = 
{
//    16,
 +0.337871f, +0.403638f, -0.051762f, -0.240475f, +1.289466f, +0.311297f, -0.003941f, +0.340409f, -0.288885f, +0.535741f, +0.425025f, -0.239255f, -0.334742f, -0.335543f, -0.173206f, +0.044447f,
};

const float CONV2_CONV2_WEIGHT[] = 
{
//    16, 16, 1, 1
 -0.029576f,
 +0.039620f,
 +0.041624f,
 +0.070522f,
 -0.030227f,
 +0.172371f,
 -0.035864f,
 -0.061089f,
 +0.075001f,
 +0.067964f,
 -0.040672f,
 +0.071906f,
 +0.083685f,
 -0.111015f,
 +0.072914f,
 -0.050405f,

 -0.149377f,
 -0.069318f,
 +0.026536f,
 -0.078080f,
 +0.046259f,
 +0.054130f,
 +0.199235f,
 -0.042747f,
 +0.008087f,
 +0.104139f,
 +0.031160f,
 -0.045292f,
 +0.180576f,
 +0.041891f,
 -0.119420f,
 -0.037997f,

 -0.034031f,
 +0.031838f,
 -0.297891f,
 -0.078795f,
 +0.222316f,
 -0.029719f,
 +0.012634f,
 -0.011767f,
 +0.027621f,
 -0.180148f,
 +0.105892f,
 +0.000888f,
 +0.019545f,
 -0.019586f,
 -0.045075f,
 +0.080878f,

 -0.053380f,
 +0.022217f,
 +0.134080f,
 +0.017149f,
 +0.053342f,
 +0.015242f,
 -0.160631f,
 +0.010184f,
 -0.003741f,
 +0.002913f,
 +0.089112f,
 +0.079018f,
 -0.032598f,
 -0.127688f,
 +0.063952f,
 +0.099164f,

 -0.025989f,
 -0.150149f,
 -0.054260f,
 -0.049613f,
 +0.010051f,
 +0.023197f,
 +0.332538f,
 -0.107109f,
 -0.040632f,
 +0.033069f,
 -0.038131f,
 -0.022920f,
 +0.096672f,
 +0.043791f,
 -0.097027f,
 +0.022928f,

 -0.029214f,
 +0.022231f,
 -0.031776f,
 +0.073704f,
 -0.213360f,
 +0.007005f,
 -0.071419f,
 -0.047088f,
 -0.051864f,
 +0.111104f,
 -0.062209f,
 -0.065739f,
 -0.067701f,
 +0.087851f,
 +0.094649f,
 +0.020942f,

 +0.073585f,
 -0.063290f,
 -0.002095f,
 -0.066972f,
 -0.007230f,
 -0.032481f,
 +0.089310f,
 -0.033597f,
 -0.015511f,
 -0.290555f,
 +0.033076f,
 -0.168844f,
 -0.079854f,
 +0.072677f,
 +0.000626f,
 +0.052423f,

 -0.114517f,
 -0.087595f,
 +0.129637f,
 +0.055639f,
 +0.033823f,
 -0.035210f,
 +0.235778f,
 -0.010279f,
 +0.096208f,
 -0.027572f,
 -0.005739f,
 -0.008760f,
 +0.022095f,
 -0.001567f,
 -0.062853f,
 +0.012416f,

 +0.038047f,
 +0.052299f,
 +0.132254f,
 +0.072593f,
 -0.243035f,
 -0.017591f,
 -0.045696f,
 -0.033263f,
 -0.107155f,
 -0.033691f,
 +0.026475f,
 +0.217941f,
 -0.065672f,
 -0.135078f,
 +0.012230f,
 -0.024115f,

 +0.023234f,
 -0.025389f,
 +0.173286f,
 +0.103382f,
 -0.066288f,
 -0.037327f,
 +0.078888f,
 -0.012622f,
 -0.062727f,
 +0.100152f,
 -0.135921f,
 +0.020169f,
 -0.018121f,
 -0.008806f,
 +0.076864f,
 +0.023239f,

 -0.050890f,
 -0.058595f,
 -0.157802f,
 -0.099701f,
 +0.309085f,
 +0.026361f,
 -0.028194f,
 -0.018238f,
 +0.132354f,
 -0.026313f,
 +0.067260f,
 -0.034224f,
 -0.042062f,
 +0.001750f,
 -0.116157f,
 -0.015722f,

 +0.041666f,
 +0.046135f,
 -0.144775f,
 -0.069516f,
 +0.118291f,
 +0.076223f,
 -0.204133f,
 -0.022830f,
 +0.022659f,
 +0.017920f,
 -0.000553f,
 -0.041099f,
 +0.024220f,
 -0.053933f,
 -0.034147f,
 -0.012449f,

 +0.036123f,
 -0.027120f,
 +0.135316f,
 +0.031853f,
 +0.030607f,
 -0.063023f,
 +0.155000f,
 +0.055310f,
 +0.096978f,
 -0.087347f,
 -0.110206f,
 +0.035439f,
 +0.170271f,
 +0.108530f,
 +0.069327f,
 -0.030565f,

 -0.042644f,
 -0.085852f,
 -0.021464f,
 -0.122576f,
 +0.075901f,
 -0.029044f,
 +0.240468f,
 -0.119010f,
 -0.081476f,
 -0.098010f,
 +0.055299f,
 -0.092584f,
 +0.116350f,
 +0.015509f,
 -0.085688f,
 -0.005058f,

 +0.042336f,
 +0.089062f,
 +0.062596f,
 +0.017047f,
 -0.338629f,
 -0.116785f,
 -0.001471f,
 +0.051881f,
 -0.208364f,
 -0.019220f,
 +0.031795f,
 +0.003071f,
 -0.116952f,
 +0.002750f,
 -0.000884f,
 +0.011599f,

 -0.097973f,
 +0.042336f,
 +0.020257f,
 +0.065736f,
 +0.004385f,
 +0.018355f,
 -0.047357f,
 +0.054484f,
 +0.113827f,
 +0.132686f,
 -0.018452f,
 -0.007470f,
 +0.014715f,
 -0.109724f,
 +0.165792f,
 -0.252520f,

};

const float CONV2_BN2_WEIGHT[] = 
{
//    (16,),
 +3.265122f, +5.063022f, +1.605988f, +4.980392f, +3.035693f, +2.220288f, +2.350000f, +4.163163f, +2.926517f, +3.539763f, +1.675789f, +3.021122f, +3.914714f, +2.152837f, +1.318733f, +3.394082f,
};

const float CONV2_BN2_BIAS[] = 
{
//    16,
 -0.049142f, -0.582599f, +0.402162f, -0.086269f, +0.018302f, +0.435682f, +0.598345f, -0.454045f, +0.141086f, -0.332198f, +0.307102f, +0.320550f, -0.437727f, +0.272238f, +0.467238f, -0.017749f,
};

const float CONV3_CONV1_WEIGHT[] = 
{
//    16, 1, 3, 3
 -0.066025f, -0.215300f, -0.096299f, +0.081096f, -0.070232f, -0.075178f, +0.138202f, +0.126867f, +0.116592f,

 -0.069576f, -0.109645f, -0.039220f, -0.057787f, -0.152058f, +0.007821f, -0.036271f, +0.018112f, +0.132561f,

 -0.017880f, -0.182050f, +0.089721f, -0.164418f, -0.015183f, +0.298048f, -0.089586f, +0.115220f, +0.183064f,

 +0.061374f, +0.141118f, +0.094217f, +0.086192f, +0.005956f, -0.023249f, -0.046938f, -0.015824f, -0.130571f,

 -0.041998f, -0.182331f, -0.168644f, +0.083463f, +0.112234f, -0.020271f, +0.039158f, +0.281001f, +0.110192f,

 +0.037046f, -0.077123f, -0.090778f, +0.129910f, -0.197087f, -0.130170f, +0.031754f, -0.020171f, -0.099954f,

 +0.067003f, -0.161860f, -0.185893f, +0.043208f, -0.012057f, -0.137821f, -0.003306f, +0.156393f, +0.250657f,

 -0.029251f, +0.028310f, +0.045804f, +0.001743f, +0.067490f, +0.030367f, +0.090501f, +0.139787f, +0.158631f,

 +0.019917f, +0.155844f, +0.118607f, +0.048352f, +0.079358f, +0.089568f, +0.081924f, -0.064769f, +0.016495f,

 +0.006436f, -0.125172f, -0.129641f, -0.100398f, -0.043679f, -0.016647f, -0.012268f, +0.007332f, -0.115921f,

 +0.085795f, -0.169813f, -0.055456f, +0.049749f, -0.072849f, -0.125175f, +0.098124f, -0.183132f, -0.035146f,

 -0.019710f, -0.125699f, -0.026540f, +0.098996f, -0.124839f, +0.020148f, +0.062113f, -0.133860f, +0.008181f,

 -0.113225f, -0.071334f, -0.038646f, -0.161094f, -0.163331f, +0.051078f, +0.032860f, +0.061458f, -0.001709f,

 -0.128379f, -0.027380f, +0.075554f, -0.126514f, -0.081113f, +0.281078f, -0.149850f, +0.125136f, +0.163769f,

 +0.070581f, -0.147104f, -0.131298f, +0.106025f, -0.100363f, -0.194578f, +0.128531f, +0.002339f, -0.054763f,

 -0.122970f, -0.015000f, +0.048697f, -0.151545f, -0.077901f, +0.058726f, -0.071010f, -0.040762f, +0.086808f,

};

const float CONV3_BN1_WEIGHT[] = 
{
//    (16,),
 +5.635186f, +4.941897f, +5.810777f, +4.944763f, +4.660700f, +3.807457f, +8.607366f, +3.276382f, +3.901918f, +2.352509f, +4.462808f, +5.280070f, +3.120863f, +5.864321f, +5.380126f, +4.506656f,
};

const float CONV3_BN1_BIAS[] = 
{
//    16,
 +0.254442f, +0.336459f, -0.062575f, -0.063949f, -0.012665f, +0.784398f, +0.164889f, -0.272518f, -0.382988f, +0.266878f, +0.645741f, +0.205042f, +0.403509f, -0.133502f, +1.028386f, +0.521056f,
};

const float CONV3_CONV2_WEIGHT[] = 
{
//    32, 16, 1, 1
 +0.009028f,
 +0.003785f,
 +0.176107f,
 -0.044010f,
 +0.006381f,
 +0.131332f,
 -0.026656f,
 -0.052475f,
 -0.072152f,
 +0.125651f,
 -0.108973f,
 -0.026727f,
 +0.013900f,
 -0.009374f,
 +0.201265f,
 +0.008790f,

 -0.018515f,
 -0.111447f,
 +0.127414f,
 +0.114538f,
 -0.130837f,
 +0.104405f,
 -0.080583f,
 +0.014502f,
 -0.008100f,
 -0.065777f,
 -0.089962f,
 -0.019219f,
 -0.133949f,
 -0.164549f,
 -0.016602f,
 -0.004436f,

 +0.002464f,
 -0.051234f,
 -0.013098f,
 -0.001292f,
 -0.181155f,
 +0.152279f,
 -0.087955f,
 +0.010653f,
 -0.047864f,
 +0.101976f,
 -0.171440f,
 -0.036518f,
 -0.044513f,
 -0.020361f,
 +0.003652f,
 -0.102016f,

 -0.073560f,
 +0.049623f,
 -0.094009f,
 +0.086773f,
 +0.004636f,
 -0.094464f,
 -0.003540f,
 +0.055201f,
 +0.031000f,
 -0.067453f,
 +0.047854f,
 -0.050999f,
 -0.027647f,
 -0.022752f,
 -0.163838f,
 -0.035711f,

 -0.006128f,
 -0.080690f,
 -0.083277f,
 -0.054206f,
 +0.107994f,
 -0.027845f,
 +0.011405f,
 +0.053484f,
 -0.058826f,
 +0.040567f,
 -0.151780f,
 -0.007516f,
 -0.091811f,
 -0.123565f,
 -0.003690f,
 -0.055733f,

 +0.045119f,
 +0.001343f,
 +0.067270f,
 -0.048792f,
 -0.105788f,
 +0.085717f,
 +0.138573f,
 -0.062661f,
 -0.123229f,
 +0.042757f,
 -0.112890f,
 +0.006964f,
 -0.081310f,
 -0.144294f,
 +0.063955f,
 -0.025156f,

 +0.000093f,
 +0.030993f,
 +0.155713f,
 +0.028077f,
 +0.067808f,
 +0.044237f,
 -0.014002f,
 -0.017838f,
 -0.013905f,
 +0.022450f,
 -0.045067f,
 +0.008058f,
 -0.120267f,
 +0.029344f,
 +0.135286f,
 +0.062029f,

 -0.002258f,
 +0.058186f,
 -0.014183f,
 +0.127571f,
 +0.133013f,
 -0.084335f,
 +0.072516f,
 +0.022656f,
 -0.073945f,
 -0.074327f,
 -0.037493f,
 -0.061104f,
 -0.030677f,
 +0.031476f,
 -0.088340f,
 +0.044854f,

 +0.035026f,
 -0.043672f,
 +0.093078f,
 -0.035306f,
 +0.114051f,
 +0.064050f,
 -0.093563f,
 +0.090710f,
 -0.029100f,
 +0.038529f,
 -0.014524f,
 +0.082449f,
 -0.038208f,
 +0.094160f,
 +0.070325f,
 +0.095236f,

 -0.022927f,
 +0.073258f,
 +0.013622f,
 -0.067803f,
 -0.031614f,
 +0.053224f,
 -0.085145f,
 -0.055295f,
 +0.039031f,
 +0.057655f,
 +0.022878f,
 +0.050453f,
 +0.000930f,
 -0.032906f,
 -0.117610f,
 +0.155775f,

 -0.085117f,
 +0.003949f,
 +0.089886f,
 +0.064056f,
 -0.161849f,
 -0.075071f,
 +0.043106f,
 -0.059678f,
 -0.026501f,
 -0.021126f,
 -0.010421f,
 -0.050776f,
 -0.081457f,
 -0.074073f,
 +0.043093f,
 -0.056166f,

 +0.094783f,
 -0.027025f,
 +0.089893f,
 -0.073380f,
 -0.127580f,
 -0.026480f,
 +0.010849f,
 +0.003207f,
 -0.095062f,
 +0.037847f,
 +0.000295f,
 -0.079700f,
 +0.039163f,
 -0.026018f,
 -0.054186f,
 +0.110432f,

 -0.001217f,
 +0.073461f,
 -0.150087f,
 -0.036365f,
 -0.044466f,
 -0.072318f,
 +0.026391f,
 +0.085184f,
 +0.135684f,
 -0.137104f,
 +0.113586f,
 +0.062845f,
 +0.014686f,
 +0.025959f,
 -0.082354f,
 +0.003799f,

 +0.021186f,
 -0.064505f,
 -0.019089f,
 -0.051898f,
 +0.076352f,
 +0.015303f,
 -0.024057f,
 +0.089399f,
 +0.002504f,
 +0.042084f,
 +0.111800f,
 +0.050858f,
 +0.037478f,
 +0.138974f,
 -0.075056f,
 +0.111406f,

 -0.124578f,
 +0.017532f,
 +0.113254f,
 -0.078135f,
 -0.155233f,
 -0.047615f,
 +0.090362f,
 -0.026251f,
 -0.029336f,
 -0.052142f,
 -0.114831f,
 -0.028430f,
 -0.078238f,
 +0.020329f,
 -0.064874f,
 +0.121090f,

 -0.057892f,
 -0.005725f,
 +0.004564f,
 -0.083766f,
 +0.132613f,
 -0.027272f,
 +0.132125f,
 +0.083475f,
 -0.037228f,
 +0.078405f,
 +0.007986f,
 -0.077497f,
 -0.048809f,
 -0.120452f,
 +0.042730f,
 +0.053342f,

 +0.017537f,
 -0.005953f,
 +0.128314f,
 +0.030179f,
 -0.056184f,
 +0.123770f,
 -0.059623f,
 -0.026557f,
 -0.188278f,
 +0.067080f,
 -0.098981f,
 -0.040211f,
 -0.027676f,
 +0.014677f,
 +0.175018f,
 -0.031509f,

 +0.017654f,
 -0.050856f,
 +0.019063f,
 +0.009568f,
 +0.143870f,
 -0.004806f,
 -0.063355f,
 +0.198295f,
 -0.069188f,
 +0.031570f,
 -0.006180f,
 +0.015777f,
 +0.033472f,
 +0.061802f,
 -0.045988f,
 +0.055829f,

 -0.110511f,
 -0.067603f,
 -0.127964f,
 -0.048164f,
 -0.091983f,
 +0.024073f,
 +0.008148f,
 +0.074096f,
 +0.022475f,
 +0.063679f,
 +0.128440f,
 +0.022661f,
 -0.001492f,
 +0.015927f,
 -0.090323f,
 -0.078775f,

 -0.021035f,
 +0.060615f,
 +0.012281f,
 +0.067882f,
 -0.063070f,
 +0.025763f,
 -0.088829f,
 -0.085402f,
 +0.095730f,
 -0.046929f,
 +0.074734f,
 +0.050694f,
 -0.077696f,
 +0.157708f,
 -0.035175f,
 -0.017944f,

 -0.087247f,
 +0.080642f,
 -0.049040f,
 -0.004377f,
 -0.045618f,
 -0.082962f,
 -0.050534f,
 -0.007134f,
 +0.121298f,
 -0.030492f,
 +0.095783f,
 +0.088020f,
 +0.031151f,
 -0.058565f,
 -0.059000f,
 +0.048122f,

 +0.107392f,
 -0.024289f,
 -0.153306f,
 +0.108440f,
 +0.056698f,
 +0.057542f,
 +0.017221f,
 +0.015630f,
 -0.095441f,
 -0.142513f,
 +0.004356f,
 +0.024117f,
 -0.028331f,
 +0.093513f,
 -0.182420f,
 +0.054136f,

 -0.083891f,
 -0.032366f,
 +0.040812f,
 -0.035485f,
 -0.033533f,
 +0.089063f,
 -0.038616f,
 -0.097664f,
 -0.027737f,
 +0.042871f,
 -0.059526f,
 -0.102242f,
 -0.044225f,
 -0.111447f,
 +0.090752f,
 -0.121028f,

 -0.089585f,
 +0.095903f,
 -0.122230f,
 -0.057468f,
 +0.167768f,
 +0.008952f,
 +0.032253f,
 -0.034540f,
 +0.047118f,
 -0.023953f,
 +0.055083f,
 -0.035768f,
 -0.030666f,
 +0.045547f,
 +0.093269f,
 -0.018632f,

 +0.128440f,
 +0.027185f,
 +0.033147f,
 +0.003105f,
 +0.030068f,
 +0.095694f,
 +0.001706f,
 -0.026153f,
 -0.083811f,
 +0.093278f,
 -0.151303f,
 -0.016228f,
 -0.008403f,
 -0.040769f,
 +0.090697f,
 +0.024421f,

 -0.010686f,
 +0.030090f,
 +0.196920f,
 -0.025354f,
 -0.055681f,
 -0.084541f,
 +0.073008f,
 -0.085212f,
 +0.076991f,
 -0.002095f,
 +0.104525f,
 +0.076982f,
 -0.010837f,
 +0.071169f,
 -0.067338f,
 +0.048402f,

 +0.042796f,
 -0.175923f,
 -0.005728f,
 +0.045018f,
 +0.069088f,
 -0.119907f,
 +0.044559f,
 +0.007434f,
 +0.060632f,
 +0.007728f,
 -0.055587f,
 -0.052125f,
 -0.034291f,
 +0.080229f,
 -0.018413f,
 +0.139239f,

 +0.017506f,
 +0.008941f,
 +0.111580f,
 -0.020572f,
 +0.011487f,
 +0.112878f,
 +0.031116f,
 -0.037065f,
 -0.132475f,
 -0.003654f,
 -0.111486f,
 -0.023422f,
 +0.018623f,
 +0.013511f,
 +0.216759f,
 +0.094126f,

 -0.081500f,
 +0.019932f,
 +0.157132f,
 -0.111944f,
 -0.063093f,
 -0.033955f,
 +0.022637f,
 -0.065314f,
 +0.135408f,
 +0.017271f,
 +0.066440f,
 +0.054988f,
 -0.069256f,
 -0.133353f,
 -0.054594f,
 -0.049145f,

 -0.104367f,
 +0.024743f,
 -0.044964f,
 +0.055403f,
 -0.052244f,
 -0.110572f,
 +0.136072f,
 -0.133560f,
 +0.063874f,
 +0.007640f,
 +0.042296f,
 -0.071881f,
 -0.074708f,
 -0.028832f,
 +0.080042f,
 -0.007830f,

 -0.073466f,
 +0.003320f,
 +0.100508f,
 -0.000304f,
 -0.104907f,
 +0.077003f,
 +0.094577f,
 -0.062350f,
 -0.125738f,
 -0.007105f,
 -0.133050f,
 -0.002674f,
 -0.121203f,
 -0.136107f,
 -0.015586f,
 -0.109350f,

 +0.071426f,
 +0.025698f,
 -0.147422f,
 -0.088760f,
 -0.011091f,
 +0.016038f,
 -0.048260f,
 -0.102462f,
 -0.137778f,
 -0.026374f,
 -0.133937f,
 -0.018854f,
 +0.069765f,
 -0.002303f,
 -0.109367f,
 +0.098535f,

};

const float CONV3_BN2_WEIGHT[] = 
{
//    (32,),
 +1.775069f, +4.736391f, +4.191180f, +2.980624f, +5.998388f, +3.363676f, +3.678773f, +5.133842f, +2.874577f, +7.556508f, +3.396268f, +4.901817f, +2.299125f, +3.727071f, +3.696024f, +4.599203f, +1.908877f, +3.080982f, +4.091163f, +4.632444f, +3.462717f, +2.642685f, +3.692054f, +6.457906f, +3.425559f, +6.810693f, +6.834765f, +2.235631f, +4.174272f, +2.500699f, +3.500713f, +2.886049f,
};

const float CONV3_BN2_BIAS[] = 
{
//    32,
 -0.019433f, +0.686774f, +0.553038f, +0.472493f, +0.640281f, +0.148025f, -0.360653f, +0.020593f, -0.240327f, -0.030627f, +0.472081f, +0.049269f, +0.310467f, -0.256725f, +0.600559f, -0.152236f, +0.132068f, -0.066757f, +0.391283f, +0.052842f, +0.158122f, +0.415215f, +0.379832f, -0.363391f, -0.186071f, -0.476543f, +0.044881f, -0.212330f, +0.330840f, +0.362170f, +0.636670f, +0.611567f,
};

const float CONV4_CONV1_WEIGHT[] = 
{
//    32, 1, 3, 3
 -0.020607f, +0.102781f, +0.160194f, +0.093353f, +0.299472f, -0.112106f, -0.055985f, -0.315288f, -0.168153f,

 -0.006169f, +0.010093f, -0.028546f, +0.133645f, -0.290151f, +0.019309f, -0.154330f, +0.276901f, +0.044028f,

 -0.010113f, +0.124994f, -0.178895f, -0.091372f, +0.116019f, +0.180204f, +0.034045f, -0.148161f, -0.024908f,

 -0.136750f, +0.085923f, +0.006140f, -0.086599f, +0.103015f, -0.080628f, +0.069483f, +0.111270f, +0.035713f,

 -0.071386f, -0.142619f, -0.070079f, -0.009435f, -0.120441f, -0.088211f, -0.031020f, +0.088069f, -0.106659f,

 +0.116535f, +0.113642f, -0.112564f, +0.100700f, +0.119156f, +0.075397f, +0.014868f, +0.056378f, -0.013234f,

 -0.052535f, -0.243270f, -0.032580f, +0.088526f, +0.167187f, -0.159994f, -0.048856f, +0.096244f, +0.147646f,

 +0.043413f, -0.090768f, -0.015818f, -0.012425f, -0.101418f, -0.066411f, -0.095360f, -0.042723f, -0.052409f,

 +0.123219f, +0.214840f, -0.082891f, +0.117661f, +0.101453f, -0.154360f, -0.090671f, -0.124996f, -0.127195f,

 -0.086226f, +0.023088f, -0.081028f, -0.040931f, -0.069115f, +0.078791f, -0.025662f, -0.128392f, -0.052060f,

 -0.092124f, -0.075777f, -0.191763f, +0.041321f, +0.142959f, -0.106909f, +0.068615f, +0.148786f, +0.056103f,

 +0.096320f, -0.044817f, -0.091268f, -0.111966f, -0.061274f, +0.045460f, -0.107054f, +0.017144f, -0.103611f,

 +0.121553f, +0.218809f, +0.185851f, +0.005528f, +0.028572f, -0.034506f, -0.161693f, -0.166729f, -0.097886f,

 +0.058619f, +0.150697f, +0.008984f, -0.130111f, +0.129701f, -0.029528f, -0.065314f, -0.001803f, +0.140036f,

 +0.010376f, +0.185808f, +0.050964f, +0.008675f, -0.247936f, -0.119269f, -0.024097f, +0.068331f, +0.041337f,

 +0.076149f, -0.075836f, -0.072311f, +0.066080f, +0.135998f, -0.131725f, -0.107385f, +0.199076f, -0.035960f,

 -0.036471f, -0.007339f, -0.112877f, +0.041492f, +0.173085f, -0.276470f, +0.117931f, +0.228766f, -0.108555f,

 -0.095106f, -0.134629f, -0.173470f, +0.034568f, +0.043629f, +0.036867f, +0.032271f, +0.190256f, +0.197087f,

 -0.020606f, -0.055936f, +0.051862f, +0.030707f, +0.013764f, -0.104483f, -0.006120f, +0.221453f, -0.127285f,

 -0.042632f, -0.162358f, -0.058530f, -0.062636f, -0.061640f, -0.166037f, +0.068950f, -0.040547f, +0.049302f,

 -0.010912f, -0.153600f, -0.020343f, -0.038718f, +0.043245f, -0.183339f, +0.085570f, +0.164034f, +0.125775f,

 +0.058782f, +0.074382f, -0.116091f, +0.151782f, +0.184853f, -0.206444f, -0.010290f, +0.029596f, -0.046587f,

 +0.114588f, -0.049708f, -0.180070f, +0.064814f, +0.055260f, -0.169031f, +0.063329f, -0.054964f, -0.006811f,

 +0.029100f, +0.141455f, +0.105854f, +0.146253f, -0.001808f, +0.025437f, +0.042483f, +0.053649f, +0.038011f,

 +0.122110f, +0.007428f, -0.062037f, +0.147995f, +0.098760f, -0.114632f, -0.120927f, -0.114499f, -0.086753f,

 -0.007854f, +0.030437f, +0.140765f, -0.092567f, -0.105530f, -0.004807f, -0.033650f, -0.098276f, -0.068381f,

 -0.011998f, -0.061748f, -0.067818f, +0.101115f, -0.107526f, -0.122524f, -0.001326f, -0.129345f, -0.077163f,

 +0.120586f, +0.223832f, -0.029855f, -0.159048f, +0.013664f, +0.210976f, -0.093630f, -0.254145f, -0.076407f,

 -0.084714f, +0.189666f, -0.059018f, +0.115589f, -0.027710f, -0.073096f, +0.077406f, +0.064546f, -0.212680f,

 +0.178396f, +0.207330f, +0.164210f, +0.023140f, -0.093833f, +0.021737f, -0.180569f, -0.125639f, -0.160130f,

 -0.120397f, +0.201234f, +0.018266f, +0.066776f, +0.229581f, -0.192205f, +0.058846f, -0.140301f, -0.130197f,

 +0.154980f, +0.016139f, -0.026072f, +0.109549f, +0.088939f, -0.199334f, +0.071503f, -0.093786f, -0.134286f,

};

const float CONV4_BN1_WEIGHT[] = 
{
//    (32,),
 +8.691718f, +7.732911f, +9.314556f, +11.454342f, +5.447835f, +3.507529f, +7.965158f, +4.699447f, +5.422528f, +4.866813f, +7.350531f, +6.957467f, +7.992047f, +4.177698f, +6.783927f, +5.912778f, +7.511905f, +4.434148f, +15.439548f, +2.977797f, +11.198289f, +5.665823f, +7.386420f, +2.747635f, +8.297929f, +5.655312f, +3.277774f, +7.166187f, +7.869161f, +5.453801f, +7.061251f, +7.112794f,
};

const float CONV4_BN1_BIAS[] = 
{
//    32,
 -0.008848f, +0.004149f, -0.001688f, -0.191554f, +0.223152f, -0.203625f, -0.021904f, +0.282793f, +0.014998f, +0.233989f, +0.021905f, +0.356331f, -0.175254f, -0.184183f, +0.021862f, -0.074899f, -0.037293f, -0.026336f, +0.003725f, +0.348988f, -0.097042f, -0.033834f, +0.289881f, -0.230437f, +0.248688f, +0.204437f, +0.255925f, +0.065146f, -0.027431f, +0.065612f, -0.052441f, -0.016239f,
};

const float CONV4_CONV2_WEIGHT[] = 
{
//    32, 32, 1, 1
 +0.137190f,
 +0.063460f,
 +0.047039f,
 -0.022344f,
 -0.074716f,
 +0.010932f,
 +0.123499f,
 -0.024091f,
 +0.054364f,
 +0.016422f,
 +0.040490f,
 -0.013337f,
 -0.088672f,
 -0.029185f,
 +0.070819f,
 -0.017725f,
 -0.108212f,
 +0.108108f,
 -0.009770f,
 -0.004322f,
 +0.085269f,
 -0.042181f,
 -0.031095f,
 +0.012014f,
 +0.007935f,
 -0.087795f,
 -0.035099f,
 +0.039067f,
 -0.051101f,
 +0.046883f,
 +0.064197f,
 +0.008377f,

 -0.006068f,
 -0.023406f,
 -0.059486f,
 +0.126478f,
 -0.083474f,
 -0.031466f,
 -0.075051f,
 +0.099090f,
 +0.034460f,
 -0.002152f,
 -0.034841f,
 +0.008309f,
 -0.081914f,
 -0.078023f,
 -0.062861f,
 +0.063563f,
 +0.056234f,
 -0.034116f,
 -0.022027f,
 -0.032358f,
 -0.046148f,
 +0.025246f,
 -0.039318f,
 +0.041947f,
 +0.046432f,
 +0.023082f,
 +0.028782f,
 -0.044923f,
 +0.148971f,
 +0.003360f,
 +0.175269f,
 +0.073666f,

 +0.007596f,
 -0.019744f,
 -0.004562f,
 -0.000163f,
 -0.002336f,
 -0.035539f,
 +0.085218f,
 +0.014888f,
 -0.024688f,
 -0.010018f,
 +0.016917f,
 -0.048868f,
 +0.053998f,
 +0.042985f,
 +0.018543f,
 +0.062873f,
 +0.075162f,
 +0.045522f,
 +0.030444f,
 +0.036257f,
 +0.118047f,
 +0.048686f,
 +0.025570f,
 -0.014554f,
 -0.030770f,
 -0.081445f,
 -0.090138f,
 +0.145293f,
 +0.035669f,
 +0.076017f,
 -0.050716f,
 +0.030740f,

 +0.005206f,
 +0.041648f,
 +0.029508f,
 -0.080444f,
 -0.064500f,
 -0.025871f,
 +0.006415f,
 +0.003053f,
 +0.093582f,
 -0.049947f,
 +0.029954f,
 +0.023262f,
 +0.006160f,
 +0.051865f,
 -0.010812f,
 -0.025073f,
 +0.028540f,
 -0.174931f,
 -0.006208f,
 -0.027061f,
 -0.040365f,
 +0.005551f,
 +0.023727f,
 -0.065745f,
 -0.050086f,
 -0.002814f,
 -0.115033f,
 -0.014153f,
 +0.014398f,
 -0.132277f,
 -0.069800f,
 -0.025551f,

 +0.059624f,
 +0.019501f,
 +0.047127f,
 +0.002745f,
 +0.043976f,
 +0.005728f,
 +0.000230f,
 -0.080847f,
 +0.067328f,
 -0.013622f,
 -0.022982f,
 -0.001511f,
 -0.179679f,
 +0.006726f,
 -0.039478f,
 +0.061854f,
 +0.026247f,
 -0.015253f,
 +0.059890f,
 -0.116488f,
 +0.050157f,
 -0.020710f,
 -0.008732f,
 -0.006129f,
 +0.010916f,
 -0.008494f,
 -0.084704f,
 +0.120549f,
 +0.027448f,
 -0.036591f,
 +0.040358f,
 +0.049427f,

 +0.105746f,
 +0.099427f,
 -0.013843f,
 -0.071727f,
 +0.014459f,
 +0.000000f,
 +0.048898f,
 -0.003957f,
 +0.000425f,
 +0.003024f,
 -0.062077f,
 +0.017515f,
 +0.000114f,
 -0.037571f,
 -0.008983f,
 +0.054616f,
 -0.021289f,
 +0.056366f,
 +0.038283f,
 +0.024551f,
 -0.065572f,
 -0.036265f,
 -0.058137f,
 +0.026644f,
 -0.061494f,
 -0.075325f,
 -0.001824f,
 +0.030174f,
 +0.029260f,
 +0.096474f,
 +0.043454f,
 +0.011559f,

 +0.041013f,
 +0.091024f,
 -0.006267f,
 +0.011716f,
 -0.100491f,
 -0.077784f,
 +0.043815f,
 +0.058141f,
 +0.109018f,
 -0.042295f,
 +0.016901f,
 -0.025407f,
 -0.132376f,
 -0.018911f,
 +0.010229f,
 -0.035049f,
 +0.074770f,
 -0.028689f,
 -0.042475f,
 -0.160403f,
 -0.097996f,
 -0.127449f,
 -0.032947f,
 -0.011912f,
 +0.102054f,
 -0.095711f,
 -0.001689f,
 -0.053867f,
 -0.012800f,
 -0.149511f,
 +0.152390f,
 +0.028269f,

 +0.163226f,
 +0.047350f,
 -0.005515f,
 -0.108911f,
 -0.033657f,
 +0.030861f,
 +0.003094f,
 -0.082115f,
 -0.060347f,
 -0.015698f,
 -0.027181f,
 -0.019976f,
 +0.042615f,
 -0.055085f,
 +0.061613f,
 +0.002177f,
 -0.136671f,
 -0.001695f,
 +0.026944f,
 +0.085104f,
 +0.021836f,
 -0.079165f,
 -0.067128f,
 -0.036099f,
 -0.039032f,
 -0.031866f,
 -0.060816f,
 -0.011804f,
 -0.078311f,
 +0.053349f,
 +0.081906f,
 -0.134121f,

 +0.025639f,
 -0.004939f,
 +0.038494f,
 -0.041445f,
 -0.024422f,
 -0.013243f,
 +0.005643f,
 +0.077680f,
 +0.082642f,
 -0.044427f,
 -0.048223f,
 +0.002349f,
 -0.146095f,
 -0.047866f,
 -0.047897f,
 -0.077147f,
 +0.006032f,
 +0.083138f,
 +0.015394f,
 +0.029891f,
 +0.046655f,
 +0.006752f,
 -0.022974f,
 -0.074180f,
 -0.063149f,
 -0.057176f,
 -0.029810f,
 +0.141485f,
 +0.001844f,
 -0.016347f,
 +0.041596f,
 +0.008931f,

 -0.149091f,
 +0.115334f,
 +0.031393f,
 -0.008148f,
 -0.039419f,
 -0.010625f,
 -0.021585f,
 +0.026043f,
 +0.063535f,
 +0.013022f,
 -0.023655f,
 +0.006330f,
 -0.019380f,
 -0.031068f,
 -0.028758f,
 +0.068457f,
 -0.194283f,
 -0.012387f,
 +0.076881f,
 +0.027699f,
 -0.031152f,
 +0.062758f,
 -0.017242f,
 +0.042938f,
 +0.007185f,
 +0.000423f,
 -0.021262f,
 -0.013481f,
 +0.104960f,
 +0.017459f,
 -0.009394f,
 +0.117436f,

 -0.031767f,
 -0.037473f,
 +0.160940f,
 -0.035628f,
 -0.010276f,
 -0.000612f,
 +0.016506f,
 -0.012191f,
 -0.065531f,
 -0.014724f,
 -0.009242f,
 +0.033045f,
 -0.068540f,
 -0.109074f,
 -0.021875f,
 +0.227027f,
 -0.057990f,
 -0.030670f,
 +0.082171f,
 -0.045546f,
 -0.017788f,
 -0.062751f,
 -0.010173f,
 -0.044111f,
 -0.070922f,
 +0.010981f,
 +0.011483f,
 +0.167118f,
 +0.009124f,
 -0.038513f,
 +0.017996f,
 -0.021276f,

 -0.002624f,
 -0.042752f,
 +0.038979f,
 +0.008154f,
 +0.014445f,
 -0.107068f,
 -0.018434f,
 -0.014182f,
 +0.003567f,
 +0.015157f,
 -0.009470f,
 +0.017272f,
 -0.153786f,
 +0.009316f,
 -0.028917f,
 -0.010639f,
 -0.053046f,
 +0.127529f,
 -0.001117f,
 -0.068375f,
 +0.000680f,
 +0.014729f,
 +0.108822f,
 +0.010727f,
 +0.015961f,
 +0.040125f,
 +0.003410f,
 +0.063494f,
 +0.022285f,
 -0.030296f,
 -0.024780f,
 -0.031884f,

 -0.066712f,
 +0.000987f,
 -0.012816f,
 -0.025215f,
 +0.017179f,
 +0.099281f,
 +0.107531f,
 +0.086677f,
 -0.088573f,
 +0.037905f,
 -0.025881f,
 +0.074290f,
 +0.098618f,
 -0.003461f,
 -0.056509f,
 -0.003464f,
 +0.013553f,
 -0.057173f,
 -0.054320f,
 +0.039051f,
 +0.117119f,
 -0.114996f,
 -0.049682f,
 +0.012771f,
 +0.104148f,
 -0.020712f,
 +0.065862f,
 +0.003236f,
 -0.114869f,
 -0.007263f,
 -0.085651f,
 -0.021112f,

 -0.002723f,
 +0.030582f,
 +0.018232f,
 +0.011216f,
 -0.068611f,
 +0.008850f,
 +0.006988f,
 -0.040339f,
 -0.052369f,
 -0.028503f,
 +0.052078f,
 +0.006350f,
 -0.026832f,
 +0.091974f,
 -0.024266f,
 -0.092732f,
 +0.140894f,
 -0.016310f,
 -0.038242f,
 -0.133433f,
 +0.030053f,
 -0.067668f,
 +0.065096f,
 -0.008294f,
 +0.056745f,
 -0.006647f,
 -0.034925f,
 -0.050760f,
 +0.014161f,
 -0.038219f,
 +0.009708f,
 -0.036475f,

 -0.017157f,
 +0.018935f,
 +0.062877f,
 -0.091124f,
 -0.013440f,
 +0.067172f,
 -0.037883f,
 +0.027465f,
 -0.034415f,
 -0.015169f,
 +0.040161f,
 -0.004161f,
 +0.146452f,
 +0.037491f,
 -0.040748f,
 +0.048797f,
 +0.015162f,
 -0.149760f,
 +0.027693f,
 +0.029210f,
 +0.098500f,
 -0.005169f,
 -0.007962f,
 -0.025322f,
 -0.079785f,
 -0.018043f,
 +0.037537f,
 +0.005431f,
 +0.002122f,
 -0.123321f,
 -0.039440f,
 -0.019806f,

 +0.100340f,
 +0.209875f,
 +0.025317f,
 +0.009585f,
 -0.036837f,
 -0.006784f,
 +0.075118f,
 -0.030852f,
 +0.037454f,
 -0.018714f,
 -0.003068f,
 +0.005464f,
 -0.143090f,
 +0.030874f,
 +0.117143f,
 -0.029128f,
 -0.080555f,
 +0.041753f,
 -0.025921f,
 -0.047647f,
 +0.071183f,
 -0.028300f,
 -0.005042f,
 +0.028963f,
 +0.038469f,
 -0.001614f,
 -0.014318f,
 +0.016380f,
 -0.048759f,
 -0.062314f,
 +0.062907f,
 -0.022051f,

 -0.051704f,
 -0.022301f,
 +0.012899f,
 -0.075257f,
 -0.015012f,
 -0.086468f,
 -0.036062f,
 -0.051773f,
 +0.067563f,
 -0.026369f,
 -0.014009f,
 +0.012090f,
 +0.023750f,
 -0.063939f,
 +0.044457f,
 -0.047240f,
 +0.178409f,
 +0.013602f,
 +0.054074f,
 -0.052449f,
 -0.032765f,
 -0.038251f,
 -0.039683f,
 -0.011511f,
 -0.107978f,
 -0.048042f,
 -0.006251f,
 +0.042039f,
 +0.069466f,
 +0.067234f,
 -0.066502f,
 -0.006601f,

 +0.097330f,
 -0.015563f,
 +0.039921f,
 +0.087007f,
 +0.016320f,
 -0.006089f,
 -0.054867f,
 -0.003947f,
 +0.017514f,
 -0.029720f,
 +0.029958f,
 +0.009541f,
 +0.011552f,
 -0.000382f,
 +0.030668f,
 -0.049654f,
 -0.091111f,
 -0.009956f,
 +0.008331f,
 -0.063440f,
 +0.059598f,
 -0.034535f,
 -0.068466f,
 -0.015241f,
 -0.010509f,
 +0.051275f,
 +0.017899f,
 +0.139884f,
 +0.045647f,
 -0.005209f,
 -0.009990f,
 +0.008453f,

 +0.070711f,
 +0.008150f,
 +0.048418f,
 -0.066234f,
 -0.033285f,
 +0.202801f,
 +0.058571f,
 -0.004924f,
 +0.054587f,
 +0.018619f,
 -0.005741f,
 +0.051862f,
 -0.007672f,
 +0.003074f,
 +0.062229f,
 +0.016311f,
 +0.012718f,
 -0.013586f,
 +0.018722f,
 -0.009285f,
 +0.009577f,
 -0.122985f,
 -0.109365f,
 -0.042379f,
 +0.022269f,
 -0.024402f,
 +0.027953f,
 +0.101894f,
 -0.036007f,
 +0.021155f,
 +0.050349f,
 +0.022780f,

 -0.002767f,
 +0.048406f,
 -0.073856f,
 -0.003057f,
 -0.091538f,
 -0.071253f,
 +0.003034f,
 +0.012097f,
 +0.136817f,
 +0.044960f,
 -0.054074f,
 +0.023877f,
 -0.020499f,
 +0.025856f,
 -0.082859f,
 +0.045456f,
 +0.014680f,
 +0.080762f,
 +0.015556f,
 +0.010197f,
 +0.002448f,
 +0.142331f,
 +0.028129f,
 +0.030882f,
 -0.020005f,
 -0.012604f,
 -0.000793f,
 +0.014852f,
 -0.008301f,
 -0.001148f,
 -0.006372f,
 +0.007214f,

 -0.075451f,
 +0.034703f,
 -0.013095f,
 -0.025020f,
 -0.001703f,
 -0.016111f,
 +0.068667f,
 -0.061919f,
 -0.024309f,
 -0.097379f,
 -0.089875f,
 +0.032764f,
 +0.025984f,
 -0.109320f,
 +0.174594f,
 -0.014066f,
 +0.097088f,
 +0.099339f,
 +0.023918f,
 -0.018664f,
 -0.017166f,
 -0.015160f,
 -0.086172f,
 -0.024518f,
 +0.007779f,
 -0.029755f,
 -0.039398f,
 +0.041621f,
 +0.039296f,
 +0.172603f,
 +0.003410f,
 -0.022893f,

 -0.074372f,
 -0.004813f,
 -0.023364f,
 +0.007642f,
 -0.047389f,
 -0.070256f,
 -0.046879f,
 -0.061389f,
 -0.062202f,
 -0.040339f,
 -0.039579f,
 +0.062924f,
 -0.007475f,
 +0.056911f,
 -0.024421f,
 +0.075201f,
 +0.062925f,
 -0.014379f,
 -0.034571f,
 -0.012374f,
 -0.029361f,
 +0.092578f,
 -0.006701f,
 -0.041771f,
 +0.016374f,
 -0.083025f,
 -0.057783f,
 -0.058124f,
 +0.007752f,
 -0.051372f,
 +0.074621f,
 +0.028647f,

 +0.096289f,
 -0.005175f,
 -0.005047f,
 -0.119116f,
 -0.010236f,
 -0.020110f,
 +0.051031f,
 +0.030815f,
 +0.016855f,
 +0.032066f,
 -0.035026f,
 +0.077351f,
 -0.053929f,
 +0.031033f,
 +0.043092f,
 -0.037702f,
 +0.141622f,
 +0.030756f,
 -0.010049f,
 +0.010268f,
 -0.029827f,
 -0.000402f,
 -0.016234f,
 +0.010352f,
 -0.128390f,
 +0.036217f,
 +0.021064f,
 -0.033047f,
 -0.054844f,
 -0.049551f,
 +0.129741f,
 -0.028851f,

 +0.136514f,
 +0.144474f,
 +0.096832f,
 -0.070637f,
 +0.025933f,
 -0.107329f,
 +0.183298f,
 -0.094445f,
 -0.003612f,
 -0.060949f,
 +0.031197f,
 +0.097939f,
 +0.118265f,
 -0.036782f,
 +0.218340f,
 +0.014803f,
 -0.020756f,
 -0.052843f,
 +0.040247f,
 -0.005708f,
 +0.009565f,
 -0.005429f,
 -0.031794f,
 -0.050566f,
 -0.051532f,
 -0.157831f,
 -0.058110f,
 -0.020684f,
 -0.010133f,
 +0.029072f,
 +0.046339f,
 +0.039596f,

 +0.122470f,
 +0.027950f,
 +0.026502f,
 -0.064571f,
 -0.007142f,
 +0.092004f,
 +0.105015f,
 -0.082870f,
 +0.027649f,
 +0.007866f,
 +0.012904f,
 -0.000603f,
 -0.040547f,
 +0.013834f,
 +0.042785f,
 +0.008443f,
 -0.059693f,
 +0.096863f,
 +0.004917f,
 +0.000862f,
 +0.084609f,
 -0.061444f,
 -0.040208f,
 -0.057646f,
 +0.046237f,
 -0.035309f,
 -0.006928f,
 +0.087334f,
 -0.027456f,
 +0.048121f,
 +0.082135f,
 +0.005810f,

 +0.059895f,
 +0.029799f,
 +0.085755f,
 -0.111422f,
 +0.072855f,
 +0.062693f,
 +0.056062f,
 +0.002862f,
 -0.039858f,
 +0.065354f,
 +0.084692f,
 +0.028389f,
 +0.027263f,
 -0.027784f,
 +0.035810f,
 -0.035463f,
 -0.030291f,
 -0.074392f,
 -0.000457f,
 +0.030663f,
 +0.059138f,
 -0.053437f,
 +0.003932f,
 -0.019002f,
 -0.083783f,
 -0.018956f,
 +0.076889f,
 -0.035833f,
 -0.054706f,
 -0.155682f,
 -0.080036f,
 -0.065270f,

 -0.003481f,
 -0.019584f,
 +0.050849f,
 +0.053407f,
 -0.046839f,
 +0.020451f,
 -0.005016f,
 +0.041617f,
 +0.087580f,
 +0.004896f,
 +0.145501f,
 +0.038589f,
 -0.053269f,
 -0.020760f,
 +0.110043f,
 -0.090348f,
 -0.027497f,
 -0.071613f,
 +0.005729f,
 -0.060609f,
 +0.024554f,
 -0.092504f,
 -0.116796f,
 +0.057014f,
 +0.037465f,
 +0.005039f,
 +0.035373f,
 -0.016989f,
 -0.033054f,
 -0.146821f,
 -0.005143f,
 +0.037980f,

 -0.032608f,
 +0.010587f,
 -0.006596f,
 +0.018201f,
 +0.046212f,
 -0.057224f,
 +0.114355f,
 -0.010096f,
 -0.100274f,
 -0.057558f,
 +0.004305f,
 -0.063767f,
 -0.008634f,
 +0.144720f,
 -0.022324f,
 -0.042331f,
 +0.021455f,
 -0.008686f,
 +0.000224f,
 -0.038036f,
 +0.011526f,
 +0.161747f,
 +0.098170f,
 -0.013150f,
 +0.013132f,
 +0.011110f,
 -0.006990f,
 -0.038097f,
 +0.106425f,
 +0.127000f,
 -0.033798f,
 +0.050741f,

 -0.152815f,
 -0.018589f,
 -0.025936f,
 +0.013367f,
 +0.078795f,
 -0.146583f,
 -0.000517f,
 -0.096090f,
 -0.015390f,
 +0.005174f,
 +0.126647f,
 -0.089081f,
 -0.114590f,
 +0.065662f,
 +0.054165f,
 +0.090849f,
 -0.085522f,
 -0.139414f,
 +0.051110f,
 -0.078913f,
 +0.067127f,
 +0.034883f,
 -0.019273f,
 +0.002001f,
 +0.048062f,
 -0.028299f,
 -0.037053f,
 +0.113633f,
 +0.012057f,
 -0.049751f,
 +0.002127f,
 +0.069188f,

 +0.174449f,
 +0.078004f,
 +0.015531f,
 -0.106086f,
 -0.007307f,
 +0.026736f,
 -0.008245f,
 +0.021471f,
 +0.131287f,
 +0.010888f,
 -0.097457f,
 +0.022792f,
 +0.043642f,
 -0.074944f,
 -0.043892f,
 -0.081089f,
 -0.071926f,
 +0.056137f,
 +0.005746f,
 -0.079114f,
 -0.069457f,
 -0.095295f,
 -0.058079f,
 -0.070541f,
 -0.006898f,
 -0.019550f,
 -0.053973f,
 -0.096633f,
 +0.075847f,
 -0.003908f,
 +0.128970f,
 +0.091990f,

 -0.035964f,
 +0.001608f,
 +0.083818f,
 -0.051197f,
 -0.032741f,
 +0.021964f,
 +0.068707f,
 -0.021846f,
 -0.043646f,
 +0.052358f,
 +0.007631f,
 +0.044593f,
 +0.055132f,
 +0.006809f,
 +0.000616f,
 +0.094192f,
 +0.077293f,
 -0.111808f,
 +0.052748f,
 -0.037659f,
 -0.097852f,
 +0.005029f,
 -0.096135f,
 +0.028714f,
 -0.004507f,
 -0.073242f,
 -0.052493f,
 -0.030486f,
 +0.049377f,
 +0.014370f,
 +0.039045f,
 +0.009545f,

 -0.028344f,
 -0.019999f,
 +0.009698f,
 +0.017975f,
 +0.071124f,
 +0.007909f,
 +0.024456f,
 -0.032056f,
 -0.104099f,
 -0.047477f,
 +0.079705f,
 -0.000707f,
 -0.056543f,
 -0.012564f,
 +0.039864f,
 -0.025508f,
 -0.110636f,
 +0.123542f,
 -0.064047f,
 +0.014077f,
 +0.009715f,
 -0.057440f,
 +0.024055f,
 -0.030649f,
 +0.030920f,
 -0.009296f,
 -0.013278f,
 -0.068465f,
 -0.058087f,
 -0.026768f,
 -0.027321f,
 +0.018861f,

};

const float CONV4_BN2_WEIGHT[] = 
{
//    (32,),
 +3.046829f, +4.090158f, +3.789855f, +3.152987f, +3.600578f, +4.215893f, +3.300066f, +3.563978f, +3.862944f, +4.211020f, +3.696683f, +4.688520f, +3.509700f, +4.803454f, +3.606158f, +3.396129f, +5.337706f, +4.043189f, +3.173837f, +4.264723f, +2.968785f, +4.713508f, +4.049583f, +3.058144f, +3.108404f, +3.377147f, +3.414377f, +3.464958f, +3.302262f, +3.651923f, +4.942805f, +5.425071f,
};

const float CONV4_BN2_BIAS[] = 
{
//    32,
 +0.124562f, +0.035751f, -0.112048f, +0.489399f, +0.304972f, -0.026276f, +0.307486f, +0.256759f, +0.286287f, -0.080844f, +0.125239f, +0.165185f, +0.018394f, +0.264033f, +0.063698f, +0.100866f, +0.386417f, +0.005776f, +0.008759f, -0.089376f, +0.023227f, +0.276636f, +0.082344f, +0.070051f, -0.036122f, +0.159127f, +0.170434f, -0.250448f, +0.200930f, +0.207334f, +0.157251f, +0.204667f,
};

const float CONV5_CONV1_WEIGHT[] = 
{
//    32, 1, 3, 3
 +0.140892f, +0.148434f, +0.043498f, -0.003444f, -0.032533f, -0.087487f, -0.074308f, -0.115201f, -0.094604f,

 -0.034241f, -0.079451f, -0.035352f, -0.058685f, -0.145053f, -0.081967f, -0.037372f, -0.078417f, -0.053047f,

 +0.098084f, -0.032256f, -0.164838f, +0.086562f, +0.084911f, -0.082398f, -0.022879f, +0.115258f, +0.042313f,

 +0.068850f, +0.159147f, +0.107229f, +0.036565f, +0.028084f, +0.027139f, -0.075465f, -0.161668f, -0.129410f,

 +0.070304f, -0.051009f, -0.090406f, +0.140432f, -0.004352f, -0.120735f, +0.098100f, +0.057953f, -0.076529f,

 -0.005025f, +0.022331f, +0.035897f, -0.101962f, -0.102696f, -0.075296f, -0.088177f, -0.100646f, -0.097536f,

 +0.053533f, +0.088950f, +0.000726f, +0.087287f, +0.158458f, +0.063144f, +0.040293f, +0.146144f, +0.086056f,

 +0.011408f, +0.068666f, +0.058069f, +0.059242f, +0.117205f, +0.094563f, +0.056880f, +0.113504f, +0.059954f,

 -0.112346f, -0.089914f, +0.003506f, -0.083914f, -0.139681f, -0.136278f, +0.047304f, +0.004466f, -0.137503f,

 -0.057562f, -0.076228f, -0.010260f, -0.049786f, -0.130809f, -0.101054f, +0.000636f, -0.051682f, -0.103890f,

 +0.023762f, +0.072571f, +0.070817f, +0.080282f, +0.141991f, +0.080220f, +0.088357f, +0.067104f, +0.018017f,

 +0.017277f, +0.085963f, +0.061040f, +0.024858f, +0.041243f, +0.029315f, -0.037756f, -0.132781f, -0.134818f,

 +0.021036f, +0.069060f, +0.083666f, +0.056404f, +0.101492f, +0.088817f, +0.077358f, +0.088154f, +0.072051f,

 -0.154804f, -0.120286f, -0.091262f, -0.103155f, -0.041805f, -0.088914f, +0.003238f, +0.044014f, +0.001849f,

 -0.009556f, -0.041881f, -0.115326f, -0.036353f, -0.067755f, -0.140297f, -0.049585f, -0.133206f, -0.074899f,

 -0.050852f, -0.054237f, -0.042986f, -0.060901f, -0.112641f, -0.109995f, -0.033263f, -0.083038f, -0.090871f,

 -0.088274f, -0.168798f, -0.173274f, +0.025706f, +0.072791f, +0.084176f, +0.017942f, +0.092031f, +0.077923f,

 -0.088430f, -0.005347f, +0.110662f, -0.051083f, -0.097229f, -0.045962f, -0.071737f, -0.112868f, -0.077904f,

 -0.078495f, -0.183897f, -0.172697f, -0.023333f, +0.002111f, +0.035624f, +0.090788f, +0.205018f, +0.155943f,

 +0.104203f, +0.091967f, +0.027811f, +0.108725f, +0.079737f, +0.056014f, +0.060221f, +0.095146f, -0.015459f,

 +0.104993f, +0.146073f, +0.018068f, +0.118599f, +0.164958f, +0.046903f, +0.021866f, +0.024529f, +0.031043f,

 -0.136849f, -0.091945f, -0.018212f, -0.089133f, -0.026137f, +0.024994f, -0.082649f, -0.073946f, -0.064316f,

 -0.085745f, -0.019492f, +0.044451f, -0.147218f, -0.088000f, -0.034769f, -0.086626f, -0.083553f, -0.067332f,

 +0.035425f, +0.100732f, +0.074669f, +0.044079f, +0.155378f, +0.137743f, +0.000952f, +0.056205f, +0.078384f,

 -0.069646f, -0.075981f, -0.022665f, +0.120741f, +0.150838f, +0.104382f, -0.077933f, -0.048336f, -0.092913f,

 +0.034416f, -0.051196f, -0.105972f, +0.111286f, +0.046428f, -0.150498f, +0.095395f, +0.074800f, -0.046295f,

 -0.020586f, +0.047100f, +0.072227f, +0.010670f, +0.107674f, +0.123728f, +0.044165f, +0.077979f, +0.047222f,

 +0.051641f, +0.101637f, +0.023906f, +0.076425f, +0.147548f, +0.088716f, +0.057865f, +0.112060f, +0.101396f,

 +0.016489f, +0.100850f, +0.066207f, +0.026510f, +0.100159f, +0.124264f, +0.006109f, +0.049035f, +0.095753f,

 +0.001236f, +0.107429f, +0.112949f, +0.063190f, +0.147628f, +0.129293f, +0.038971f, +0.058089f, +0.021016f,

 -0.099017f, -0.147973f, -0.087583f, -0.022935f, +0.017586f, +0.002928f, +0.120718f, +0.141934f, +0.080310f,

 -0.009587f, -0.022595f, -0.002396f, -0.133660f, -0.097135f, -0.061991f, -0.111314f, -0.072954f, -0.074953f,

};

const float CONV5_BN1_WEIGHT[] = 
{
//    (32,),
 +3.606850f, +3.829861f, +4.054476f, +4.646241f, +3.954261f, +3.130443f, +2.615485f, +3.146032f, +3.238626f, +4.709544f, +2.952710f, +5.625691f, +3.973573f, +3.766221f, +5.053955f, +3.025075f, +3.736031f, +3.292148f, +3.328810f, +1.896097f, +2.453836f, +3.538986f, +3.729996f, +2.522830f, +4.945790f, +7.417143f, +4.050762f, +2.400521f, +3.457914f, +2.837020f, +3.943646f, +4.121233f,
};

const float CONV5_BN1_BIAS[] = 
{
//    32,
 +0.149399f, +0.548117f, -0.075525f, -0.057937f, +0.034079f, +0.287984f, +0.054521f, -0.093984f, +0.503583f, +0.443156f, +0.010428f, +0.038768f, -0.442921f, +0.344142f, +0.478048f, +0.527517f, +0.026001f, +0.279359f, +0.001285f, -0.133616f, +0.023623f, +0.295376f, +0.428780f, +0.009063f, -0.033659f, +0.013636f, -0.187733f, -0.096418f, -0.047331f, -0.133349f, -0.003570f, +0.359816f,
};

const float CONV5_CONV2_WEIGHT[] = 
{
//    48, 32, 1, 1
 -0.024421f,
 +0.001139f,
 -0.020476f,
 +0.071938f,
 -0.035338f,
 +0.001192f,
 -0.020065f,
 -0.007819f,
 +0.047248f,
 -0.004250f,
 -0.059799f,
 +0.015849f,
 +0.018063f,
 -0.029808f,
 +0.054677f,
 -0.016204f,
 -0.024523f,
 +0.027132f,
 -0.032102f,
 -0.077819f,
 +0.051153f,
 +0.045531f,
 +0.083803f,
 +0.023796f,
 +0.045506f,
 -0.011909f,
 +0.020838f,
 -0.073702f,
 +0.117625f,
 -0.109178f,
 -0.001253f,
 -0.027771f,

 -0.007776f,
 -0.020806f,
 +0.027347f,
 -0.012486f,
 +0.077310f,
 -0.050794f,
 +0.071638f,
 -0.038255f,
 +0.000452f,
 -0.034986f,
 +0.060373f,
 +0.003288f,
 -0.056284f,
 -0.032729f,
 +0.040849f,
 -0.062476f,
 +0.015736f,
 -0.079778f,
 +0.016826f,
 +0.127074f,
 -0.037904f,
 -0.032080f,
 -0.086170f,
 +0.034330f,
 -0.025105f,
 +0.006889f,
 +0.011137f,
 +0.042246f,
 -0.115088f,
 +0.033787f,
 +0.047865f,
 +0.046960f,

 -0.031343f,
 +0.082431f,
 +0.105670f,
 +0.022415f,
 -0.003334f,
 -0.016689f,
 -0.063586f,
 +0.047729f,
 -0.000059f,
 +0.009379f,
 +0.156791f,
 -0.032553f,
 -0.030983f,
 -0.082340f,
 -0.025070f,
 -0.076058f,
 -0.008553f,
 -0.000086f,
 -0.015284f,
 -0.034521f,
 +0.006782f,
 +0.003928f,
 +0.018657f,
 +0.010415f,
 -0.010370f,
 +0.150880f,
 -0.038034f,
 -0.044194f,
 -0.028850f,
 -0.135829f,
 -0.014281f,
 -0.020432f,

 +0.032889f,
 -0.009224f,
 +0.018709f,
 +0.039846f,
 -0.021699f,
 -0.091750f,
 +0.018210f,
 +0.033534f,
 +0.071189f,
 -0.032708f,
 -0.116300f,
 +0.011168f,
 -0.085076f,
 +0.036896f,
 -0.042292f,
 -0.045008f,
 +0.033627f,
 -0.053719f,
 +0.079405f,
 -0.053681f,
 +0.006490f,
 +0.056384f,
 -0.045235f,
 +0.184159f,
 +0.039819f,
 -0.028965f,
 +0.025199f,
 +0.035329f,
 -0.010104f,
 +0.016470f,
 +0.092544f,
 -0.027193f,

 +0.039853f,
 -0.056661f,
 -0.025207f,
 -0.024295f,
 +0.032960f,
 +0.004548f,
 +0.128520f,
 -0.025215f,
 +0.016930f,
 -0.036907f,
 -0.061300f,
 +0.006439f,
 -0.049155f,
 -0.050836f,
 +0.027288f,
 -0.017263f,
 +0.003534f,
 -0.080646f,
 -0.044049f,
 +0.031847f,
 +0.003955f,
 +0.118350f,
 -0.059693f,
 -0.034070f,
 -0.036138f,
 +0.040082f,
 -0.004032f,
 -0.015531f,
 +0.009839f,
 +0.110778f,
 -0.078672f,
 +0.016330f,

 -0.024866f,
 +0.185935f,
 -0.040725f,
 +0.094819f,
 -0.027512f,
 +0.057696f,
 -0.084705f,
 -0.005435f,
 -0.005867f,
 +0.145779f,
 +0.039301f,
 +0.082002f,
 -0.019767f,
 +0.040031f,
 -0.051340f,
 -0.070746f,
 +0.082258f,
 -0.063220f,
 +0.052160f,
 -0.052421f,
 +0.169687f,
 -0.001460f,
 -0.028498f,
 -0.019885f,
 +0.050343f,
 -0.005914f,
 +0.094787f,
 -0.026006f,
 -0.079856f,
 -0.023132f,
 +0.044944f,
 +0.001413f,

 -0.022719f,
 -0.004278f,
 +0.084832f,
 +0.038874f,
 +0.113913f,
 -0.006251f,
 +0.001181f,
 -0.030221f,
 -0.024776f,
 +0.003499f,
 +0.152612f,
 -0.036888f,
 -0.012505f,
 +0.016684f,
 -0.069755f,
 -0.122139f,
 -0.037114f,
 -0.035300f,
 +0.045662f,
 +0.024193f,
 +0.000261f,
 +0.034078f,
 -0.015632f,
 -0.004899f,
 +0.017933f,
 +0.029071f,
 +0.022342f,
 -0.015567f,
 -0.046129f,
 +0.019930f,
 -0.006552f,
 +0.032581f,

 +0.022933f,
 +0.021159f,
 -0.046692f,
 +0.025202f,
 -0.045500f,
 +0.136809f,
 -0.099901f,
 +0.037498f,
 +0.076619f,
 +0.036880f,
 -0.049936f,
 -0.037788f,
 +0.014741f,
 -0.002778f,
 +0.009774f,
 +0.092556f,
 -0.042761f,
 +0.099231f,
 +0.017702f,
 -0.019610f,
 -0.058257f,
 -0.005858f,
 +0.055355f,
 -0.032580f,
 -0.004383f,
 -0.030664f,
 +0.083907f,
 -0.091447f,
 +0.012762f,
 -0.059770f,
 -0.025960f,
 -0.041483f,

 -0.000291f,
 -0.014940f,
 +0.015542f,
 +0.016590f,
 +0.102098f,
 +0.046126f,
 +0.085262f,
 -0.084101f,
 -0.021724f,
 -0.059052f,
 +0.023317f,
 -0.035013f,
 +0.032386f,
 -0.049170f,
 +0.017571f,
 -0.060154f,
 -0.042096f,
 -0.127740f,
 -0.049412f,
 -0.032118f,
 +0.026368f,
 +0.037481f,
 +0.026636f,
 -0.091229f,
 -0.078504f,
 -0.031375f,
 -0.006169f,
 -0.014103f,
 +0.002572f,
 +0.114299f,
 -0.063541f,
 +0.000910f,

 -0.086539f,
 +0.036413f,
 +0.059523f,
 -0.029460f,
 -0.002020f,
 -0.085763f,
 -0.078717f,
 +0.047542f,
 +0.063389f,
 -0.090665f,
 +0.042928f,
 +0.040328f,
 +0.006504f,
 +0.004769f,
 +0.029317f,
 +0.054856f,
 -0.004945f,
 +0.021113f,
 +0.002264f,
 +0.024303f,
 -0.041124f,
 +0.010469f,
 +0.041456f,
 +0.032595f,
 -0.056826f,
 -0.039757f,
 -0.014139f,
 +0.085873f,
 +0.055309f,
 -0.047262f,
 +0.029266f,
 -0.046311f,

 +0.032843f,
 -0.032322f,
 -0.094706f,
 -0.015130f,
 +0.000643f,
 -0.023674f,
 -0.075897f,
 +0.044446f,
 -0.066599f,
 -0.110671f,
 -0.143539f,
 +0.019604f,
 -0.099809f,
 -0.003222f,
 +0.047563f,
 -0.057811f,
 -0.046241f,
 -0.004825f,
 -0.045387f,
 +0.025930f,
 +0.006214f,
 -0.046231f,
 -0.000663f,
 +0.069080f,
 -0.012433f,
 -0.065556f,
 -0.081519f,
 +0.034614f,
 +0.005517f,
 +0.113210f,
 -0.035501f,
 +0.049894f,

 +0.004487f,
 -0.076506f,
 -0.011846f,
 +0.001533f,
 +0.002273f,
 -0.016562f,
 -0.016939f,
 -0.141994f,
 -0.001195f,
 -0.051905f,
 -0.078080f,
 +0.028789f,
 -0.130555f,
 +0.030428f,
 -0.019780f,
 -0.030645f,
 +0.011528f,
 +0.025626f,
 +0.080883f,
 +0.009281f,
 -0.046061f,
 -0.071631f,
 +0.021648f,
 +0.161912f,
 -0.001016f,
 -0.044009f,
 +0.003733f,
 +0.026929f,
 -0.001982f,
 +0.020890f,
 +0.037578f,
 -0.042741f,

 +0.029699f,
 +0.102728f,
 +0.035478f,
 +0.035737f,
 +0.040862f,
 +0.051549f,
 +0.023948f,
 -0.004466f,
 +0.002811f,
 +0.005031f,
 -0.008830f,
 -0.063278f,
 +0.015505f,
 +0.038268f,
 -0.033699f,
 +0.058090f,
 -0.023020f,
 +0.032177f,
 +0.061285f,
 -0.015465f,
 -0.083348f,
 -0.004079f,
 -0.007742f,
 -0.224807f,
 -0.025142f,
 +0.016475f,
 +0.022185f,
 -0.033022f,
 +0.108580f,
 +0.038944f,
 -0.014217f,
 +0.047807f,

 +0.105318f,
 -0.029111f,
 +0.037289f,
 +0.010531f,
 -0.025858f,
 +0.046496f,
 -0.084965f,
 +0.019919f,
 -0.031882f,
 -0.004317f,
 -0.003395f,
 -0.017437f,
 -0.126472f,
 -0.006903f,
 +0.054253f,
 -0.014492f,
 +0.009042f,
 +0.072320f,
 +0.012148f,
 +0.013825f,
 +0.037644f,
 -0.045572f,
 +0.005737f,
 -0.006333f,
 +0.050714f,
 +0.004347f,
 -0.079632f,
 +0.095116f,
 +0.083546f,
 +0.045868f,
 +0.030147f,
 -0.018306f,

 -0.035701f,
 -0.118679f,
 +0.045860f,
 -0.013216f,
 +0.014699f,
 +0.014181f,
 +0.050291f,
 -0.077810f,
 -0.048499f,
 -0.024675f,
 -0.026496f,
 -0.038462f,
 -0.073879f,
 -0.023141f,
 +0.021913f,
 +0.019232f,
 -0.052073f,
 -0.023589f,
 +0.001657f,
 +0.071422f,
 -0.092403f,
 -0.064860f,
 +0.073999f,
 -0.120522f,
 -0.020795f,
 -0.012956f,
 -0.038629f,
 +0.117802f,
 +0.069927f,
 +0.007155f,
 -0.011840f,
 +0.001112f,

 -0.057876f,
 +0.080233f,
 +0.055380f,
 +0.039687f,
 +0.149292f,
 -0.072469f,
 -0.035807f,
 -0.023545f,
 +0.000119f,
 +0.013128f,
 +0.078710f,
 -0.058285f,
 +0.029802f,
 +0.008574f,
 -0.101043f,
 -0.029132f,
 +0.035937f,
 -0.007629f,
 +0.006424f,
 -0.053296f,
 +0.005278f,
 -0.055856f,
 +0.023666f,
 -0.027002f,
 -0.006859f,
 -0.000774f,
 +0.021436f,
 -0.094945f,
 -0.091422f,
 -0.026204f,
 +0.033842f,
 -0.000903f,

 -0.015451f,
 +0.022471f,
 +0.019570f,
 +0.014258f,
 -0.033587f,
 -0.078764f,
 -0.016374f,
 -0.129052f,
 +0.030502f,
 +0.022715f,
 +0.058163f,
 +0.014756f,
 -0.055938f,
 -0.033614f,
 +0.033825f,
 -0.032736f,
 +0.041999f,
 -0.028326f,
 +0.063123f,
 +0.028499f,
 +0.183913f,
 +0.034373f,
 -0.041674f,
 +0.010653f,
 -0.009620f,
 -0.001715f,
 -0.030448f,
 -0.006101f,
 +0.046226f,
 -0.058686f,
 +0.067827f,
 +0.006417f,

 -0.015027f,
 -0.016539f,
 -0.067763f,
 +0.024818f,
 -0.030822f,
 -0.027972f,
 +0.022602f,
 +0.043438f,
 -0.016236f,
 -0.097520f,
 -0.103127f,
 +0.053782f,
 -0.103760f,
 -0.001221f,
 +0.071333f,
 -0.047853f,
 +0.011882f,
 -0.060409f,
 +0.031865f,
 +0.021489f,
 +0.053505f,
 +0.033316f,
 -0.049433f,
 +0.133790f,
 +0.003605f,
 +0.056523f,
 -0.035477f,
 -0.036594f,
 -0.024692f,
 +0.111742f,
 -0.009109f,
 -0.067484f,

 -0.017435f,
 +0.040744f,
 -0.017856f,
 +0.057160f,
 +0.064141f,
 +0.039844f,
 -0.001824f,
 -0.006942f,
 +0.107570f,
 +0.077269f,
 -0.023684f,
 -0.027081f,
 -0.002970f,
 -0.015650f,
 +0.074945f,
 -0.014635f,
 -0.060516f,
 +0.024668f,
 -0.068596f,
 +0.040858f,
 -0.015551f,
 +0.008514f,
 +0.071064f,
 +0.028398f,
 +0.022471f,
 -0.058853f,
 -0.004652f,
 -0.051220f,
 +0.146345f,
 -0.052465f,
 -0.114889f,
 +0.024822f,

 -0.004250f,
 -0.108256f,
 +0.006733f,
 +0.006902f,
 +0.018156f,
 -0.034525f,
 +0.089093f,
 -0.013832f,
 +0.059620f,
 -0.038826f,
 +0.012053f,
 -0.006945f,
 +0.033135f,
 -0.029145f,
 -0.032409f,
 -0.050450f,
 +0.008612f,
 -0.000191f,
 +0.031973f,
 +0.021677f,
 -0.129942f,
 +0.030796f,
 -0.014032f,
 -0.009561f,
 +0.025850f,
 +0.052504f,
 -0.022421f,
 +0.007443f,
 -0.002892f,
 +0.107792f,
 +0.039593f,
 +0.004269f,

 +0.097165f,
 +0.007664f,
 +0.010401f,
 +0.081548f,
 -0.038839f,
 -0.022620f,
 -0.030073f,
 +0.104912f,
 -0.042509f,
 +0.010266f,
 -0.019012f,
 +0.055544f,
 -0.010917f,
 -0.009394f,
 +0.025871f,
 +0.036152f,
 +0.067607f,
 -0.035725f,
 -0.075693f,
 -0.001538f,
 -0.001072f,
 -0.011186f,
 +0.053158f,
 +0.043965f,
 +0.092512f,
 +0.007155f,
 -0.036022f,
 -0.028122f,
 +0.046968f,
 -0.018946f,
 +0.043235f,
 +0.023573f,

 -0.021523f,
 -0.073956f,
 +0.012173f,
 +0.003646f,
 -0.037149f,
 -0.008190f,
 +0.003253f,
 -0.129191f,
 -0.002150f,
 -0.052090f,
 -0.042017f,
 +0.063956f,
 -0.085818f,
 +0.012034f,
 -0.071070f,
 -0.055107f,
 +0.006880f,
 +0.019031f,
 +0.048333f,
 +0.077085f,
 -0.072505f,
 -0.029871f,
 +0.046757f,
 +0.093429f,
 +0.004766f,
 +0.016189f,
 +0.010581f,
 +0.157559f,
 -0.008392f,
 -0.013898f,
 +0.005806f,
 +0.003918f,

 +0.055950f,
 -0.027537f,
 -0.026301f,
 +0.082808f,
 +0.032427f,
 +0.004929f,
 -0.036651f,
 -0.013773f,
 +0.041829f,
 -0.085811f,
 +0.007979f,
 +0.056996f,
 -0.075581f,
 -0.042749f,
 -0.077007f,
 -0.051285f,
 +0.089403f,
 -0.000554f,
 +0.041956f,
 +0.053877f,
 -0.017139f,
 +0.029799f,
 +0.001842f,
 +0.095159f,
 +0.045148f,
 +0.048730f,
 +0.031470f,
 -0.008457f,
 +0.006306f,
 +0.051640f,
 +0.030701f,
 -0.009570f,

 +0.017959f,
 -0.046279f,
 +0.036158f,
 +0.008738f,
 +0.053657f,
 -0.000143f,
 -0.018387f,
 -0.026023f,
 +0.058285f,
 +0.014150f,
 -0.015529f,
 +0.013837f,
 -0.087334f,
 -0.019773f,
 +0.020677f,
 -0.063880f,
 +0.064680f,
 -0.076929f,
 -0.028827f,
 +0.057055f,
 -0.036407f,
 -0.036115f,
 +0.064641f,
 +0.065974f,
 -0.004351f,
 -0.035281f,
 -0.007381f,
 +0.065837f,
 +0.023391f,
 -0.088845f,
 +0.081072f,
 -0.000406f,

 +0.033251f,
 +0.081695f,
 -0.063704f,
 +0.010795f,
 -0.009003f,
 +0.049251f,
 -0.093337f,
 +0.007422f,
 +0.088510f,
 +0.022238f,
 -0.004225f,
 +0.022540f,
 -0.002053f,
 -0.048826f,
 +0.020139f,
 -0.051372f,
 +0.018743f,
 +0.012256f,
 -0.003165f,
 +0.035623f,
 +0.054373f,
 -0.004000f,
 -0.011400f,
 +0.075481f,
 +0.013306f,
 +0.061456f,
 +0.005600f,
 +0.085404f,
 +0.055544f,
 -0.046855f,
 +0.019130f,
 -0.047761f,

 -0.072827f,
 -0.037156f,
 +0.005973f,
 +0.012533f,
 -0.076642f,
 -0.070598f,
 +0.028019f,
 -0.012586f,
 -0.028555f,
 -0.081016f,
 +0.123426f,
 -0.031168f,
 +0.018203f,
 -0.039681f,
 -0.010658f,
 -0.142875f,
 +0.014768f,
 -0.001674f,
 +0.029539f,
 -0.116506f,
 -0.124885f,
 +0.005481f,
 -0.056143f,
 -0.007769f,
 -0.009130f,
 +0.079467f,
 +0.047175f,
 +0.002749f,
 -0.077548f,
 +0.016339f,
 +0.020247f,
 -0.012676f,

 +0.089307f,
 -0.101863f,
 +0.023999f,
 -0.010906f,
 +0.024771f,
 -0.080180f,
 +0.062628f,
 -0.032753f,
 -0.023623f,
 -0.024907f,
 -0.097767f,
 +0.025788f,
 -0.078976f,
 -0.009068f,
 +0.024199f,
 -0.045193f,
 +0.005547f,
 +0.017845f,
 -0.025671f,
 +0.051981f,
 -0.060882f,
 -0.003983f,
 -0.044212f,
 -0.006005f,
 +0.035051f,
 -0.036681f,
 -0.031137f,
 -0.005422f,
 -0.011466f,
 +0.115653f,
 -0.070631f,
 +0.014075f,

 -0.104858f,
 -0.090758f,
 +0.089043f,
 -0.042839f,
 +0.031244f,
 -0.085483f,
 +0.089089f,
 -0.157035f,
 -0.040544f,
 -0.092345f,
 +0.061722f,
 -0.028961f,
 -0.110373f,
 -0.067787f,
 -0.029897f,
 +0.012208f,
 -0.014286f,
 -0.049103f,
 -0.052255f,
 +0.025435f,
 -0.090540f,
 +0.009005f,
 -0.003176f,
 -0.015999f,
 -0.116381f,
 +0.033798f,
 -0.047196f,
 +0.027136f,
 +0.061999f,
 +0.016778f,
 -0.015003f,
 -0.018043f,

 -0.037733f,
 +0.016041f,
 -0.015325f,
 +0.016197f,
 -0.011410f,
 -0.046850f,
 +0.094484f,
 -0.086360f,
 +0.054201f,
 +0.049053f,
 +0.031375f,
 +0.002410f,
 -0.097146f,
 -0.144389f,
 -0.059921f,
 -0.004461f,
 +0.001883f,
 -0.016436f,
 +0.036138f,
 -0.048311f,
 -0.028700f,
 -0.005873f,
 -0.028625f,
 +0.095254f,
 -0.012720f,
 +0.058269f,
 -0.076506f,
 +0.080128f,
 -0.004822f,
 -0.008912f,
 -0.006070f,
 +0.031550f,

 +0.030506f,
 -0.049064f,
 -0.050345f,
 +0.069026f,
 -0.009764f,
 -0.084188f,
 +0.027420f,
 -0.049685f,
 -0.086546f,
 -0.080680f,
 +0.038934f,
 +0.021612f,
 +0.026074f,
 -0.080017f,
 -0.049578f,
 -0.084969f,
 +0.026557f,
 -0.013006f,
 -0.019539f,
 +0.000038f,
 +0.026172f,
 -0.015545f,
 -0.110137f,
 -0.027076f,
 -0.000425f,
 -0.026657f,
 +0.072984f,
 -0.084264f,
 -0.150041f,
 +0.054219f,
 +0.039331f,
 -0.041603f,

 +0.093250f,
 -0.026599f,
 +0.008467f,
 -0.022340f,
 +0.025815f,
 +0.024440f,
 +0.020802f,
 +0.011351f,
 +0.089842f,
 -0.051810f,
 +0.002682f,
 -0.033456f,
 +0.092991f,
 +0.028282f,
 +0.083544f,
 +0.044299f,
 +0.016712f,
 -0.052341f,
 +0.044301f,
 +0.028737f,
 -0.051094f,
 +0.051572f,
 +0.007209f,
 +0.004173f,
 +0.012677f,
 -0.023514f,
 +0.038658f,
 -0.049826f,
 +0.044820f,
 -0.078529f,
 -0.010759f,
 +0.067652f,

 +0.080452f,
 -0.035813f,
 +0.080225f,
 +0.046117f,
 +0.019361f,
 +0.011658f,
 -0.134762f,
 +0.074826f,
 -0.053969f,
 -0.043582f,
 +0.050469f,
 -0.005331f,
 -0.060210f,
 -0.005029f,
 -0.035158f,
 -0.043810f,
 -0.003650f,
 -0.101744f,
 +0.051008f,
 -0.020232f,
 +0.017978f,
 -0.043718f,
 +0.027690f,
 +0.074247f,
 +0.057731f,
 +0.006935f,
 +0.072793f,
 -0.008560f,
 +0.002418f,
 +0.052065f,
 -0.016083f,
 -0.026752f,

 -0.025174f,
 +0.010712f,
 +0.019555f,
 +0.066064f,
 -0.024233f,
 -0.009611f,
 -0.054546f,
 +0.052884f,
 -0.032149f,
 +0.049961f,
 -0.059900f,
 -0.042052f,
 +0.012655f,
 -0.057403f,
 +0.064001f,
 +0.040099f,
 -0.011795f,
 +0.025815f,
 -0.079113f,
 +0.020935f,
 +0.127895f,
 -0.070787f,
 +0.040894f,
 -0.032357f,
 +0.058550f,
 +0.005849f,
 -0.054973f,
 +0.029082f,
 -0.041128f,
 +0.025500f,
 -0.041748f,
 +0.004775f,

 -0.011270f,
 +0.005692f,
 +0.061968f,
 -0.084432f,
 -0.058884f,
 +0.005589f,
 +0.015064f,
 -0.015105f,
 -0.029375f,
 +0.046968f,
 +0.052763f,
 -0.011457f,
 +0.049947f,
 -0.009595f,
 +0.051861f,
 +0.032835f,
 -0.004726f,
 +0.114417f,
 -0.008218f,
 +0.025532f,
 +0.141371f,
 -0.001558f,
 +0.015437f,
 -0.066400f,
 -0.025983f,
 -0.042091f,
 -0.106737f,
 +0.096337f,
 -0.048826f,
 -0.066831f,
 -0.001541f,
 -0.035476f,

 +0.193377f,
 -0.024883f,
 +0.027451f,
 +0.028905f,
 +0.037177f,
 +0.086338f,
 -0.044550f,
 -0.030056f,
 +0.043838f,
 -0.030495f,
 -0.025880f,
 -0.034738f,
 -0.035507f,
 +0.051117f,
 +0.023719f,
 +0.005695f,
 -0.007017f,
 -0.017155f,
 -0.066346f,
 -0.037549f,
 +0.113467f,
 -0.053281f,
 +0.028655f,
 -0.121651f,
 +0.094515f,
 -0.019609f,
 -0.064336f,
 -0.093422f,
 +0.101319f,
 +0.038609f,
 -0.063562f,
 +0.024298f,

 -0.046695f,
 -0.006841f,
 -0.040123f,
 +0.074706f,
 +0.058793f,
 +0.011239f,
 +0.126655f,
 -0.108911f,
 +0.104217f,
 +0.072773f,
 -0.021011f,
 +0.056460f,
 -0.105583f,
 -0.086960f,
 -0.074519f,
 -0.006616f,
 +0.049078f,
 +0.014128f,
 +0.077712f,
 -0.068972f,
 -0.006201f,
 +0.008163f,
 -0.041887f,
 +0.029876f,
 +0.057910f,
 +0.080194f,
 -0.041454f,
 +0.078605f,
 -0.015307f,
 -0.084183f,
 +0.062302f,
 +0.002557f,

 +0.030955f,
 -0.063396f,
 +0.005678f,
 +0.018487f,
 -0.005479f,
 +0.037715f,
 +0.079663f,
 -0.129047f,
 +0.075754f,
 -0.021672f,
 +0.110423f,
 -0.031663f,
 -0.082464f,
 -0.044785f,
 -0.147253f,
 +0.005792f,
 +0.004845f,
 +0.005198f,
 -0.007891f,
 -0.021792f,
 +0.051937f,
 +0.036643f,
 -0.048651f,
 +0.091575f,
 +0.002334f,
 -0.049775f,
 +0.018152f,
 +0.026078f,
 -0.047277f,
 -0.047215f,
 -0.027511f,
 +0.106866f,

 +0.018082f,
 +0.012879f,
 +0.016172f,
 -0.044585f,
 -0.008727f,
 +0.022959f,
 -0.060904f,
 -0.035458f,
 +0.123916f,
 -0.008636f,
 +0.028657f,
 +0.057192f,
 -0.040967f,
 +0.045486f,
 -0.000677f,
 -0.025599f,
 -0.011324f,
 +0.015428f,
 -0.021697f,
 -0.007576f,
 +0.012971f,
 -0.088907f,
 +0.053731f,
 +0.024180f,
 +0.001074f,
 +0.042283f,
 -0.028440f,
 +0.146877f,
 -0.077475f,
 -0.070477f,
 -0.008825f,
 +0.079882f,

 +0.094304f,
 +0.064238f,
 -0.048208f,
 +0.060460f,
 -0.060320f,
 -0.006153f,
 -0.025527f,
 +0.051892f,
 -0.015646f,
 +0.015233f,
 -0.149306f,
 -0.055537f,
 -0.009124f,
 +0.078892f,
 +0.078347f,
 -0.036966f,
 -0.039537f,
 -0.032704f,
 +0.072637f,
 -0.048301f,
 -0.002320f,
 -0.045491f,
 +0.014523f,
 +0.002138f,
 +0.047910f,
 -0.020819f,
 +0.037174f,
 -0.066522f,
 -0.002668f,
 +0.116207f,
 -0.040200f,
 +0.029203f,

 -0.066519f,
 +0.020772f,
 +0.053542f,
 +0.059898f,
 -0.033899f,
 -0.018937f,
 +0.012042f,
 +0.029858f,
 +0.007626f,
 +0.037830f,
 +0.069156f,
 +0.024446f,
 -0.027612f,
 +0.030377f,
 -0.060402f,
 -0.165574f,
 +0.077011f,
 -0.027209f,
 +0.112769f,
 -0.012322f,
 +0.015045f,
 +0.003995f,
 -0.043585f,
 +0.130186f,
 +0.061968f,
 -0.030301f,
 +0.093423f,
 +0.018021f,
 +0.000520f,
 +0.009493f,
 +0.072604f,
 +0.024354f,

 -0.022997f,
 -0.006345f,
 -0.009716f,
 +0.163575f,
 -0.009791f,
 +0.045007f,
 -0.013213f,
 -0.012425f,
 -0.023906f,
 -0.020157f,
 -0.042218f,
 -0.024627f,
 -0.058039f,
 +0.047157f,
 -0.048083f,
 +0.004480f,
 +0.136650f,
 +0.025244f,
 +0.137843f,
 +0.018716f,
 -0.049831f,
 +0.014642f,
 -0.052899f,
 +0.072119f,
 +0.156234f,
 -0.029969f,
 +0.055273f,
 -0.002620f,
 -0.011620f,
 -0.013860f,
 +0.035388f,
 +0.018436f,

 +0.104539f,
 -0.095408f,
 +0.021758f,
 +0.078174f,
 +0.037358f,
 +0.057388f,
 +0.037015f,
 +0.081040f,
 +0.015142f,
 -0.053554f,
 -0.010896f,
 +0.070128f,
 -0.027636f,
 -0.027563f,
 +0.110920f,
 -0.149397f,
 +0.008214f,
 -0.013547f,
 +0.007046f,
 -0.013681f,
 -0.001578f,
 +0.024254f,
 -0.077654f,
 +0.074082f,
 +0.103806f,
 +0.061603f,
 -0.006927f,
 +0.012090f,
 +0.013801f,
 +0.077128f,
 +0.035544f,
 -0.008834f,

 +0.013286f,
 -0.036254f,
 +0.073190f,
 -0.018380f,
 +0.101364f,
 -0.028373f,
 +0.063335f,
 -0.071048f,
 -0.001619f,
 -0.098036f,
 +0.018686f,
 +0.022075f,
 -0.100519f,
 +0.042233f,
 -0.031426f,
 -0.007460f,
 -0.021208f,
 -0.017035f,
 -0.047662f,
 +0.000833f,
 -0.046839f,
 -0.072888f,
 -0.035491f,
 +0.052037f,
 +0.019404f,
 -0.014865f,
 -0.057301f,
 +0.067324f,
 +0.031704f,
 +0.061202f,
 -0.017870f,
 +0.005126f,

 +0.052054f,
 -0.004548f,
 -0.061887f,
 +0.103168f,
 -0.011737f,
 +0.028335f,
 +0.077640f,
 -0.061131f,
 +0.037555f,
 -0.062493f,
 +0.051036f,
 +0.029635f,
 -0.076494f,
 -0.041471f,
 -0.019767f,
 -0.031653f,
 +0.088760f,
 +0.028254f,
 -0.027627f,
 -0.004604f,
 +0.039536f,
 -0.029449f,
 -0.053778f,
 +0.014883f,
 +0.109540f,
 +0.073033f,
 +0.100311f,
 -0.032799f,
 +0.022741f,
 -0.095565f,
 +0.043424f,
 -0.072406f,

 +0.011190f,
 +0.103767f,
 -0.022911f,
 +0.007184f,
 -0.015935f,
 +0.011652f,
 -0.027227f,
 -0.081746f,
 -0.012248f,
 -0.029666f,
 -0.033256f,
 +0.031927f,
 -0.055716f,
 -0.028941f,
 +0.061157f,
 -0.085662f,
 +0.045102f,
 -0.008498f,
 +0.052136f,
 +0.082937f,
 -0.056016f,
 -0.041976f,
 -0.012254f,
 +0.001450f,
 +0.031975f,
 -0.052835f,
 -0.092328f,
 +0.037904f,
 -0.002562f,
 -0.029284f,
 +0.037100f,
 -0.103256f,

 -0.031090f,
 -0.029462f,
 -0.067584f,
 -0.068833f,
 +0.037517f,
 -0.022317f,
 +0.104358f,
 -0.004988f,
 -0.016902f,
 -0.031041f,
 -0.034437f,
 -0.014130f,
 -0.042151f,
 -0.072847f,
 -0.001633f,
 +0.110555f,
 -0.020439f,
 +0.062378f,
 -0.083472f,
 -0.005287f,
 -0.129271f,
 -0.049958f,
 -0.083321f,
 -0.024983f,
 -0.131005f,
 +0.009617f,
 -0.026016f,
 +0.038687f,
 -0.033084f,
 +0.030170f,
 -0.020100f,
 -0.025460f,

 -0.063892f,
 -0.005198f,
 -0.006087f,
 +0.031325f,
 -0.057034f,
 +0.040588f,
 -0.061445f,
 -0.070943f,
 +0.013382f,
 -0.035336f,
 -0.054064f,
 -0.015623f,
 -0.030331f,
 +0.014682f,
 +0.024284f,
 -0.031506f,
 -0.008961f,
 +0.035386f,
 -0.015592f,
 +0.025532f,
 -0.068887f,
 -0.060173f,
 +0.109903f,
 -0.011042f,
 -0.064571f,
 -0.008815f,
 -0.019699f,
 +0.068306f,
 -0.010647f,
 -0.088942f,
 -0.004883f,
 +0.056157f,

 +0.129766f,
 -0.026125f,
 +0.015674f,
 +0.051649f,
 +0.003476f,
 -0.057643f,
 +0.040009f,
 -0.024199f,
 -0.022380f,
 -0.007186f,
 -0.023674f,
 -0.038543f,
 -0.031044f,
 -0.003315f,
 +0.027383f,
 -0.079062f,
 +0.046602f,
 -0.039113f,
 +0.043645f,
 -0.033727f,
 +0.056816f,
 +0.072009f,
 -0.078942f,
 +0.128386f,
 +0.109575f,
 -0.018292f,
 +0.061576f,
 -0.066445f,
 +0.075345f,
 +0.027103f,
 -0.047572f,
 -0.009041f,

};

const float CONV5_BN2_WEIGHT[] = 
{
//    (48,),
 +5.076010f, +3.939282f, +4.378354f, +2.525298f, +4.752431f, +3.227677f, +3.623511f, +3.016048f, +5.397500f, +5.279478f, +3.671684f, +4.003433f, +2.983071f, +3.680044f, +2.983872f, +4.342300f, +3.801022f, +2.884949f, +4.331288f, +4.728611f, +5.116611f, +3.529582f, +3.659751f, +4.218918f, +4.172815f, +3.931502f, +4.694436f, +2.896728f, +4.406299f, +4.141868f, +5.252781f, +3.160615f, +4.808059f, +3.843299f, +3.933714f, +4.315868f, +4.603332f, +3.973093f, +3.927037f, +1.696171f, +3.728699f, +2.163116f, +4.181244f, +3.805753f, +4.410151f, +3.367762f, +3.178322f, +2.460382f,
};

const float CONV5_BN2_BIAS[] = 
{
//    48,
 -0.041363f, +0.233012f, +0.167498f, +0.157664f, +0.277905f, -0.149134f, +0.137554f, -0.046443f, +0.324296f, -0.100899f, +0.453915f, +0.466263f, -0.010963f, +0.031736f, +0.407935f, +0.284533f, +0.107176f, +0.197563f, -0.305231f, +0.194274f, -0.339954f, +0.341803f, +0.045205f, +0.104431f, -0.249916f, +0.613359f, +0.486389f, +0.670678f, +0.242065f, +0.736967f, -0.388030f, +0.089614f, -0.104587f, -0.164311f, +0.014633f, +0.031051f, +0.186216f, -0.056207f, +0.039103f, +0.197171f, +0.003111f, +0.141249f, +0.278006f, +0.188998f, +0.362012f, +0.381726f, +0.328344f, +0.129433f,
};

const float CONV6_CONV1_WEIGHT[] = 
{
//    48, 1, 3, 3
 -0.146946f, -0.007545f, +0.003800f, -0.094112f, -0.142660f, -0.068496f, -0.070625f, +0.068976f, -0.074512f,

 +0.042106f, +0.077073f, +0.105346f, -0.094046f, +0.009454f, +0.044528f, +0.008267f, -0.146560f, -0.131066f,

 +0.134795f, +0.075384f, +0.017986f, +0.135026f, +0.018262f, +0.069210f, +0.047243f, -0.014038f, +0.118846f,

 +0.118112f, +0.190803f, -0.082702f, -0.089946f, +0.001598f, -0.072284f, -0.034453f, -0.101118f, -0.005948f,

 -0.007929f, -0.019178f, -0.197225f, -0.000026f, +0.046614f, -0.007509f, -0.007343f, -0.027425f, +0.211730f,

 +0.039721f, +0.173570f, +0.074368f, -0.005891f, +0.045106f, +0.111438f, -0.061821f, +0.090524f, +0.124765f,

 -0.097053f, -0.006541f, +0.080796f, -0.020599f, -0.117483f, +0.169987f, -0.074846f, -0.071197f, +0.093806f,

 -0.068807f, -0.160471f, +0.082310f, +0.072194f, -0.029713f, -0.029331f, +0.093280f, +0.150125f, -0.026953f,

 -0.110966f, -0.176816f, -0.053119f, +0.031120f, +0.074349f, -0.094241f, +0.014509f, +0.113322f, -0.049679f,

 -0.013339f, +0.069619f, -0.129926f, +0.033147f, +0.111427f, +0.051486f, -0.090023f, -0.090670f, -0.047283f,

 +0.068836f, +0.122303f, +0.026414f, +0.041540f, +0.032951f, -0.012159f, -0.024080f, -0.027990f, +0.000102f,

 -0.074958f, -0.128091f, +0.075961f, -0.126489f, +0.010720f, +0.090597f, -0.051320f, +0.195515f, +0.033325f,

 +0.057927f, +0.120313f, +0.074523f, +0.004400f, +0.071222f, +0.004127f, -0.062086f, -0.017794f, -0.091885f,

 +0.021039f, -0.195136f, -0.102276f, -0.100232f, +0.120954f, +0.000227f, +0.005831f, +0.154819f, +0.103291f,

 -0.145289f, +0.187941f, +0.129430f, -0.028835f, -0.109023f, +0.036493f, +0.128606f, -0.020584f, -0.097946f,

 -0.087971f, -0.040872f, -0.026945f, +0.110202f, -0.019768f, -0.041158f, +0.234302f, +0.040975f, -0.022024f,

 -0.139679f, +0.112739f, +0.057615f, -0.110875f, +0.116970f, +0.028838f, +0.001596f, +0.082943f, -0.060551f,

 +0.085727f, -0.016735f, -0.070117f, +0.195206f, +0.103297f, -0.045954f, +0.095378f, +0.015433f, +0.029991f,

 +0.012605f, +0.074694f, +0.057491f, +0.019396f, +0.095524f, +0.074950f, +0.067633f, +0.029819f, -0.014417f,

 +0.024015f, -0.065968f, -0.064687f, +0.166471f, -0.008010f, -0.010849f, +0.142308f, -0.136485f, +0.087381f,

 +0.122977f, +0.184165f, +0.028413f, -0.077747f, +0.016463f, +0.013851f, -0.002532f, +0.108516f, -0.055744f,

 +0.200559f, +0.094222f, -0.082394f, +0.101230f, -0.071491f, +0.036431f, -0.095627f, -0.083729f, -0.026062f,

 -0.045021f, -0.147130f, -0.096631f, -0.067367f, -0.078832f, +0.062472f, +0.052702f, +0.105090f, +0.069171f,

 +0.074942f, +0.089461f, -0.021909f, -0.022415f, +0.077143f, +0.089339f, -0.040998f, +0.079691f, -0.069876f,

 -0.097009f, -0.056817f, -0.145377f, -0.020120f, +0.052939f, +0.091047f, +0.051683f, +0.048547f, +0.053744f,

 -0.029678f, +0.096913f, -0.026786f, +0.086170f, +0.097818f, -0.161772f, +0.081350f, -0.041784f, -0.108438f,

 -0.125011f, +0.104154f, +0.086136f, -0.029051f, +0.091844f, -0.016767f, +0.052930f, +0.021634f, -0.083315f,

 -0.090820f, +0.122412f, -0.101757f, -0.078730f, +0.192394f, -0.032036f, -0.053241f, +0.085900f, -0.006467f,

 +0.072178f, +0.009296f, -0.143684f, +0.114483f, -0.004819f, -0.103856f, +0.002935f, +0.145720f, -0.116791f,

 +0.149088f, +0.141573f, -0.106735f, +0.004147f, +0.027770f, +0.120209f, -0.061489f, +0.038576f, +0.046207f,

 -0.017591f, -0.104645f, -0.137801f, -0.106497f, +0.015136f, +0.022525f, +0.094230f, -0.076355f, -0.021260f,

 -0.024026f, -0.081112f, -0.010289f, +0.213842f, -0.069691f, -0.019546f, -0.062717f, +0.143866f, -0.060476f,

 +0.009030f, -0.115748f, -0.024637f, -0.060135f, -0.036131f, +0.006882f, -0.023216f, -0.110982f, -0.021655f,

 +0.104255f, +0.098258f, -0.043239f, +0.047402f, +0.175936f, +0.043459f, +0.081107f, +0.074688f, +0.119021f,

 -0.056250f, -0.128304f, -0.023153f, -0.109527f, +0.142627f, +0.005924f, -0.010952f, +0.211649f, -0.075879f,

 +0.018725f, +0.153197f, -0.010440f, -0.030344f, +0.087269f, +0.028471f, -0.025806f, -0.008734f, +0.115236f,

 -0.107263f, -0.201442f, -0.064247f, +0.038460f, +0.145199f, +0.038926f, +0.000348f, +0.076578f, +0.002359f,

 +0.073183f, +0.128087f, +0.096467f, -0.012020f, -0.054220f, +0.066627f, -0.050346f, -0.169406f, +0.024488f,

 -0.011830f, -0.103572f, +0.066247f, +0.027923f, -0.130968f, +0.015887f, +0.063851f, -0.131566f, -0.029406f,

 -0.143643f, +0.033984f, -0.051690f, -0.149716f, +0.236138f, -0.015173f, -0.074788f, +0.106645f, -0.071294f,

 -0.092849f, -0.044718f, -0.032559f, -0.137510f, -0.163123f, +0.024287f, -0.052793f, -0.143024f, +0.124666f,

 +0.088535f, +0.065265f, -0.051191f, +0.150218f, -0.155981f, -0.061086f, -0.005928f, -0.184077f, +0.066302f,

 -0.101838f, -0.141669f, -0.154265f, +0.038786f, +0.054287f, -0.002486f, -0.048869f, +0.031297f, +0.033695f,

 -0.031379f, -0.124321f, -0.032998f, +0.015360f, -0.127901f, -0.032123f, +0.045971f, -0.073444f, +0.018274f,

 -0.138490f, -0.007356f, -0.060086f, -0.077977f, +0.103418f, +0.065817f, +0.004590f, +0.104582f, +0.090024f,

 -0.058080f, +0.066777f, +0.026422f, -0.039767f, -0.195498f, +0.000297f, +0.182392f, +0.097093f, -0.078773f,

 +0.040370f, +0.107610f, +0.032096f, -0.149874f, +0.128622f, -0.033540f, -0.134584f, +0.033124f, +0.011026f,

 +0.027904f, -0.111973f, -0.030399f, -0.000521f, +0.174491f, -0.163538f, -0.105907f, +0.098466f, -0.102858f,

};

const float CONV6_BN1_WEIGHT[] = 
{
//    (48,),
 +4.033383f, +5.993495f, +2.682990f, +5.998498f, +5.272735f, +3.096215f, +4.478364f, +10.704192f, +6.668654f, +7.127267f, +6.433431f, +5.153432f, +9.815346f, +4.663892f, +8.533100f, +4.883022f, +6.517425f, +3.510702f, +5.927198f, +4.744841f, +3.502077f, +5.446653f, +4.949032f, +5.519083f, +5.066403f, +6.328498f, +5.606015f, +5.570695f, +4.431102f, +3.533269f, +4.992203f, +5.894822f, +5.765747f, +3.322016f, +6.761206f, +4.367180f, +5.295575f, +5.945491f, +8.019855f, +8.377854f, +3.783548f, +6.803580f, +6.362420f, +5.339124f, +6.508752f, +12.217668f, +9.640227f, +7.050201f,
};

const float CONV6_BN1_BIAS[] = 
{
//    48,
 +0.366112f, +0.169797f, -0.134767f, +0.002504f, -0.024832f, -0.173435f, +0.033794f, -0.155437f, +0.147599f, +0.107636f, -0.181650f, -0.013242f, -0.242343f, +0.017465f, -0.073758f, -0.071376f, -0.093413f, -0.121120f, -0.387373f, -0.075378f, -0.063271f, +0.010921f, +0.180663f, -0.258841f, -0.001074f, -0.021520f, -0.128718f, +0.012249f, +0.047524f, -0.192969f, +0.286448f, -0.022983f, +0.271577f, -0.382254f, +0.043567f, -0.268093f, +0.078504f, -0.059613f, +0.429783f, +0.354503f, +0.383569f, +0.160015f, +0.398028f, +0.478795f, -0.049767f, -0.050085f, -0.106299f, +0.390703f,
};

const float CONV6_CONV2_WEIGHT[] = 
{
//    48, 48, 1, 1
 +0.033986f,
 +0.007587f,
 +0.027399f,
 +0.108285f,
 +0.025634f,
 -0.112207f,
 -0.000539f,
 -0.005677f,
 -0.004677f,
 -0.037344f,
 +0.060246f,
 -0.018680f,
 +0.010320f,
 -0.009250f,
 +0.014550f,
 -0.003204f,
 +0.032866f,
 -0.021763f,
 -0.009676f,
 -0.066686f,
 +0.054338f,
 -0.009885f,
 -0.038674f,
 -0.042843f,
 -0.041492f,
 -0.048809f,
 -0.071351f,
 +0.028518f,
 +0.006197f,
 +0.001654f,
 -0.007671f,
 -0.002501f,
 -0.049997f,
 +0.025155f,
 +0.037943f,
 -0.023060f,
 +0.011031f,
 +0.074446f,
 +0.028044f,
 -0.059657f,
 +0.060669f,
 -0.009188f,
 -0.051235f,
 +0.008353f,
 +0.013824f,
 +0.012929f,
 +0.037736f,
 +0.020145f,

 -0.025388f,
 -0.034403f,
 +0.038619f,
 -0.072123f,
 +0.000875f,
 -0.046709f,
 +0.035646f,
 -0.053181f,
 +0.005401f,
 -0.064999f,
 +0.051130f,
 +0.049868f,
 -0.032312f,
 +0.008752f,
 +0.044023f,
 -0.044205f,
 +0.044793f,
 -0.031129f,
 -0.019401f,
 -0.006236f,
 -0.053250f,
 +0.008960f,
 -0.077550f,
 -0.008480f,
 +0.042422f,
 -0.013220f,
 -0.001821f,
 +0.045935f,
 +0.099756f,
 -0.048756f,
 +0.062602f,
 -0.025353f,
 +0.035943f,
 +0.011158f,
 -0.009581f,
 -0.014778f,
 -0.017551f,
 -0.032421f,
 +0.034102f,
 +0.019740f,
 -0.062540f,
 +0.013874f,
 -0.070712f,
 +0.028080f,
 +0.046783f,
 -0.019037f,
 -0.047527f,
 +0.021696f,

 -0.006700f,
 -0.007401f,
 -0.076284f,
 +0.026633f,
 -0.039130f,
 -0.014243f,
 -0.003666f,
 -0.006099f,
 -0.050965f,
 -0.042818f,
 -0.007375f,
 -0.003354f,
 +0.011478f,
 +0.047077f,
 +0.050519f,
 -0.008517f,
 +0.017965f,
 +0.043426f,
 -0.009769f,
 -0.041797f,
 +0.020933f,
 -0.058823f,
 +0.000062f,
 -0.089278f,
 -0.000299f,
 +0.024378f,
 -0.002589f,
 -0.084447f,
 -0.011051f,
 +0.007528f,
 -0.034578f,
 +0.019582f,
 -0.002390f,
 -0.022426f,
 +0.062153f,
 -0.041949f,
 +0.004874f,
 -0.016987f,
 -0.087211f,
 +0.095433f,
 -0.006265f,
 +0.026001f,
 -0.004886f,
 -0.052231f,
 +0.033585f,
 +0.102133f,
 -0.018436f,
 +0.003878f,

 +0.052580f,
 +0.016125f,
 -0.016719f,
 -0.062793f,
 +0.035524f,
 -0.057798f,
 +0.009245f,
 +0.014189f,
 -0.020839f,
 -0.024133f,
 -0.016875f,
 -0.050004f,
 -0.036656f,
 -0.021928f,
 +0.009864f,
 -0.053243f,
 +0.027799f,
 -0.039477f,
 +0.062121f,
 -0.013720f,
 -0.023440f,
 +0.089355f,
 -0.048174f,
 +0.042998f,
 -0.015901f,
 +0.011263f,
 +0.011678f,
 +0.036801f,
 -0.011129f,
 -0.006346f,
 +0.010656f,
 -0.083186f,
 +0.039248f,
 +0.047181f,
 -0.028227f,
 +0.027429f,
 -0.021653f,
 +0.049941f,
 +0.035931f,
 +0.041131f,
 +0.028969f,
 -0.051953f,
 -0.090650f,
 -0.058647f,
 -0.009301f,
 -0.067053f,
 +0.064732f,
 -0.008929f,

 -0.030954f,
 -0.021407f,
 -0.008322f,
 +0.114517f,
 -0.022331f,
 -0.071844f,
 -0.012250f,
 +0.011212f,
 +0.049127f,
 +0.000344f,
 +0.000042f,
 -0.018649f,
 +0.012695f,
 +0.056415f,
 -0.016577f,
 -0.028201f,
 +0.075596f,
 -0.059296f,
 +0.009970f,
 +0.018124f,
 +0.020575f,
 +0.062326f,
 -0.012035f,
 +0.013385f,
 +0.045736f,
 -0.021676f,
 +0.018243f,
 -0.004804f,
 +0.025257f,
 -0.025642f,
 -0.025465f,
 -0.024274f,
 -0.010471f,
 +0.026283f,
 -0.048596f,
 +0.030659f,
 +0.056947f,
 +0.001346f,
 +0.006474f,
 -0.039463f,
 -0.029835f,
 +0.015712f,
 -0.052901f,
 -0.040257f,
 +0.008393f,
 +0.015346f,
 -0.004397f,
 -0.078903f,

 +0.047633f,
 +0.047357f,
 +0.005585f,
 -0.004310f,
 +0.061873f,
 +0.076986f,
 -0.037313f,
 +0.065956f,
 +0.035798f,
 +0.059549f,
 +0.028905f,
 -0.022223f,
 -0.039812f,
 -0.043105f,
 -0.003739f,
 +0.050286f,
 +0.007772f,
 -0.107959f,
 -0.026391f,
 +0.018764f,
 -0.015214f,
 -0.007040f,
 -0.032249f,
 +0.037998f,
 -0.036681f,
 +0.001554f,
 -0.084688f,
 -0.110053f,
 +0.028717f,
 -0.051443f,
 -0.051596f,
 +0.032080f,
 +0.012918f,
 -0.020360f,
 +0.038712f,
 +0.080325f,
 +0.061187f,
 +0.111164f,
 -0.004755f,
 -0.001323f,
 -0.030550f,
 -0.041928f,
 +0.024025f,
 -0.003374f,
 -0.031983f,
 +0.004752f,
 -0.005569f,
 +0.066374f,

 -0.018804f,
 +0.009036f,
 +0.115156f,
 -0.001632f,
 -0.052609f,
 -0.086573f,
 -0.096748f,
 +0.067065f,
 -0.014206f,
 +0.020878f,
 +0.013810f,
 -0.058454f,
 -0.012420f,
 +0.040026f,
 +0.071036f,
 +0.061304f,
 +0.008632f,
 +0.039809f,
 -0.062878f,
 +0.010054f,
 +0.046540f,
 -0.093350f,
 +0.073867f,
 -0.017144f,
 +0.003497f,
 +0.041861f,
 -0.026039f,
 -0.030910f,
 +0.129821f,
 +0.016667f,
 +0.066483f,
 +0.073594f,
 +0.013062f,
 -0.023194f,
 -0.009791f,
 +0.044212f,
 -0.006759f,
 +0.013730f,
 +0.053066f,
 -0.096549f,
 -0.020256f,
 -0.107536f,
 +0.006183f,
 -0.091599f,
 -0.057421f,
 +0.017635f,
 +0.009919f,
 +0.081244f,

 +0.021053f,
 -0.038272f,
 +0.046370f,
 -0.017402f,
 +0.012197f,
 -0.001477f,
 -0.058477f,
 -0.016374f,
 -0.036802f,
 -0.029277f,
 +0.107714f,
 -0.068606f,
 -0.026055f,
 +0.034921f,
 +0.015424f,
 -0.021666f,
 +0.001362f,
 +0.061652f,
 -0.031110f,
 +0.007233f,
 -0.033035f,
 -0.029043f,
 -0.052395f,
 -0.034258f,
 -0.020477f,
 -0.036166f,
 +0.008574f,
 -0.054692f,
 +0.030345f,
 -0.029682f,
 +0.018754f,
 +0.008545f,
 -0.032725f,
 +0.035671f,
 +0.009461f,
 +0.079362f,
 +0.006881f,
 +0.032252f,
 +0.056133f,
 +0.032774f,
 +0.045534f,
 -0.057843f,
 -0.008814f,
 -0.030152f,
 -0.029751f,
 -0.000917f,
 +0.023328f,
 -0.039829f,

 -0.006968f,
 +0.002727f,
 +0.073333f,
 -0.063154f,
 -0.000283f,
 -0.048740f,
 +0.012451f,
 +0.059998f,
 +0.002084f,
 -0.003444f,
 -0.016093f,
 +0.048992f,
 +0.007343f,
 +0.041253f,
 +0.029118f,
 +0.010010f,
 -0.012297f,
 -0.044695f,
 +0.079117f,
 -0.014683f,
 -0.018731f,
 -0.000374f,
 +0.003913f,
 +0.001144f,
 -0.004611f,
 -0.026199f,
 -0.011164f,
 -0.047705f,
 -0.001800f,
 -0.058438f,
 +0.025070f,
 +0.054905f,
 -0.049961f,
 +0.106562f,
 +0.039990f,
 +0.010762f,
 +0.011842f,
 +0.051460f,
 +0.037356f,
 +0.055581f,
 +0.025942f,
 -0.079892f,
 -0.006178f,
 -0.038234f,
 +0.053585f,
 +0.043857f,
 +0.043180f,
 +0.024386f,

 +0.006647f,
 +0.023474f,
 -0.003592f,
 +0.047517f,
 +0.015769f,
 +0.037983f,
 +0.037331f,
 +0.048800f,
 -0.002712f,
 +0.028505f,
 -0.063065f,
 -0.047903f,
 -0.041670f,
 -0.041547f,
 -0.038581f,
 -0.010564f,
 +0.010376f,
 -0.007156f,
 -0.038112f,
 -0.001485f,
 +0.005638f,
 +0.059780f,
 -0.030756f,
 -0.037329f,
 +0.003316f,
 -0.003682f,
 -0.006856f,
 +0.006139f,
 +0.009854f,
 +0.013836f,
 +0.034988f,
 +0.025328f,
 +0.028788f,
 +0.052790f,
 +0.059621f,
 -0.003790f,
 +0.035361f,
 +0.037588f,
 +0.048696f,
 -0.026697f,
 -0.068020f,
 +0.093731f,
 +0.031715f,
 -0.015567f,
 -0.040717f,
 +0.016860f,
 +0.064267f,
 -0.018640f,

 -0.077547f,
 +0.041223f,
 +0.019260f,
 +0.022703f,
 -0.024577f,
 -0.019738f,
 +0.056741f,
 -0.044597f,
 +0.000220f,
 +0.009258f,
 -0.009570f,
 +0.001987f,
 -0.058331f,
 +0.064025f,
 -0.026156f,
 -0.033310f,
 -0.026661f,
 +0.076956f,
 +0.051046f,
 -0.041482f,
 +0.025788f,
 +0.007009f,
 -0.037553f,
 -0.049112f,
 +0.044946f,
 -0.039936f,
 -0.071860f,
 -0.012048f,
 +0.011048f,
 -0.080896f,
 +0.018152f,
 -0.044759f,
 -0.039926f,
 +0.056887f,
 -0.067609f,
 -0.006778f,
 -0.017103f,
 -0.015781f,
 +0.007358f,
 -0.034456f,
 +0.044326f,
 -0.010338f,
 -0.066753f,
 -0.028328f,
 +0.060040f,
 +0.014850f,
 -0.060210f,
 -0.027271f,

 +0.066293f,
 -0.015614f,
 +0.012784f,
 -0.019832f,
 +0.017038f,
 -0.033306f,
 +0.010892f,
 -0.065058f,
 +0.053302f,
 +0.042128f,
 -0.018299f,
 +0.006521f,
 +0.011718f,
 -0.024397f,
 +0.056772f,
 +0.012002f,
 -0.007659f,
 -0.018119f,
 -0.104213f,
 +0.010426f,
 -0.029473f,
 +0.038608f,
 -0.050003f,
 +0.025609f,
 -0.055742f,
 +0.027850f,
 -0.034828f,
 -0.002596f,
 +0.101268f,
 +0.077062f,
 +0.035340f,
 +0.035563f,
 -0.007652f,
 +0.002257f,
 +0.016001f,
 +0.019281f,
 +0.029722f,
 -0.061185f,
 +0.050941f,
 +0.017158f,
 -0.108349f,
 +0.070145f,
 -0.007399f,
 +0.028979f,
 -0.071321f,
 +0.020770f,
 -0.012425f,
 +0.101980f,

 +0.014450f,
 -0.009151f,
 +0.023990f,
 +0.047594f,
 -0.041209f,
 -0.010870f,
 +0.000206f,
 -0.005198f,
 -0.056631f,
 -0.038438f,
 +0.030354f,
 +0.078503f,
 -0.005453f,
 +0.032336f,
 -0.005077f,
 -0.045160f,
 -0.056931f,
 -0.044432f,
 -0.008333f,
 +0.039557f,
 -0.007836f,
 -0.061519f,
 +0.094492f,
 -0.002874f,
 +0.078700f,
 -0.003819f,
 +0.067042f,
 +0.005708f,
 -0.009750f,
 -0.013084f,
 +0.060124f,
 +0.037894f,
 -0.007101f,
 +0.064969f,
 +0.016657f,
 +0.040753f,
 -0.053292f,
 -0.044002f,
 +0.015594f,
 +0.012423f,
 -0.004655f,
 +0.000803f,
 -0.008768f,
 +0.062935f,
 +0.036703f,
 -0.015018f,
 +0.021828f,
 -0.004401f,

 -0.000530f,
 +0.030139f,
 -0.075811f,
 +0.045008f,
 +0.019729f,
 -0.028710f,
 -0.047019f,
 -0.011272f,
 +0.014557f,
 +0.020258f,
 +0.008554f,
 -0.036165f,
 -0.119562f,
 +0.029270f,
 +0.044777f,
 -0.036491f,
 -0.022191f,
 -0.029650f,
 -0.024408f,
 -0.044938f,
 -0.027136f,
 +0.019479f,
 -0.052722f,
 +0.003932f,
 -0.060183f,
 +0.032215f,
 -0.061856f,
 -0.036368f,
 +0.014128f,
 +0.050985f,
 +0.033198f,
 +0.008938f,
 -0.031879f,
 -0.041828f,
 +0.065340f,
 +0.035599f,
 +0.063232f,
 -0.068832f,
 -0.001483f,
 +0.070234f,
 -0.078747f,
 -0.030754f,
 -0.056646f,
 -0.083934f,
 -0.015728f,
 +0.086108f,
 +0.003302f,
 +0.050630f,

 +0.046791f,
 -0.036244f,
 -0.110997f,
 +0.009363f,
 +0.079437f,
 +0.015057f,
 -0.174271f,
 +0.041474f,
 -0.061237f,
 -0.032040f,
 +0.067001f,
 -0.026781f,
 +0.050260f,
 +0.005007f,
 -0.027322f,
 -0.015462f,
 -0.044640f,
 -0.061725f,
 -0.070995f,
 +0.040229f,
 -0.010205f,
 +0.136581f,
 +0.079544f,
 -0.017068f,
 -0.015837f,
 -0.041942f,
 +0.059906f,
 -0.121198f,
 -0.016694f,
 +0.017299f,
 +0.011827f,
 +0.022378f,
 +0.016630f,
 -0.036264f,
 +0.014521f,
 -0.023258f,
 -0.009218f,
 +0.024787f,
 -0.054337f,
 +0.036205f,
 -0.135858f,
 -0.043155f,
 -0.033549f,
 -0.008928f,
 +0.010962f,
 -0.022978f,
 -0.035646f,
 -0.054135f,

 -0.018006f,
 +0.043743f,
 +0.037736f,
 -0.018167f,
 -0.000569f,
 +0.033493f,
 -0.048390f,
 +0.109578f,
 -0.041258f,
 +0.065989f,
 -0.004977f,
 -0.033914f,
 -0.048235f,
 +0.099600f,
 -0.070869f,
 -0.015101f,
 -0.006783f,
 -0.028275f,
 -0.003798f,
 -0.035617f,
 -0.011729f,
 -0.068879f,
 -0.030421f,
 +0.063871f,
 -0.019287f,
 -0.059684f,
 -0.015685f,
 -0.002799f,
 -0.013378f,
 +0.022037f,
 +0.055450f,
 -0.001557f,
 -0.018259f,
 +0.053470f,
 +0.003602f,
 -0.016491f,
 -0.023321f,
 -0.020725f,
 +0.010758f,
 +0.038683f,
 +0.099661f,
 -0.115150f,
 -0.045088f,
 -0.057942f,
 +0.031508f,
 +0.052597f,
 -0.031594f,
 +0.007766f,

 -0.074367f,
 -0.058941f,
 -0.032230f,
 +0.018265f,
 +0.014365f,
 -0.061661f,
 +0.011287f,
 -0.073359f,
 +0.035074f,
 +0.000369f,
 +0.035491f,
 +0.033121f,
 -0.017903f,
 +0.095303f,
 -0.038419f,
 -0.064266f,
 -0.046342f,
 +0.077676f,
 -0.072055f,
 +0.007757f,
 +0.073340f,
 -0.124860f,
 +0.038674f,
 +0.006367f,
 -0.019511f,
 -0.057543f,
 -0.043076f,
 -0.030086f,
 -0.063580f,
 -0.013356f,
 +0.020595f,
 +0.017887f,
 -0.048912f,
 -0.037878f,
 +0.074487f,
 -0.021423f,
 +0.045835f,
 -0.001221f,
 +0.008734f,
 -0.011224f,
 -0.053049f,
 -0.044525f,
 -0.002220f,
 -0.058811f,
 +0.016703f,
 -0.038181f,
 -0.044665f,
 -0.037345f,

 +0.000049f,
 -0.055101f,
 +0.038153f,
 -0.020970f,
 -0.026587f,
 +0.006130f,
 -0.057057f,
 -0.042495f,
 -0.022874f,
 -0.022905f,
 +0.115998f,
 -0.005665f,
 -0.046257f,
 -0.006411f,
 -0.047494f,
 -0.060046f,
 +0.004369f,
 -0.001339f,
 +0.062222f,
 -0.063788f,
 -0.061514f,
 -0.012443f,
 +0.004679f,
 +0.021353f,
 -0.062026f,
 -0.035114f,
 -0.013765f,
 +0.001168f,
 -0.063677f,
 -0.053450f,
 +0.032246f,
 -0.007773f,
 -0.019140f,
 +0.099833f,
 -0.029247f,
 -0.020288f,
 -0.020762f,
 +0.018197f,
 +0.017095f,
 -0.020304f,
 +0.034473f,
 -0.023616f,
 -0.014854f,
 +0.059484f,
 -0.007975f,
 +0.015643f,
 -0.013709f,
 +0.010079f,

 -0.011240f,
 -0.039317f,
 -0.011581f,
 +0.059282f,
 +0.082821f,
 -0.070265f,
 +0.027253f,
 -0.029720f,
 +0.017498f,
 +0.045935f,
 -0.020920f,
 +0.036396f,
 +0.024267f,
 -0.052950f,
 +0.075773f,
 +0.012329f,
 +0.062650f,
 +0.021465f,
 -0.061957f,
 -0.000328f,
 -0.070138f,
 -0.005134f,
 -0.025027f,
 +0.043221f,
 -0.112748f,
 +0.004939f,
 -0.043322f,
 +0.016329f,
 +0.097632f,
 +0.012715f,
 +0.093280f,
 +0.070517f,
 +0.063395f,
 -0.078017f,
 -0.104106f,
 +0.158916f,
 +0.049138f,
 -0.031955f,
 +0.068943f,
 +0.091539f,
 -0.033965f,
 -0.138692f,
 -0.151775f,
 -0.021549f,
 -0.007418f,
 -0.053701f,
 +0.024762f,
 +0.035747f,

 +0.021808f,
 -0.008175f,
 -0.011013f,
 +0.070071f,
 +0.018915f,
 -0.077308f,
 +0.029009f,
 -0.023202f,
 +0.015722f,
 +0.028327f,
 -0.021186f,
 +0.095349f,
 -0.039513f,
 -0.032930f,
 +0.013945f,
 -0.017543f,
 -0.010899f,
 +0.020880f,
 -0.055921f,
 -0.027179f,
 -0.006208f,
 +0.087960f,
 -0.037905f,
 +0.001974f,
 -0.078517f,
 -0.035436f,
 -0.071540f,
 -0.008496f,
 +0.031565f,
 +0.041189f,
 +0.014453f,
 +0.005710f,
 +0.037460f,
 +0.003801f,
 +0.049702f,
 +0.015515f,
 +0.045389f,
 -0.007131f,
 +0.077661f,
 +0.113104f,
 -0.033693f,
 -0.051237f,
 -0.060296f,
 -0.031756f,
 +0.026570f,
 +0.011473f,
 -0.020488f,
 +0.038312f,

 +0.070520f,
 -0.021494f,
 +0.008123f,
 -0.023576f,
 -0.035489f,
 -0.065466f,
 -0.029684f,
 +0.025262f,
 +0.059034f,
 -0.106949f,
 -0.033241f,
 -0.076542f,
 -0.091776f,
 +0.061934f,
 -0.011919f,
 -0.001868f,
 -0.030464f,
 -0.136267f,
 -0.043383f,
 -0.005529f,
 -0.039884f,
 +0.033736f,
 -0.093987f,
 +0.002323f,
 +0.021906f,
 +0.034342f,
 +0.009052f,
 +0.023414f,
 +0.075959f,
 +0.063185f,
 +0.058967f,
 +0.039692f,
 -0.049093f,
 -0.013649f,
 +0.091188f,
 +0.110704f,
 -0.019423f,
 -0.034466f,
 +0.030238f,
 +0.099277f,
 -0.110751f,
 +0.074425f,
 +0.028531f,
 -0.045266f,
 -0.009113f,
 +0.063953f,
 -0.010934f,
 +0.158390f,

 +0.020984f,
 +0.081927f,
 +0.039695f,
 +0.038839f,
 +0.016720f,
 +0.088082f,
 -0.030568f,
 +0.085999f,
 +0.022521f,
 +0.006746f,
 -0.051312f,
 +0.003706f,
 +0.020429f,
 +0.039451f,
 +0.118059f,
 -0.019600f,
 -0.000537f,
 -0.007881f,
 +0.022462f,
 -0.023977f,
 +0.047358f,
 +0.005859f,
 +0.059067f,
 -0.030061f,
 +0.045400f,
 -0.003932f,
 -0.019545f,
 -0.058412f,
 +0.039482f,
 -0.036832f,
 -0.016128f,
 +0.015447f,
 +0.027679f,
 -0.023519f,
 +0.041391f,
 -0.033621f,
 -0.011558f,
 +0.028116f,
 -0.004134f,
 +0.033519f,
 -0.034666f,
 -0.042093f,
 +0.039847f,
 -0.016682f,
 -0.015188f,
 +0.103951f,
 -0.048255f,
 -0.001522f,

 -0.052374f,
 +0.005610f,
 -0.028361f,
 +0.088162f,
 +0.007877f,
 -0.084014f,
 +0.032062f,
 +0.114449f,
 -0.001130f,
 -0.019021f,
 +0.091913f,
 +0.001797f,
 -0.012071f,
 -0.011364f,
 +0.058296f,
 +0.015123f,
 +0.024851f,
 -0.054572f,
 +0.007848f,
 -0.029505f,
 -0.008698f,
 -0.015880f,
 -0.080763f,
 -0.036067f,
 -0.057080f,
 +0.002711f,
 +0.024391f,
 -0.002703f,
 -0.033547f,
 +0.002234f,
 -0.013446f,
 -0.011126f,
 +0.026654f,
 -0.019607f,
 -0.016904f,
 +0.016180f,
 +0.037721f,
 +0.038012f,
 +0.051747f,
 +0.026190f,
 +0.034478f,
 +0.038148f,
 -0.054434f,
 +0.010425f,
 +0.070806f,
 -0.041391f,
 -0.018589f,
 -0.020746f,

 +0.011439f,
 -0.030866f,
 -0.018614f,
 -0.000504f,
 -0.014108f,
 +0.017701f,
 +0.011685f,
 -0.003197f,
 -0.027942f,
 +0.007223f,
 +0.043549f,
 -0.010694f,
 -0.045457f,
 +0.060108f,
 +0.037615f,
 -0.049206f,
 +0.052253f,
 +0.046614f,
 -0.002641f,
 +0.079395f,
 -0.025653f,
 -0.031939f,
 -0.018638f,
 +0.004838f,
 +0.041454f,
 +0.019106f,
 +0.046336f,
 -0.011059f,
 -0.018894f,
 +0.049986f,
 +0.062560f,
 +0.028760f,
 +0.021880f,
 +0.066364f,
 -0.048376f,
 -0.033696f,
 -0.009797f,
 -0.090076f,
 -0.009869f,
 -0.054211f,
 -0.016720f,
 +0.075604f,
 +0.022984f,
 -0.011491f,
 +0.015718f,
 -0.010715f,
 -0.024610f,
 -0.054752f,

 +0.052552f,
 +0.030864f,
 -0.047461f,
 +0.087452f,
 +0.025952f,
 +0.012892f,
 -0.014841f,
 +0.059522f,
 +0.043220f,
 +0.051000f,
 -0.013627f,
 +0.029111f,
 +0.017288f,
 +0.132199f,
 -0.054053f,
 -0.028491f,
 +0.036553f,
 +0.014946f,
 -0.089786f,
 -0.023304f,
 +0.046174f,
 -0.027735f,
 -0.019599f,
 +0.022114f,
 +0.002754f,
 +0.039605f,
 -0.028197f,
 +0.000122f,
 +0.017969f,
 -0.057241f,
 +0.015382f,
 +0.070661f,
 -0.022710f,
 -0.055351f,
 +0.092344f,
 -0.052641f,
 +0.085039f,
 -0.012240f,
 +0.014426f,
 -0.049984f,
 -0.024182f,
 +0.038793f,
 +0.019910f,
 -0.040797f,
 +0.067885f,
 +0.025863f,
 -0.068178f,
 +0.054846f,

 -0.087473f,
 -0.094314f,
 -0.069543f,
 +0.165568f,
 -0.046015f,
 -0.062392f,
 +0.033355f,
 -0.000894f,
 +0.119882f,
 +0.002720f,
 -0.056842f,
 -0.006042f,
 +0.013685f,
 -0.072577f,
 +0.038874f,
 -0.063497f,
 +0.054526f,
 +0.028992f,
 -0.023231f,
 +0.009930f,
 -0.060620f,
 +0.073763f,
 +0.099711f,
 +0.019507f,
 -0.056436f,
 +0.026951f,
 -0.070456f,
 -0.055388f,
 -0.000808f,
 -0.060479f,
 +0.045479f,
 -0.019876f,
 -0.075425f,
 -0.096868f,
 +0.013019f,
 +0.028611f,
 +0.146519f,
 -0.079768f,
 +0.043884f,
 +0.083047f,
 -0.034046f,
 -0.015499f,
 +0.001403f,
 +0.023869f,
 +0.000001f,
 +0.038911f,
 -0.011445f,
 +0.120090f,

 -0.077205f,
 +0.012767f,
 +0.044168f,
 -0.045436f,
 -0.023519f,
 -0.117113f,
 +0.066204f,
 +0.016234f,
 -0.020353f,
 -0.020211f,
 +0.032437f,
 +0.018183f,
 +0.000119f,
 -0.065660f,
 -0.021368f,
 -0.017996f,
 +0.013164f,
 +0.068114f,
 -0.055978f,
 -0.002556f,
 -0.000561f,
 -0.059669f,
 +0.046704f,
 +0.062379f,
 -0.022330f,
 -0.016040f,
 +0.059837f,
 +0.141593f,
 +0.073178f,
 -0.057331f,
 +0.002494f,
 -0.038549f,
 -0.029685f,
 +0.052155f,
 +0.067160f,
 +0.080000f,
 -0.001585f,
 -0.010596f,
 +0.112903f,
 +0.039837f,
 -0.036272f,
 +0.079591f,
 -0.090697f,
 +0.028128f,
 +0.022152f,
 +0.000734f,
 +0.004420f,
 +0.047620f,

 -0.060346f,
 +0.001856f,
 -0.072899f,
 -0.030311f,
 -0.043825f,
 -0.068616f,
 -0.050983f,
 -0.011321f,
 -0.012847f,
 -0.009049f,
 +0.010954f,
 -0.036907f,
 +0.009527f,
 +0.040791f,
 +0.033851f,
 -0.066000f,
 +0.005216f,
 +0.012440f,
 +0.077427f,
 -0.002136f,
 -0.010989f,
 +0.020647f,
 +0.044483f,
 -0.018945f,
 +0.005906f,
 -0.071131f,
 -0.006700f,
 -0.056663f,
 -0.053395f,
 -0.072303f,
 -0.069369f,
 +0.017809f,
 -0.021321f,
 +0.013167f,
 -0.034064f,
 -0.016019f,
 -0.011585f,
 -0.024035f,
 -0.034595f,
 -0.017440f,
 +0.062655f,
 -0.029973f,
 +0.010779f,
 -0.043564f,
 +0.056470f,
 -0.055836f,
 -0.004561f,
 +0.012433f,

 -0.038337f,
 -0.079365f,
 +0.049253f,
 +0.028315f,
 -0.062832f,
 -0.037833f,
 +0.069068f,
 +0.009083f,
 +0.044609f,
 +0.002935f,
 -0.018538f,
 +0.011086f,
 +0.080760f,
 -0.018551f,
 -0.001999f,
 -0.072338f,
 +0.015176f,
 +0.057687f,
 -0.049088f,
 +0.000126f,
 -0.040527f,
 -0.014511f,
 +0.049619f,
 -0.004653f,
 -0.025671f,
 +0.045512f,
 +0.092872f,
 +0.167503f,
 +0.018842f,
 -0.005903f,
 -0.004510f,
 -0.080231f,
 +0.020966f,
 +0.010207f,
 -0.013117f,
 -0.002994f,
 -0.058190f,
 -0.045727f,
 +0.077856f,
 +0.077129f,
 +0.068904f,
 +0.061115f,
 -0.109574f,
 +0.029478f,
 +0.004281f,
 -0.061686f,
 +0.030651f,
 +0.027493f,

 +0.037265f,
 -0.056872f,
 -0.020933f,
 +0.077083f,
 +0.005533f,
 -0.080517f,
 -0.021520f,
 +0.062466f,
 +0.054312f,
 -0.072462f,
 +0.035662f,
 -0.044880f,
 -0.047404f,
 -0.053089f,
 +0.029574f,
 -0.042247f,
 +0.016181f,
 -0.059148f,
 +0.003268f,
 -0.071028f,
 -0.104838f,
 -0.005829f,
 -0.093043f,
 -0.027278f,
 -0.055241f,
 -0.024704f,
 +0.030932f,
 +0.034249f,
 -0.017005f,
 +0.062550f,
 +0.023909f,
 +0.067132f,
 -0.008200f,
 -0.006198f,
 +0.089557f,
 -0.006511f,
 +0.094439f,
 +0.049382f,
 +0.049494f,
 -0.042893f,
 -0.041387f,
 +0.160297f,
 +0.006611f,
 +0.023714f,
 -0.036894f,
 +0.054305f,
 +0.028553f,
 +0.068570f,

 -0.051020f,
 +0.020149f,
 +0.056337f,
 -0.013055f,
 +0.082533f,
 -0.061104f,
 +0.037329f,
 +0.073506f,
 +0.003168f,
 +0.033454f,
 -0.069120f,
 +0.078832f,
 +0.047727f,
 -0.037849f,
 +0.014034f,
 -0.065810f,
 -0.027893f,
 -0.009550f,
 -0.027131f,
 -0.027068f,
 +0.017726f,
 -0.037345f,
 -0.034432f,
 +0.026525f,
 +0.000022f,
 -0.019537f,
 -0.044783f,
 -0.005773f,
 -0.040176f,
 -0.028059f,
 +0.002577f,
 -0.022543f,
 -0.003043f,
 -0.006419f,
 -0.038217f,
 +0.018674f,
 +0.022763f,
 -0.023744f,
 -0.005551f,
 +0.059005f,
 +0.024788f,
 +0.045176f,
 +0.004043f,
 -0.004216f,
 -0.035682f,
 -0.005542f,
 +0.032163f,
 -0.070261f,

 -0.039499f,
 -0.100610f,
 -0.048747f,
 +0.100010f,
 +0.053521f,
 +0.028566f,
 +0.055581f,
 +0.001683f,
 +0.048336f,
 -0.024082f,
 -0.000351f,
 -0.042321f,
 -0.012041f,
 +0.040534f,
 +0.024027f,
 -0.007427f,
 +0.117288f,
 +0.071346f,
 -0.035916f,
 +0.018872f,
 +0.006822f,
 +0.075131f,
 -0.052551f,
 -0.063007f,
 -0.003406f,
 +0.030098f,
 +0.062791f,
 +0.004163f,
 -0.007576f,
 +0.069041f,
 -0.034047f,
 +0.042824f,
 -0.028669f,
 -0.015535f,
 +0.008289f,
 +0.004573f,
 +0.068743f,
 +0.000403f,
 -0.018141f,
 +0.065677f,
 -0.054138f,
 +0.000148f,
 -0.029444f,
 -0.093303f,
 +0.040148f,
 -0.018175f,
 -0.039642f,
 -0.022386f,

 +0.020177f,
 -0.006537f,
 -0.035399f,
 -0.044020f,
 -0.012531f,
 -0.097649f,
 +0.026549f,
 -0.014633f,
 -0.051025f,
 -0.054967f,
 -0.010626f,
 -0.017744f,
 -0.003716f,
 -0.001578f,
 -0.013420f,
 -0.056274f,
 -0.040455f,
 -0.090904f,
 +0.046603f,
 -0.022519f,
 -0.044475f,
 -0.043829f,
 +0.004842f,
 +0.056700f,
 +0.019292f,
 -0.069219f,
 +0.011003f,
 -0.027147f,
 +0.006212f,
 -0.053018f,
 +0.026073f,
 -0.024183f,
 +0.010358f,
 -0.005945f,
 -0.005662f,
 +0.024787f,
 -0.020209f,
 +0.017958f,
 -0.005793f,
 -0.062623f,
 +0.090669f,
 +0.022298f,
 +0.041447f,
 +0.043521f,
 +0.069247f,
 +0.002032f,
 +0.024866f,
 -0.028329f,

 +0.082771f,
 +0.034292f,
 -0.037067f,
 -0.069661f,
 +0.002992f,
 -0.018797f,
 +0.073916f,
 -0.081318f,
 +0.029339f,
 +0.013175f,
 +0.001279f,
 +0.076322f,
 +0.020569f,
 -0.002087f,
 +0.044640f,
 +0.007060f,
 -0.012738f,
 -0.005169f,
 -0.071418f,
 +0.006585f,
 -0.002000f,
 -0.055424f,
 +0.022043f,
 +0.001618f,
 +0.045392f,
 +0.023874f,
 +0.009523f,
 +0.055309f,
 +0.027764f,
 -0.066403f,
 +0.010945f,
 +0.009107f,
 +0.034273f,
 -0.040400f,
 -0.030386f,
 +0.035565f,
 +0.014233f,
 -0.029795f,
 +0.023377f,
 +0.038626f,
 -0.047291f,
 -0.007533f,
 -0.014549f,
 -0.020245f,
 +0.014425f,
 +0.051139f,
 -0.009985f,
 -0.062721f,

 +0.020456f,
 -0.033564f,
 -0.008865f,
 +0.127526f,
 +0.067059f,
 -0.097682f,
 -0.045098f,
 -0.066821f,
 +0.037942f,
 -0.013841f,
 -0.015888f,
 -0.037244f,
 -0.008403f,
 -0.104467f,
 +0.028999f,
 +0.026263f,
 -0.002869f,
 -0.116034f,
 -0.066141f,
 -0.073866f,
 -0.026226f,
 +0.010876f,
 -0.137509f,
 +0.005406f,
 -0.049395f,
 +0.053744f,
 -0.044158f,
 +0.027077f,
 +0.089419f,
 +0.086836f,
 +0.029724f,
 -0.018265f,
 +0.028628f,
 -0.060015f,
 -0.039272f,
 +0.059980f,
 -0.004604f,
 +0.066801f,
 +0.021379f,
 +0.053131f,
 -0.030950f,
 -0.025693f,
 -0.009629f,
 -0.051109f,
 -0.029998f,
 -0.034802f,
 +0.121618f,
 +0.008480f,

 +0.002635f,
 +0.032138f,
 -0.024815f,
 +0.054296f,
 -0.033566f,
 +0.056972f,
 -0.050164f,
 +0.016264f,
 -0.008066f,
 +0.048479f,
 +0.052953f,
 -0.004087f,
 -0.037977f,
 +0.002188f,
 +0.051757f,
 +0.039171f,
 -0.043521f,
 +0.029173f,
 -0.074908f,
 +0.010105f,
 -0.012657f,
 +0.054750f,
 +0.002184f,
 -0.019811f,
 +0.042567f,
 -0.072121f,
 -0.009133f,
 -0.112993f,
 -0.055606f,
 +0.004042f,
 +0.025743f,
 +0.049893f,
 +0.017888f,
 -0.043190f,
 -0.026418f,
 +0.029419f,
 +0.050396f,
 +0.028485f,
 -0.043493f,
 +0.026490f,
 -0.001242f,
 -0.001968f,
 +0.009958f,
 +0.032490f,
 -0.018823f,
 -0.002006f,
 +0.016237f,
 -0.043170f,

 -0.046146f,
 -0.056354f,
 +0.032675f,
 -0.034337f,
 -0.003989f,
 -0.055655f,
 +0.041082f,
 +0.008353f,
 -0.008444f,
 -0.024707f,
 +0.015509f,
 -0.028523f,
 -0.000344f,
 -0.097367f,
 +0.022123f,
 -0.044800f,
 -0.000698f,
 -0.098637f,
 +0.076602f,
 +0.023074f,
 -0.053377f,
 -0.025995f,
 -0.033895f,
 -0.003328f,
 -0.014398f,
 -0.034447f,
 -0.031070f,
 +0.064627f,
 -0.009188f,
 +0.027043f,
 -0.012105f,
 -0.032220f,
 -0.027555f,
 -0.033002f,
 -0.076157f,
 +0.022025f,
 -0.048603f,
 +0.008798f,
 +0.056009f,
 +0.019107f,
 +0.082597f,
 -0.028133f,
 -0.073120f,
 -0.059280f,
 -0.002970f,
 -0.020104f,
 -0.003022f,
 -0.032325f,

 -0.029717f,
 +0.074011f,
 -0.019784f,
 +0.112352f,
 -0.015367f,
 +0.114822f,
 -0.034054f,
 -0.034743f,
 +0.072454f,
 +0.010521f,
 -0.059184f,
 -0.080432f,
 -0.030065f,
 -0.026921f,
 +0.033782f,
 +0.036844f,
 -0.011139f,
 -0.005250f,
 -0.003885f,
 +0.013026f,
 -0.021945f,
 +0.107744f,
 -0.055128f,
 +0.005724f,
 +0.007908f,
 -0.025871f,
 -0.000672f,
 +0.018374f,
 +0.016480f,
 +0.008918f,
 +0.021880f,
 -0.035862f,
 -0.015181f,
 -0.044729f,
 +0.005845f,
 +0.048974f,
 +0.031116f,
 -0.061654f,
 -0.023312f,
 -0.045792f,
 -0.068750f,
 -0.040254f,
 +0.021250f,
 -0.012352f,
 +0.042227f,
 +0.030281f,
 +0.018655f,
 -0.027218f,

 +0.010556f,
 -0.005968f,
 +0.069381f,
 -0.178649f,
 -0.039227f,
 -0.014744f,
 -0.028986f,
 +0.020301f,
 +0.064827f,
 -0.034963f,
 +0.003108f,
 +0.117372f,
 -0.027832f,
 -0.033666f,
 +0.065976f,
 -0.051720f,
 -0.038244f,
 -0.090435f,
 +0.031607f,
 +0.001910f,
 -0.071230f,
 -0.058182f,
 +0.064216f,
 +0.039764f,
 -0.006626f,
 +0.050204f,
 -0.000299f,
 +0.069278f,
 +0.055990f,
 -0.023613f,
 -0.002843f,
 -0.009041f,
 -0.050068f,
 +0.009582f,
 -0.084901f,
 +0.048826f,
 -0.097918f,
 -0.070443f,
 -0.027583f,
 +0.007262f,
 +0.077369f,
 -0.023281f,
 -0.052423f,
 -0.045071f,
 +0.031979f,
 +0.053620f,
 +0.045444f,
 +0.038404f,

 +0.070056f,
 -0.028218f,
 -0.092010f,
 -0.001939f,
 -0.104014f,
 +0.003507f,
 -0.047227f,
 -0.015160f,
 +0.089535f,
 -0.014436f,
 -0.042400f,
 +0.036625f,
 -0.114069f,
 +0.038339f,
 +0.036037f,
 -0.147020f,
 +0.078906f,
 -0.010926f,
 -0.010323f,
 +0.032202f,
 -0.087458f,
 +0.004096f,
 -0.093205f,
 +0.046831f,
 +0.048996f,
 +0.141230f,
 +0.145504f,
 +0.028464f,
 -0.018341f,
 -0.015771f,
 -0.025334f,
 -0.082573f,
 +0.045436f,
 -0.031401f,
 -0.013281f,
 -0.008841f,
 -0.021718f,
 +0.012383f,
 -0.092471f,
 -0.004798f,
 -0.020646f,
 +0.137002f,
 -0.089481f,
 -0.022974f,
 -0.024653f,
 +0.003154f,
 -0.015976f,
 -0.019327f,

 +0.045237f,
 +0.015325f,
 -0.010895f,
 -0.057552f,
 -0.034425f,
 -0.136880f,
 +0.006806f,
 +0.066247f,
 +0.009764f,
 +0.007467f,
 -0.023990f,
 -0.071477f,
 -0.131329f,
 +0.049418f,
 -0.034818f,
 -0.026353f,
 -0.107273f,
 -0.089979f,
 +0.010407f,
 -0.060468f,
 -0.075180f,
 +0.009388f,
 -0.082557f,
 -0.020662f,
 -0.014378f,
 +0.106732f,
 -0.021225f,
 -0.045298f,
 +0.033481f,
 +0.019634f,
 +0.005202f,
 +0.096422f,
 +0.024722f,
 -0.033488f,
 +0.122317f,
 -0.050431f,
 -0.108886f,
 -0.034270f,
 -0.035531f,
 +0.155023f,
 -0.060448f,
 -0.120856f,
 -0.052302f,
 -0.116875f,
 +0.025044f,
 +0.047756f,
 -0.003831f,
 +0.074708f,

 -0.038883f,
 -0.034069f,
 +0.054259f,
 +0.021296f,
 +0.044403f,
 -0.052315f,
 -0.007798f,
 +0.025836f,
 +0.017470f,
 +0.036166f,
 +0.087257f,
 +0.011052f,
 -0.049591f,
 -0.050076f,
 -0.010153f,
 -0.011332f,
 -0.002355f,
 +0.057444f,
 -0.006150f,
 -0.038188f,
 +0.035557f,
 +0.042966f,
 +0.009060f,
 -0.029501f,
 +0.026748f,
 +0.029580f,
 +0.022693f,
 +0.040738f,
 -0.006583f,
 -0.026611f,
 +0.029547f,
 -0.048251f,
 -0.025589f,
 -0.035263f,
 -0.058879f,
 -0.046224f,
 +0.017270f,
 +0.076339f,
 +0.038984f,
 -0.057753f,
 -0.042560f,
 +0.016275f,
 +0.007213f,
 +0.000201f,
 +0.047790f,
 +0.063273f,
 -0.005290f,
 +0.046223f,

 +0.010761f,
 +0.018180f,
 +0.099495f,
 -0.112155f,
 -0.022347f,
 +0.090522f,
 +0.018774f,
 +0.086645f,
 +0.012485f,
 -0.012441f,
 -0.045046f,
 -0.021298f,
 +0.025036f,
 +0.022025f,
 -0.062503f,
 +0.097586f,
 -0.027832f,
 -0.014183f,
 -0.006062f,
 -0.048097f,
 -0.047897f,
 +0.018704f,
 +0.015111f,
 -0.060164f,
 -0.012794f,
 -0.026328f,
 +0.030921f,
 +0.007406f,
 -0.021630f,
 +0.019206f,
 +0.011408f,
 +0.056095f,
 +0.001128f,
 +0.014737f,
 +0.055811f,
 -0.113939f,
 -0.060710f,
 -0.057800f,
 +0.053146f,
 -0.009901f,
 -0.009658f,
 +0.014387f,
 -0.075269f,
 -0.065445f,
 -0.044282f,
 +0.052853f,
 -0.056492f,
 +0.007691f,

 -0.001043f,
 +0.035508f,
